~o
<STREAMINFO> 1 42
<VECSIZE> 42<NULLD><USER_D_A><DIAGC>
~s "silst"
<NUMMIXES> 7
<MIXTURE> 1 1.969046e-01
<MEAN> 42
 5.648640e+07 -7.215866e+06 -1.903658e+06 1.052817e+07 -5.997454e+05 4.048188e+06 5.363882e+06 4.144922e+06 4.880436e+06 1.287565e+06 -7.980784e+05 -2.116408e+05 -1.799714e+06 -4.444702e+06 -1.229471e+06 -2.625044e+04 9.355221e+04 -4.494860e+05 -2.458220e+05 -3.510958e+05 9.143111e+03 -1.226962e+04 -2.087748e+05 -2.401975e+05 -3.878920e+04 4.487207e+04 -1.722156e+02 7.179160e+04 5.972323e+05 -1.568962e+05 -2.845538e+05 1.200844e+05 -1.006790e+05 3.118935e+03 -5.120466e+04 -7.626711e+04 6.083492e+04 7.153882e+04 -2.934836e+04 4.611564e+04 5.278173e+04 4.770605e+03
<VARIANCE> 42
 7.722748e+15 2.009958e+15 3.918619e+15 3.620416e+15 5.671945e+15 5.136407e+15 4.980856e+15 5.606635e+15 5.649181e+15 5.613416e+15 5.913046e+15 5.842096e+15 5.253572e+15 5.560280e+15 1.371078e+14 7.575631e+13 1.226420e+14 1.457021e+14 2.176930e+14 2.199495e+14 2.253853e+14 2.463953e+14 2.564452e+14 2.732001e+14 2.952720e+14 2.877929e+14 2.638742e+14 2.855689e+14 1.360466e+13 9.479487e+12 1.363136e+13 1.975463e+13 2.986136e+13 3.185525e+13 3.261818e+13 3.544296e+13 3.796756e+13 4.146174e+13 4.582528e+13 4.599681e+13 4.259342e+13 4.616876e+13
<GCONST> 1.478314e+03
<MIXTURE> 2 1.566628e-01
<MEAN> 42
 5.768641e+07 -7.637938e+06 -2.217569e+06 1.060182e+07 -8.411257e+05 3.957800e+06 5.361804e+06 4.156357e+06 4.928710e+06 1.305360e+06 -7.737632e+05 -1.671835e+05 -1.754596e+06 -4.418382e+06 -1.248145e+06 -1.729813e+04 1.004534e+05 -4.557106e+05 -2.451238e+05 -3.535979e+05 1.294894e+04 -9.227447e+03 -2.113651e+05 -2.432024e+05 -3.798580e+04 4.558842e+04 -3.745962e+03 6.985201e+04 5.322063e+05 -1.352166e+05 -2.623057e+05 1.145540e+05 -8.575948e+04 1.006164e+04 -5.246402e+04 -7.533398e+04 5.903634e+04 7.026768e+04 -3.121697e+04 4.394076e+04 5.014775e+04 1.840292e+03
<VARIANCE> 42
 7.722748e+15 2.009958e+15 3.918619e+15 3.620416e+15 5.671945e+15 5.136407e+15 4.980856e+15 5.606635e+15 5.649181e+15 5.613416e+15 5.913046e+15 5.842096e+15 5.253572e+15 5.560280e+15 1.371078e+14 7.575631e+13 1.226420e+14 1.457021e+14 2.176930e+14 2.199495e+14 2.253853e+14 2.463953e+14 2.564452e+14 2.732001e+14 2.952720e+14 2.877929e+14 2.638742e+14 2.855689e+14 1.360466e+13 9.479487e+12 1.363136e+13 1.975463e+13 2.986136e+13 3.185525e+13 3.261818e+13 3.544296e+13 3.796756e+13 4.146174e+13 4.582528e+13 4.599681e+13 4.259342e+13 4.616876e+13
<GCONST> 1.478314e+03
<MIXTURE> 3 1.621472e-01
<MEAN> 42
 5.779146e+07 -7.674906e+06 -2.245139e+06 1.060836e+07 -8.623568e+05 3.949777e+06 5.361661e+06 4.157382e+06 4.932848e+06 1.306912e+06 -7.715979e+05 -1.633500e+05 -1.750660e+06 -4.415986e+06 -1.249708e+06 -1.653586e+04 1.010404e+05 -4.562432e+05 -2.450765e+05 -3.538156e+05 1.328790e+04 -8.967643e+03 -2.115824e+05 -2.434583e+05 -3.791571e+04 4.565474e+04 -4.071641e+03 6.968417e+04 5.265646e+05 -1.333276e+05 -2.603675e+05 1.140736e+05 -8.445588e+04 1.067406e+04 -5.257751e+04 -7.525361e+04 5.889099e+04 7.015188e+04 -3.138960e+04 4.376002e+04 4.992077e+04 1.572618e+03
<VARIANCE> 42
 7.722748e+15 2.009958e+15 3.918619e+15 3.620416e+15 5.671945e+15 5.136407e+15 4.980856e+15 5.606635e+15 5.649181e+15 5.613416e+15 5.913046e+15 5.842096e+15 5.253572e+15 5.560280e+15 1.371078e+14 7.575631e+13 1.226420e+14 1.457021e+14 2.176930e+14 2.199495e+14 2.253853e+14 2.463953e+14 2.564452e+14 2.732001e+14 2.952720e+14 2.877929e+14 2.638742e+14 2.855689e+14 1.360466e+13 9.479487e+12 1.363136e+13 1.975463e+13 2.986136e+13 3.185525e+13 3.261818e+13 3.544296e+13 3.796756e+13 4.146174e+13 4.582528e+13 4.599681e+13 4.259342e+13 4.616876e+13
<GCONST> 1.478314e+03
<MIXTURE> 4 7.815515e-02
<MEAN> 42
 5.733365e+07 -7.518344e+06 -2.126632e+06 1.057681e+07 -7.723348e+05 3.983448e+06 5.359067e+06 4.152192e+06 4.915009e+06 1.300236e+06 -7.809428e+05 -1.800563e+05 -1.766571e+06 -4.425352e+06 -1.247952e+06 -1.822856e+04 1.002029e+05 -4.542588e+05 -2.443791e+05 -3.527220e+05 1.182025e+04 -1.007657e+04 -2.106948e+05 -2.425054e+05 -3.844002e+04 4.518338e+04 -2.719089e+03 7.042645e+04 5.556552e+05 -1.422457e+05 -2.700614e+05 1.172378e+05 -9.047737e+04 8.109663e+03 -5.175112e+04 -7.561430e+04 5.985179e+04 7.096469e+04 -3.067606e+04 4.466216e+04 5.094521e+04 2.636170e+03
<VARIANCE> 42
 7.722748e+15 2.009958e+15 3.918619e+15 3.620416e+15 5.671945e+15 5.136407e+15 4.980856e+15 5.606635e+15 5.649181e+15 5.613416e+15 5.913046e+15 5.842096e+15 5.253572e+15 5.560280e+15 1.371078e+14 7.575631e+13 1.226420e+14 1.457021e+14 2.176930e+14 2.199495e+14 2.253853e+14 2.463953e+14 2.564452e+14 2.732001e+14 2.952720e+14 2.877929e+14 2.638742e+14 2.855689e+14 1.360466e+13 9.479487e+12 1.363136e+13 1.975463e+13 2.986136e+13 3.185525e+13 3.261818e+13 3.544296e+13 3.796756e+13 4.146174e+13 4.582528e+13 4.599681e+13 4.259342e+13 4.616876e+13
<GCONST> 1.478314e+03
<MIXTURE> 5 1.649830e-01
<MEAN> 42
 5.813999e+07 -7.797596e+06 -2.336658e+06 1.063000e+07 -9.327876e+05 3.923203e+06 5.361192e+06 4.160943e+06 4.946474e+06 1.312031e+06 -7.640688e+05 -1.508342e+05 -1.737751e+06 -4.408072e+06 -1.254801e+06 -1.407221e+04 1.029459e+05 -4.580239e+05 -2.449683e+05 -3.545562e+05 1.439710e+04 -8.101469e+03 -2.123037e+05 -2.443201e+05 -3.766782e+04 4.590184e+04 -5.108197e+03 6.912306e+04 5.080824e+05 -1.271304e+05 -2.540167e+05 1.125012e+05 -8.017735e+04 1.269004e+04 -5.295553e+04 -7.501123e+04 5.843099e+04 6.978604e+04 -3.197535e+04 4.318291e+04 4.918624e+04 6.947552e+02
<VARIANCE> 42
 7.722748e+15 2.009958e+15 3.918619e+15 3.620416e+15 5.671945e+15 5.136407e+15 4.980856e+15 5.606635e+15 5.649181e+15 5.613416e+15 5.913046e+15 5.842096e+15 5.253572e+15 5.560280e+15 1.371078e+14 7.575631e+13 1.226420e+14 1.457021e+14 2.176930e+14 2.199495e+14 2.253853e+14 2.463953e+14 2.564452e+14 2.732001e+14 2.952720e+14 2.877929e+14 2.638742e+14 2.855689e+14 1.360466e+13 9.479487e+12 1.363136e+13 1.975463e+13 2.986136e+13 3.185525e+13 3.261818e+13 3.544296e+13 3.796756e+13 4.146174e+13 4.582528e+13 4.599681e+13 4.259342e+13 4.616876e+13
<GCONST> 1.478314e+03
<MIXTURE> 6 1.629723e-01
<MEAN> 42
 5.795100e+07 -7.731004e+06 -2.287012e+06 1.061831e+07 -8.945568e+05 3.937641e+06 5.361460e+06 4.159042e+06 4.939080e+06 1.309268e+06 -7.681951e+05 -1.576480e+05 -1.744760e+06 -4.412372e+06 -1.252000e+06 -1.542121e+04 1.019037e+05 -4.570554e+05 -2.450301e+05 -3.541509e+05 1.380697e+04 -8.566249e+03 -2.119126e+05 -2.438510e+05 -3.780027e+04 4.576070e+04 -4.544159e+03 6.943259e+04 5.180497e+05 -1.304768e+05 -2.574411e+05 1.133458e+05 -8.248756e+04 1.159885e+04 -5.275110e+04 -7.514040e+04 5.867597e+04 6.998044e+04 -3.165808e+04 4.349299e+04 4.957999e+04 1.169804e+03
<VARIANCE> 42
 7.722748e+15 2.009958e+15 3.918619e+15 3.620416e+15 5.671945e+15 5.136407e+15 4.980856e+15 5.606635e+15 5.649181e+15 5.613416e+15 5.913046e+15 5.842096e+15 5.253572e+15 5.560280e+15 1.371078e+14 7.575631e+13 1.226420e+14 1.457021e+14 2.176930e+14 2.199495e+14 2.253853e+14 2.463953e+14 2.564452e+14 2.732001e+14 2.952720e+14 2.877929e+14 2.638742e+14 2.855689e+14 1.360466e+13 9.479487e+12 1.363136e+13 1.975463e+13 2.986136e+13 3.185525e+13 3.261818e+13 3.544296e+13 3.796756e+13 4.146174e+13 4.582528e+13 4.599681e+13 4.259342e+13 4.616876e+13
<GCONST> 1.478314e+03
<MIXTURE> 7 7.813694e-02
<MEAN> 42
 5.828312e+07 -7.843221e+06 -2.372066e+06 1.064214e+07 -9.576574e+05 3.915213e+06 5.362562e+06 4.163088e+06 4.952675e+06 1.316303e+06 -7.596979e+05 -1.458262e+05 -1.732427e+06 -4.404598e+06 -1.262833e+06 -1.137557e+04 1.052879e+05 -4.595082e+05 -2.438805e+05 -3.545005e+05 1.484321e+04 -7.678831e+03 -2.128844e+05 -2.450191e+05 -3.769621e+04 4.578844e+04 -5.832649e+03 6.879469e+04 4.998596e+05 -1.247431e+05 -2.513714e+05 1.115830e+05 -7.853866e+04 1.339456e+04 -5.329487e+04 -7.501062e+04 5.815343e+04 6.955109e+04 -3.227407e+04 4.288543e+04 4.889472e+04 3.758793e+02
<VARIANCE> 42
 7.722748e+15 2.009958e+15 3.918619e+15 3.620416e+15 5.671945e+15 5.136407e+15 4.980856e+15 5.606635e+15 5.649181e+15 5.613416e+15 5.913046e+15 5.842096e+15 5.253572e+15 5.560280e+15 1.371078e+14 7.575631e+13 1.226420e+14 1.457021e+14 2.176930e+14 2.199495e+14 2.253853e+14 2.463953e+14 2.564452e+14 2.732001e+14 2.952720e+14 2.877929e+14 2.638742e+14 2.855689e+14 1.360466e+13 9.479487e+12 1.363136e+13 1.975463e+13 2.986136e+13 3.185525e+13 3.261818e+13 3.544296e+13 3.796756e+13 4.146174e+13 4.582528e+13 4.599681e+13 4.259342e+13 4.616876e+13
<GCONST> 1.478314e+03
~h "eight"
<BEGINHMM>
<NUMSTATES> 18
<STATE> 2
<NUMMIXES> 7
<MIXTURE> 1 1.946356e-01
<MEAN> 42
 1.580570e+09 5.565318e+08 4.491629e+08 5.791608e+08 7.783419e+07 1.390287e+08 -1.034234e+08 3.638678e+08 1.850552e+08 3.100060e+08 3.931396e+08 4.122947e+08 4.201673e+08 -4.730634e+07 -7.637022e+07 9.131141e+06 4.161770e+07 3.618880e+07 1.752662e+07 -3.467587e+07 -4.451938e+07 2.966311e+07 4.406487e+07 -9.053288e+06 4.163534e+07 7.415628e+06 3.524909e+06 3.682179e+07 1.685156e+07 -2.364549e+07 -4.917193e+07 -5.688394e+07 -4.833702e+07 1.362820e+07 2.647305e+07 -8.618549e+05 1.329327e+07 -1.309325e+07 -3.490339e+07 -2.094099e+07 -1.748521e+07 5.217412e+06
<VARIANCE> 42
 1.968472e+17 2.627847e+17 4.408221e+17 5.694230e+17 9.713614e+17 1.083200e+18 1.024638e+18 7.081109e+17 1.020691e+18 1.014864e+18 1.161115e+18 8.913787e+17 9.586389e+17 9.366226e+17 8.616037e+15 1.384236e+16 2.969286e+16 2.559202e+16 2.563497e+16 2.869112e+16 3.978959e+16 2.918571e+16 4.099805e+16 3.815275e+16 4.754635e+16 3.462001e+16 3.581996e+16 5.295919e+16 1.577200e+15 2.218132e+15 3.918993e+15 3.007489e+15 4.481476e+15 5.168313e+15 8.256481e+15 4.549357e+15 5.749968e+15 8.306386e+15 1.186387e+16 8.654663e+15 5.626921e+15 9.994766e+15
<GCONST> 1.690273e+03
<MIXTURE> 2 1.465487e-01
<MEAN> 42
 3.701994e+08 -9.883916e+07 -4.067707e+07 1.256337e+08 -2.172095e+07 8.849351e+07 2.660993e+07 -3.967685e+07 2.576510e+07 7.736774e+07 -2.910127e+06 1.248084e+06 -2.458180e+07 -3.920596e+07 -1.209365e+07 -4.387736e+06 -1.249658e+06 -1.167434e+07 -1.081984e+07 1.772892e+06 5.654143e+06 3.972553e+06 5.397167e+06 -6.846143e+06 1.119895e+06 2.276118e+05 -6.222298e+06 -1.692803e+06 5.500590e+06 1.321518e+06 4.518518e+05 -7.798014e+05 -1.440222e+06 1.381734e+06 -1.326190e+06 6.378884e+05 9.506308e+05 -8.541233e+05 -1.307225e+06 -6.400351e+05 2.552078e+06 -5.367724e+05
<VARIANCE> 42
 2.116721e+16 1.761952e+16 1.091595e+16 1.102213e+16 1.991682e+16 1.628736e+16 1.319185e+16 1.651435e+16 1.921708e+16 2.260240e+16 2.536626e+16 2.945051e+16 1.737426e+16 2.825395e+16 2.395365e+15 1.315153e+15 8.335551e+14 7.355348e+14 1.171343e+15 1.223942e+15 9.350993e+14 1.325645e+15 1.292869e+15 1.321507e+15 1.080244e+15 1.319139e+15 1.159654e+15 1.462415e+15 2.315656e+14 1.655378e+14 1.081012e+14 1.085508e+14 1.841919e+14 2.290635e+14 2.120790e+14 2.657565e+14 2.819031e+14 2.593432e+14 2.514318e+14 2.887417e+14 2.095270e+14 2.140773e+14
<GCONST> 1.549143e+03
<MIXTURE> 3 1.005680e-01
<MEAN> 42
 1.023831e+09 1.345009e+08 -4.102668e+08 -4.861868e+08 -5.873807e+08 3.677836e+08 7.785904e+08 4.936068e+08 -4.407685e+08 -5.340794e+08 -3.822690e+08 7.028550e+07 7.832392e+08 2.674407e+08 -1.293055e+08 -4.381777e+07 2.513786e+07 1.089753e+07 6.310847e+07 9.844942e+07 4.738940e+05 -1.411031e+08 -5.863581e+07 1.106399e+07 4.507629e+07 7.244893e+07 3.841714e+07 -6.067660e+07 -2.081751e+06 4.641944e+06 1.944340e+07 3.452971e+07 3.255089e+07 -3.212940e+07 -7.904728e+07 -2.083717e+07 5.234207e+07 4.652736e+07 5.578115e+07 1.546912e+07 -8.775025e+07 -3.531998e+07
<VARIANCE> 42
 1.303838e+17 8.695156e+16 7.061491e+16 1.306992e+17 1.136260e+17 1.568643e+17 3.209314e+17 1.941175e+17 2.427755e+17 2.098514e+17 3.743825e+17 1.904362e+17 2.305166e+17 3.610034e+17 6.031665e+15 3.040583e+15 5.091145e+15 1.204299e+16 9.828863e+15 1.633796e+16 1.984131e+16 1.984808e+16 2.270964e+16 1.873390e+16 1.742790e+16 1.594918e+16 2.565442e+16 1.692309e+16 9.614974e+14 9.838930e+14 7.071011e+14 1.626464e+15 1.172531e+15 2.243270e+15 3.855746e+15 4.133453e+15 3.338668e+15 4.033270e+15 5.558966e+15 3.737780e+15 3.237671e+15 4.842134e+15
<GCONST> 1.648496e+03
<MIXTURE> 4 1.392689e-01
<MEAN> 42
 9.864058e+08 2.623436e+08 2.723490e+08 2.231972e+08 -1.854357e+08 1.590143e+08 -1.068722e+08 6.023343e+07 1.249528e+08 2.118598e+07 1.776016e+08 1.287238e+08 -4.531263e+07 9.688990e+07 -1.116706e+08 -7.488988e+07 -1.050728e+08 -1.646872e+08 -1.282278e+08 -7.072146e+07 -5.494713e+07 -7.598114e+07 -9.657413e+07 -1.264036e+08 -9.891013e+07 -1.146782e+08 -3.597642e+07 -4.200735e+07 6.490188e+03 7.012478e+06 1.134303e+06 7.151053e+06 2.316227e+07 2.442354e+07 3.259125e+07 2.787885e+07 2.297777e+07 2.369313e+07 1.348183e+07 2.244371e+07 2.465892e+07 1.778231e+07
<VARIANCE> 42
 8.110277e+16 8.367418e+16 1.046097e+17 1.477828e+17 1.987773e+17 3.355760e+17 2.087842e+17 2.660558e+17 2.366871e+17 3.360717e+17 3.457291e+17 2.722620e+17 2.492933e+17 2.682962e+17 9.646003e+15 5.718004e+15 5.261909e+15 8.172426e+15 9.416267e+15 2.134660e+16 2.355983e+16 2.843243e+16 2.868329e+16 3.215235e+16 2.103278e+16 1.899813e+16 2.607201e+16 2.249167e+16 6.810040e+14 6.697535e+14 7.197584e+14 1.691548e+15 1.726584e+15 1.749961e+15 2.030826e+15 2.310516e+15 2.675388e+15 4.094863e+15 3.146407e+15 2.390475e+15 2.245326e+15 1.959505e+15
<GCONST> 1.648898e+03
<MIXTURE> 5 1.442985e-01
<MEAN> 42
 1.609223e+09 5.067426e+08 -2.883949e+08 -4.192723e+08 -1.181942e+09 -9.636331e+08 -4.519176e+07 9.378903e+08 9.310531e+08 7.358729e+08 -3.366058e+07 -3.775963e+08 -6.446988e+08 -7.196628e+08 -1.123596e+08 -6.125226e+07 -3.190065e+06 4.279562e+06 1.765038e+07 1.266929e+08 1.689690e+08 -2.086355e+05 -6.979110e+07 -1.014857e+08 -1.126673e+08 -5.282146e+07 7.533095e+07 9.585605e+07 -1.702452e+07 -1.399635e+07 4.210618e+06 8.380436e+06 4.103237e+07 6.748101e+07 1.174143e+07 -4.833357e+07 -6.740982e+07 -4.496399e+07 1.447541e+07 4.133129e+07 5.933679e+07 4.643904e+07
<VARIANCE> 42
 1.696317e+17 9.625992e+16 1.748670e+17 2.666140e+17 5.246948e+17 2.826803e+17 5.487133e+17 3.210559e+17 6.403866e+17 9.892817e+17 7.106950e+17 6.015971e+17 5.199885e+17 1.292848e+18 7.651679e+15 1.097840e+16 1.017217e+16 1.473108e+16 2.482005e+16 3.746838e+16 5.168548e+16 3.146426e+16 5.314469e+16 5.205561e+16 4.930283e+16 3.689181e+16 6.403781e+16 6.234834e+16 1.425730e+15 1.352810e+15 1.138039e+15 2.450365e+15 4.751745e+15 4.102563e+15 8.021422e+15 4.972322e+15 6.197876e+15 1.019384e+16 9.967161e+15 6.965855e+15 7.411793e+15 1.231863e+16
<GCONST> 1.680632e+03
<MIXTURE> 6 1.267464e-01
<MEAN> 42
 9.471634e+07 -3.392741e+07 -1.281042e+07 7.474394e+06 -1.651736e+07 4.609409e+06 8.812968e+05 4.057514e+06 4.186063e+06 1.257778e+06 -1.360306e+06 1.668152e+05 2.696664e+06 -1.124177e+07 2.007436e+06 3.451164e+06 2.311527e+05 -3.350454e+06 -1.720858e+06 -7.371903e+05 -1.429576e+05 2.767868e+06 2.620134e+05 3.420304e+05 6.703607e+05 -3.017613e+06 6.457995e+05 -2.072738e+05 2.480355e+07 5.798982e+06 -7.573788e+06 -1.116371e+07 -1.231012e+07 1.253016e+07 4.535422e+06 1.946678e+06 1.147508e+06 -2.565741e+06 2.275098e+06 3.287991e+04 -3.640459e+06 -1.817165e+05
<VARIANCE> 42
 7.722748e+15 2.009958e+15 3.918619e+15 3.620416e+15 5.671945e+15 5.136407e+15 4.980856e+15 5.606635e+15 5.649181e+15 5.613416e+15 5.913046e+15 5.842096e+15 5.253572e+15 5.560280e+15 1.864095e+14 7.620415e+13 1.226420e+14 1.457021e+14 2.176930e+14 2.199495e+14 2.253853e+14 2.463953e+14 2.564452e+14 2.732001e+14 2.952720e+14 2.877929e+14 2.638742e+14 2.855689e+14 1.344258e+14 9.397589e+13 9.409736e+13 1.875295e+14 2.554800e+14 2.199393e+14 1.675713e+14 2.931472e+14 3.922676e+14 2.210630e+14 3.002835e+14 2.336483e+14 2.158595e+14 2.810656e+14
<GCONST> 1.506165e+03
<MIXTURE> 7 1.479337e-01
<MEAN> 42
 5.949606e+08 -5.841486e+07 1.101432e+08 1.279802e+08 -1.256782e+08 1.023412e+07 -1.058166e+08 -1.264508e+08 2.240224e+07 2.639502e+07 3.518466e+07 9.644635e+07 1.177550e+08 -2.413134e+07 -6.310114e+07 -6.110608e+06 -2.572767e+07 -4.532003e+07 -2.354678e+07 -1.162313e+07 3.331400e+06 2.918078e+07 1.760288e+07 3.329653e+07 -8.143783e+06 -2.810311e+07 -8.696686e+06 -3.304846e+07 2.974072e+07 1.754809e+07 -3.334748e+06 -1.206274e+07 -2.729365e+07 1.299053e+06 1.724787e+07 2.729870e+07 1.952630e+07 8.352313e+06 -1.201013e+07 1.735748e+06 -1.058225e+07 1.305798e+06
<VARIANCE> 42
 5.911148e+16 1.222554e+17 2.710976e+16 4.605262e+16 4.137086e+16 6.081648e+16 6.126936e+16 5.123742e+16 9.010518e+16 1.053283e+17 7.808744e+16 5.546586e+16 7.105285e+16 9.127817e+16 1.347342e+16 8.494486e+15 3.824267e+15 3.957302e+15 1.152388e+16 9.307910e+15 7.768743e+15 9.135908e+15 1.064080e+16 1.638829e+16 1.191176e+16 8.253460e+15 8.085920e+15 1.230099e+16 1.420072e+15 1.155547e+15 5.507181e+14 1.798331e+15 3.217201e+15 1.364647e+15 1.797824e+15 1.548306e+15 1.777915e+15 2.286188e+15 2.378947e+15 1.893376e+15 2.257817e+15 2.071845e+15
<GCONST> 1.624209e+03
<STATE> 3
<NUMMIXES> 7
<MIXTURE> 1 1.206376e-01
<MEAN> 42
 1.643778e+09 6.383696e+08 4.379185e+08 4.875750e+08 -4.089140e+08 -2.675819e+08 -3.299266e+08 2.671021e+08 3.870840e+08 6.312622e+08 7.306442e+08 6.108840e+08 4.400567e+08 2.672003e+07 -2.133909e+07 -3.074605e+07 -2.248210e+07 -4.204659e+07 -1.209236e+07 8.240905e+06 -1.006929e+07 2.622550e+07 3.785641e+07 -4.248593e+07 -6.479154e+07 -2.106137e+07 -2.732676e+07 3.342835e+07 2.541855e+07 -3.031028e+07 -5.915008e+07 -7.842419e+07 -5.220600e+07 5.249842e+07 6.530150e+07 -1.087423e+07 -1.938254e+07 -4.357338e+07 -5.762820e+07 -2.527005e+07 -3.381981e+07 -4.973571e+06
<VARIANCE> 42
 2.109417e+17 2.064080e+17 2.979630e+17 5.694707e+17 1.241324e+18 1.295450e+18 1.328278e+18 6.950812e+17 8.009723e+17 1.165353e+18 1.187542e+18 6.345915e+17 5.922231e+17 1.092677e+18 5.525445e+15 6.882752e+15 1.271625e+16 1.112098e+16 1.973897e+16 3.007518e+16 3.244120e+16 2.489274e+16 4.280608e+16 3.047899e+16 3.539804e+16 2.703808e+16 3.727022e+16 3.409832e+16 2.512224e+15 1.567293e+15 3.126580e+15 4.377943e+15 9.808935e+15 8.672655e+15 7.353812e+15 9.466819e+15 8.036696e+15 1.172226e+16 1.211313e+16 8.729042e+15 1.124901e+16 1.328749e+16
<GCONST> 1.688971e+03
<MIXTURE> 2 1.563581e-01
<MEAN> 42
 8.594117e+07 -2.879293e+07 -8.606204e+06 5.740882e+06 -2.368619e+07 6.098898e+06 4.135532e+06 6.243954e+06 7.828830e+06 -4.383639e+06 7.074824e+06 3.248113e+06 -6.635054e+06 -4.756983e+06 2.965660e+07 6.977654e+06 -1.347545e+07 -2.297636e+07 -1.742370e+07 2.640745e+07 1.445737e+07 9.554608e+06 5.303012e+05 -1.776553e+07 -6.449492e+05 1.296684e+06 -6.333314e+06 4.210820e+06 7.175326e+07 9.312013e+06 -9.850377e+06 -3.438215e+07 -3.607404e+07 3.383324e+07 1.698351e+07 2.416595e+07 -3.899816e+06 -1.360733e+07 -2.027078e+06 6.553096e+06 7.892248e+06 2.077887e+06
<VARIANCE> 42
 7.722748e+15 2.009958e+15 3.918619e+15 3.620416e+15 5.671945e+15 5.136407e+15 4.980856e+15 5.606635e+15 5.649181e+15 5.613416e+15 5.913046e+15 5.842096e+15 5.253572e+15 5.560280e+15 2.833218e+15 1.372051e+15 7.424528e+14 1.239083e+15 1.792456e+15 1.858063e+15 1.174682e+15 1.172379e+15 1.746557e+15 1.206735e+15 1.319292e+15 1.203932e+15 1.743141e+15 1.518171e+15 8.978920e+14 4.439726e+14 5.155152e+14 1.140928e+15 1.208579e+15 1.322875e+15 9.490766e+14 1.236719e+15 2.107429e+15 1.253108e+15 1.542405e+15 1.319192e+15 1.100220e+15 1.856566e+15
<GCONST> 1.556843e+03
<MIXTURE> 3 1.357439e-01
<MEAN> 42
 6.770166e+07 -1.633800e+07 -1.365037e+07 7.723022e+06 -9.098415e+06 7.090402e+06 6.025788e+06 -1.601386e+06 6.216186e+06 1.344321e+07 5.627659e+06 -6.562725e+06 -1.195133e+07 4.393012e+06 -4.411489e+06 4.871235e+05 1.216661e+06 -1.954577e+06 -7.658186e+05 -1.607757e+06 -8.950412e+04 1.194544e+05 1.823139e+05 -3.132416e+06 -6.265071e+05 1.649444e+06 -1.076345e+06 -2.020509e+05 3.883575e+06 7.017255e+05 -5.106122e+05 -1.705213e+05 -7.175494e+05 1.447544e+06 3.634454e+05 -3.663991e+05 3.388635e+05 2.711162e+05 4.561338e+05 3.910529e+05 -6.110749e+05 -7.890015e+04
<VARIANCE> 42
 7.722748e+15 2.009958e+15 3.918619e+15 3.620416e+15 5.671945e+15 5.136407e+15 4.980856e+15 5.606635e+15 5.649181e+15 5.613416e+15 5.913046e+15 5.842096e+15 5.253572e+15 5.560280e+15 1.371078e+14 7.575631e+13 1.226420e+14 1.457021e+14 2.176930e+14 2.199495e+14 2.253853e+14 2.463953e+14 2.564452e+14 2.732001e+14 2.952720e+14 2.877929e+14 2.638742e+14 2.855689e+14 4.500735e+13 1.341635e+13 1.780065e+13 2.191077e+13 4.107934e+13 3.185525e+13 3.261818e+13 3.576238e+13 3.796756e+13 4.146174e+13 4.582528e+13 4.599681e+13 4.259342e+13 4.616876e+13
<GCONST> 1.480556e+03
<MIXTURE> 4 1.688531e-01
<MEAN> 42
 1.404941e+08 5.108685e+06 -7.156317e+06 -4.376462e+06 -3.479577e+07 3.179847e+07 2.358566e+07 1.503542e+07 3.902790e+06 -9.502404e+06 1.169726e+07 2.057098e+07 1.220943e+07 9.019385e+05 -6.074726e+07 -3.702640e+07 4.133071e+06 1.076442e+07 1.540442e+07 -9.672324e+06 -3.663775e+07 -2.722191e+07 7.127705e+06 9.390532e+06 7.558575e+06 9.965586e+06 -2.065997e+07 -1.568883e+07 6.106450e+07 9.429130e+06 -3.785810e+05 -7.850588e+06 -2.546127e+07 1.433289e+07 7.049916e+06 1.493055e+07 1.150602e+07 6.691328e+06 1.919376e+06 1.008245e+05 -4.679635e+05 -1.074147e+06
<VARIANCE> 42
 7.722748e+15 5.053973e+15 3.918619e+15 7.837065e+15 5.671945e+15 5.302305e+15 5.487071e+15 7.909971e+15 5.649181e+15 6.434716e+15 6.889431e+15 7.405452e+15 6.378291e+15 5.648256e+15 1.110602e+16 3.993010e+15 5.181395e+15 8.444005e+15 1.268050e+16 8.766017e+15 8.238225e+15 1.148034e+16 9.233422e+15 6.688275e+15 9.984224e+15 1.110839e+16 1.025480e+16 8.242456e+15 1.206015e+15 5.471079e+14 5.634262e+14 7.903198e+14 2.030609e+15 1.275310e+15 1.077104e+15 1.491908e+15 1.477171e+15 1.098789e+15 1.368036e+15 1.437903e+15 7.960790e+14 1.326796e+15
<GCONST> 1.584709e+03
<MIXTURE> 5 1.566538e-01
<MEAN> 42
 9.709931e+08 -1.824477e+07 -2.786020e+08 -1.000691e+08 -3.619480e+08 2.234107e+08 2.770836e+08 -9.481028e+06 -7.866034e+07 -5.981058e+07 9.037845e+07 1.965589e+08 -3.823574e+07 -8.252578e+07 -6.287784e+07 -1.320970e+07 4.648919e+07 2.819466e+07 9.352957e+06 3.584479e+07 -2.966954e+07 -5.167390e+07 -1.328807e+07 1.662923e+07 3.530620e+07 2.260470e+06 1.703718e+07 1.118734e+07 4.240597e+07 1.755060e+07 -5.696772e+06 -2.492032e+07 -2.757059e+07 7.640550e+06 4.484517e+05 2.578206e+07 1.784463e+07 3.233896e+06 -9.695139e+06 -1.356584e+07 1.084937e+07 1.123408e+07
<VARIANCE> 42
 1.508990e+17 9.701882e+16 1.537254e+17 1.647581e+17 2.169006e+17 4.018867e+17 2.504523e+17 4.605969e+17 2.955004e+17 3.072246e+17 3.263693e+17 3.247659e+17 3.230758e+17 3.644600e+17 1.393715e+16 6.713879e+15 6.778020e+15 9.717523e+15 1.766392e+16 2.241566e+16 3.281298e+16 2.897394e+16 3.460308e+16 2.229243e+16 1.843561e+16 2.793199e+16 3.360871e+16 3.459651e+16 1.840994e+15 7.490350e+14 7.990565e+14 1.942058e+15 2.860099e+15 3.178347e+15 3.440879e+15 4.099113e+15 2.925757e+15 4.711228e+15 5.251884e+15 5.286871e+15 6.434966e+15 4.828829e+15
<GCONST> 1.661759e+03
<MIXTURE> 6 1.420959e-01
<MEAN> 42
 8.669151e+08 2.002209e+08 -1.992715e+07 -2.320849e+08 -8.068900e+08 -1.566361e+08 1.792995e+08 3.652188e+08 5.519523e+08 2.367301e+08 -3.062542e+08 -2.064898e+08 -2.840907e+08 -1.016172e+08 -1.115112e+08 -3.351720e+07 -3.643190e+07 -5.794761e+07 4.249216e+07 8.623905e+07 3.853903e+07 1.036930e+07 -1.470137e+07 -1.115390e+08 -2.749696e+06 6.356382e+06 -5.134660e+06 9.735958e+07 6.226728e+06 -7.673574e+06 5.597609e+06 2.019295e+07 3.702094e+07 1.652138e+07 -1.745326e+07 -2.094718e+07 -4.804703e+07 -1.444451e+07 2.235827e+07 1.318663e+07 2.225649e+07 1.063998e+06
<VARIANCE> 42
 9.165026e+16 9.058828e+16 3.920745e+16 1.519132e+17 9.909727e+16 1.710652e+17 1.327145e+17 2.105194e+17 1.430730e+17 2.581952e+17 2.836055e+17 3.043980e+17 1.307955e+17 2.858997e+17 1.233880e+16 4.866573e+15 4.738552e+15 7.348528e+15 1.944768e+16 1.349121e+16 1.507234e+16 8.981941e+15 2.359072e+16 1.654457e+16 2.142841e+16 1.732798e+16 9.720409e+15 2.091511e+16 1.652955e+15 7.536650e+14 5.660660e+14 9.437245e+14 1.697621e+15 2.050718e+15 1.412909e+15 1.901103e+15 2.201534e+15 3.295201e+15 3.614372e+15 4.102711e+15 2.492322e+15 5.006220e+15
<GCONST> 1.642276e+03
<MIXTURE> 7 1.196569e-01
<MEAN> 42
 6.982950e+07 -2.308499e+07 -7.611662e+06 1.388871e+06 -1.432782e+07 -2.766189e+06 -5.113670e+06 5.625212e+06 7.976904e+06 -2.497115e+06 -1.165232e+06 1.249362e+06 -1.583830e+06 1.081338e+06 -1.127264e+06 3.636556e+06 -2.638844e+06 -2.211078e+06 3.025092e+06 3.697573e+05 1.374269e+04 -3.691038e+05 -1.583619e+05 1.710033e+06 -6.945905e+05 -1.740856e+06 -1.025119e+06 2.831944e+04 5.390559e+07 9.689600e+06 -1.516468e+07 -2.468665e+07 -1.779292e+07 2.528248e+07 -3.308694e+06 -8.805319e+05 8.451581e+05 4.052262e+06 1.443202e+07 6.589324e+05 -3.593657e+06 -1.321804e+06
<VARIANCE> 42
 7.722748e+15 2.009958e+15 3.918619e+15 3.620416e+15 5.671945e+15 5.136407e+15 4.980856e+15 5.606635e+15 5.649181e+15 5.613416e+15 5.913046e+15 5.842096e+15 5.253572e+15 5.560280e+15 2.268849e+14 1.186506e+14 1.226420e+14 1.457021e+14 2.176930e+14 2.199495e+14 2.253853e+14 2.463953e+14 2.564452e+14 2.732001e+14 2.952720e+14 2.877929e+14 2.638742e+14 2.855689e+14 5.595498e+14 1.862510e+14 5.778793e+14 6.293873e+14 1.412167e+15 1.452766e+15 8.579510e+14 1.024526e+15 1.443242e+15 8.178297e+14 1.269741e+15 9.514827e+14 9.580623e+14 9.081940e+14
<GCONST> 1.526543e+03
<STATE> 4
<NUMMIXES> 7
<MIXTURE> 1 1.648107e-01
<MEAN> 42
 1.736800e+09 6.486271e+08 3.838073e+08 4.681565e+08 -4.230450e+08 -3.785393e+08 -5.656774e+08 1.610534e+08 2.968211e+08 5.176997e+08 7.873876e+08 6.169076e+08 5.103650e+08 2.748089e+07 3.351626e+07 -6.901907e+07 -1.091654e+08 -1.487868e+08 -1.018764e+08 7.927689e+07 7.035427e+07 1.616318e+07 1.629753e+07 -1.069101e+08 -1.219772e+08 -5.379305e+07 -6.728278e+07 3.649498e+07 3.018415e+07 -2.460814e+07 -5.432958e+07 -8.274178e+07 -6.044368e+07 6.200749e+07 7.857917e+07 2.927513e+06 -2.368374e+07 -4.873147e+07 -4.362666e+07 -2.559507e+07 -1.989733e+07 6.479920e+05
<VARIANCE> 42
 2.146941e+17 2.091677e+17 3.392119e+17 4.950655e+17 1.129666e+18 1.463168e+18 1.400982e+18 7.580873e+17 7.086785e+17 1.318207e+18 1.070553e+18 7.636072e+17 6.279499e+17 1.263919e+18 7.017201e+15 6.361648e+15 1.564803e+16 1.701799e+16 3.154064e+16 4.247892e+16 5.313691e+16 4.520096e+16 6.138632e+16 5.597737e+16 5.421789e+16 4.503656e+16 5.840419e+16 5.356615e+16 1.303516e+15 1.224692e+15 3.001045e+15 3.081385e+15 6.343573e+15 9.938611e+15 9.822386e+15 1.067031e+16 1.054863e+16 1.473985e+16 1.412661e+16 8.593375e+15 1.145228e+16 1.047446e+16
<GCONST> 1.694182e+03
<MIXTURE> 2 1.324728e-01
<MEAN> 42
 8.223530e+07 -2.072392e+07 -1.053616e+07 -1.181831e+06 -2.101498e+07 1.182839e+07 7.711428e+06 7.528132e+06 -1.418814e+06 -5.611425e+06 -1.799042e+06 -4.554341e+06 4.021948e+06 -7.973578e+06 1.740202e+08 3.596582e+07 -4.064455e+07 -1.248499e+08 -8.718314e+07 1.172274e+08 8.533258e+07 8.333341e+07 -7.687726e+07 -1.003619e+08 -2.554515e+07 4.996586e+07 9.180528e+07 9.475880e+06 1.089694e+08 1.970945e+07 -2.230348e+06 -6.528780e+07 -6.437418e+07 3.748438e+07 1.976933e+07 4.809552e+07 -2.108506e+07 -2.237976e+07 2.106698e+06 2.328170e+07 3.315006e+07 4.572682e+06
<VARIANCE> 42
 7.722748e+15 2.009958e+15 3.918619e+15 3.620416e+15 5.671945e+15 5.136407e+15 4.980856e+15 5.606635e+15 5.649181e+15 5.613416e+15 5.913046e+15 5.842096e+15 5.253572e+15 5.560280e+15 5.345473e+15 2.132091e+15 1.758351e+15 5.819285e+15 4.084129e+15 7.335391e+15 5.157642e+15 6.004775e+15 7.848726e+15 9.527252e+15 6.524485e+15 5.429260e+15 7.832820e+15 1.221561e+16 6.882038e+14 4.283251e+14 1.021248e+15 1.547198e+15 1.268537e+15 2.363196e+15 3.760722e+15 1.581311e+15 2.667688e+15 3.503250e+15 3.276498e+15 2.250940e+15 1.693120e+15 3.927137e+15
<GCONST> 1.582568e+03
<MIXTURE> 3 2.064645e-01
<MEAN> 42
 1.028760e+09 2.282939e+07 -9.033160e+07 4.093366e+07 -3.820765e+08 1.459963e+08 3.495916e+08 3.143616e+08 -1.518484e+07 -9.491978e+06 -1.282268e+08 -2.853867e+07 1.800449e+08 1.690341e+08 2.572134e+07 -2.002714e+07 7.479566e+06 -3.356125e+07 -4.955604e+07 1.231001e+08 3.782627e+07 -6.876294e+07 -6.143826e+07 -2.954792e+07 -8.814429e+06 3.966217e+07 4.686324e+07 5.101130e+06 6.462996e+07 2.076069e+07 -2.173199e+07 -5.940224e+07 -5.358513e+07 1.130492e+07 8.275563e+06 1.471128e+07 2.323218e+07 -2.951524e+06 -1.739976e+07 7.847593e+06 -1.522816e+07 -1.376824e+07
<VARIANCE> 42
 1.211898e+17 7.939094e+16 1.703874e+17 1.788318e+17 2.100532e+17 2.012394e+17 3.171753e+17 2.728186e+17 2.638231e+17 1.974884e+17 3.171268e+17 3.323804e+17 1.863936e+17 3.857579e+17 9.608809e+15 7.989253e+15 7.465496e+15 1.106574e+16 2.702694e+16 2.603500e+16 2.576886e+16 3.559885e+16 3.625068e+16 3.360425e+16 4.097015e+16 3.696696e+16 5.014288e+16 4.158145e+16 1.330372e+15 1.212281e+15 9.755912e+14 1.438595e+15 3.322141e+15 3.127363e+15 5.330059e+15 3.726561e+15 5.256379e+15 5.654044e+15 7.062876e+15 6.117604e+15 6.608174e+15 8.498458e+15
<GCONST> 1.664481e+03
<MIXTURE> 4 1.641807e-01
<MEAN> 42
 4.294157e+08 1.747849e+07 -3.620400e+07 -1.983697e+07 -2.431083e+08 8.279482e+07 5.143532e+07 2.641531e+07 1.839828e+08 2.514518e+07 -3.441198e+07 6.024424e+07 -1.069327e+08 -3.344089e+07 7.092110e+07 -2.534546e+07 -2.813124e+07 -5.503221e+07 -4.196924e+07 8.733453e+07 2.897367e+07 4.393008e+07 1.083247e+06 -6.488575e+07 -3.501005e+07 -2.536198e+07 -1.846878e+07 4.433182e+07 6.660338e+07 3.463978e+06 -1.894918e+06 -1.905302e+07 -3.611359e+07 2.470140e+07 5.034676e+06 1.045007e+07 -5.496604e+06 -8.425012e+06 4.908084e+06 1.493522e+07 4.042353e+06 3.247372e+06
<VARIANCE> 42
 2.767928e+16 4.571552e+16 1.548859e+16 4.896894e+16 6.545812e+16 4.690376e+16 3.782276e+16 3.936707e+16 7.273635e+16 5.538364e+16 4.229196e+16 7.796501e+16 8.964879e+16 4.409983e+16 1.245546e+16 3.601122e+15 1.812597e+15 4.937589e+15 1.018878e+16 3.890791e+15 1.090733e+16 9.768493e+15 6.531647e+15 6.852759e+15 1.662397e+16 1.275026e+16 1.226819e+16 8.721735e+15 8.776719e+14 5.554444e+14 4.387497e+14 6.869469e+14 2.009819e+15 1.302391e+15 9.256318e+14 1.374476e+15 2.171298e+15 1.282987e+15 1.443325e+15 1.652129e+15 1.826533e+15 2.072708e+15
<GCONST> 1.612298e+03
<MIXTURE> 5 7.682563e-02
<MEAN> 42
 7.047334e+07 -9.433244e+06 -2.272166e+07 -1.135339e+07 -1.324795e+07 1.577100e+07 9.842280e+06 -1.423687e+07 -8.046652e+06 -2.124870e+06 1.112913e+07 1.611399e+07 -1.931458e+06 -5.841503e+06 1.273248e+08 -1.499580e+07 -5.671433e+07 -5.830077e+07 2.929794e+07 1.416814e+08 -6.237641e+07 -4.067692e+07 -2.141692e+07 2.303551e+07 8.692210e+07 -1.791775e+07 -1.314923e+07 -1.946455e+06 1.375538e+08 2.714563e+06 -5.426086e+07 -6.845553e+07 3.815859e+06 1.088200e+08 1.230963e+07 -9.907009e+06 -6.039440e+07 3.158874e+06 4.039430e+07 2.633252e+07 2.457532e+07 -2.828491e+07
<VARIANCE> 42
 7.722748e+15 2.009958e+15 3.918619e+15 3.620416e+15 5.671945e+15 5.136407e+15 4.980856e+15 5.606635e+15 5.649181e+15 5.613416e+15 5.913046e+15 5.842096e+15 5.253572e+15 5.560280e+15 9.381130e+15 2.694971e+15 4.106410e+15 8.552115e+15 4.200198e+15 9.846543e+15 1.118985e+16 6.681030e+15 2.166185e+16 5.542186e+15 1.123999e+16 1.473402e+16 2.064790e+16 2.049485e+16 5.113476e+14 4.609786e+14 6.742582e+14 3.026722e+15 2.326049e+15 1.769222e+15 4.375274e+15 1.801678e+15 7.686238e+15 3.551016e+15 2.958740e+15 7.153796e+15 2.547509e+15 7.462571e+15
<GCONST> 1.593111e+03
<MIXTURE> 6 1.278055e-01
<MEAN> 42
 8.857494e+07 -2.336422e+07 -1.066065e+07 -9.313100e+06 -1.195764e+07 5.873150e+06 1.723203e+06 1.192837e+07 -3.258719e+06 -5.639777e+06 -6.733417e+06 9.051355e+06 1.157756e+07 -1.332402e+07 1.852331e+08 1.972536e+07 -1.131754e+08 -1.329855e+08 2.576083e+07 2.279247e+08 1.746898e+07 -8.516780e+07 -1.218892e+08 2.409446e+07 1.742445e+08 1.986220e+07 -6.207440e+07 -9.392725e+07 1.156557e+08 6.528267e+06 -5.225204e+07 -6.942258e+07 1.024759e+07 1.175829e+08 1.135170e+07 -3.873436e+07 -6.148470e+07 1.646869e+07 8.285406e+07 1.607128e+07 -2.492921e+07 -4.877567e+07
<VARIANCE> 42
 7.722748e+15 2.009958e+15 3.918619e+15 3.620416e+15 5.671945e+15 5.136407e+15 4.980856e+15 5.606635e+15 5.649181e+15 5.613416e+15 5.913046e+15 5.842096e+15 5.253572e+15 5.560280e+15 1.208297e+16 1.211250e+15 2.548533e+15 4.931902e+15 3.792009e+15 1.261240e+16 3.067606e+15 4.280699e+15 5.810681e+15 7.669021e+15 1.006824e+16 6.741366e+15 6.782921e+15 6.898081e+15 9.850546e+14 2.464121e+14 4.595750e+14 1.064559e+15 7.814467e+14 1.069429e+15 6.567689e+14 9.587572e+14 1.450572e+15 1.551319e+15 1.731870e+15 1.832075e+15 2.080637e+15 1.753515e+15
<GCONST> 1.574294e+03
<MIXTURE> 7 1.274396e-01
<MEAN> 42
 9.522522e+07 -1.752975e+07 -8.507298e+06 -6.621858e+06 -3.724278e+07 9.771684e+06 4.118198e+06 2.202407e+07 1.616167e+07 -1.797418e+07 -3.161077e+06 -6.773542e+06 -1.190689e+07 6.977658e+06 1.489321e+08 2.102678e+07 6.339674e+05 -7.192244e+07 -1.407019e+08 2.392463e+07 1.839239e+07 1.001953e+08 7.961718e+07 -2.386211e+07 -4.481354e+07 -5.728882e+07 -3.711741e+07 4.677798e+07 1.086419e+08 2.475153e+07 8.893463e+06 -5.540921e+07 -1.138626e+08 -1.024403e+07 -3.415018e+06 7.474661e+07 7.197025e+07 3.848957e+06 -1.285481e+07 -5.062839e+07 -3.568008e+07 1.588535e+07
<VARIANCE> 42
 7.722748e+15 2.009958e+15 3.918619e+15 3.620416e+15 5.671945e+15 5.136407e+15 4.980856e+15 5.606635e+15 5.649181e+15 5.613416e+15 5.913046e+15 5.842096e+15 5.253572e+15 5.560280e+15 4.368246e+15 2.320252e+15 1.174636e+15 3.595014e+15 4.980282e+15 3.109230e+15 3.607757e+15 5.794644e+15 5.585663e+15 4.495549e+15 6.028897e+15 5.827388e+15 5.539056e+15 5.489777e+15 8.262456e+14 3.955619e+14 4.529157e+14 1.113766e+15 1.521437e+15 8.652937e+14 2.744751e+15 2.289531e+15 1.505385e+15 2.482374e+15 4.809702e+15 2.790232e+15 1.785923e+15 4.164357e+15
<GCONST> 1.576254e+03
<STATE> 5
<NUMMIXES> 7
<MIXTURE> 1 1.603573e-01
<MEAN> 42
 9.164834e+07 3.366573e+06 -1.956400e+07 -5.542488e+06 -2.352712e+07 3.917548e+06 1.145719e+07 6.929892e+06 7.679398e+06 -1.570185e+07 -1.392514e+07 -6.188184e+06 -8.359994e+06 -5.330242e+06 3.331176e+08 6.758262e+07 -1.559909e+07 -1.905903e+08 -2.517353e+08 7.463150e+07 3.204937e+07 1.417295e+08 3.256099e+07 -3.348944e+07 4.553371e+06 1.779825e+07 5.701112e+06 3.891692e+06 1.316230e+08 3.389435e+07 8.287826e+06 -7.041719e+07 -1.124429e+08 -2.862072e+06 -1.456561e+07 4.617022e+07 2.646448e+07 2.201434e+07 3.279973e+07 -1.268088e+06 -1.732626e+07 -3.113663e+07
<VARIANCE> 42
 7.722748e+15 2.895434e+15 3.918619e+15 3.620416e+15 5.671945e+15 5.136407e+15 4.980856e+15 5.606635e+15 5.649181e+15 5.613416e+15 5.913046e+15 5.842096e+15 5.253572e+15 5.560280e+15 1.044547e+16 2.240104e+15 1.136438e+16 1.733242e+16 2.695122e+16 3.969318e+16 3.837011e+16 2.169689e+16 6.635420e+16 3.869062e+16 4.497339e+16 5.159695e+16 3.760499e+16 5.107599e+16 1.137359e+15 4.271412e+14 2.282496e+15 2.511194e+15 4.056490e+15 6.732628e+15 7.650830e+15 4.455336e+15 1.083188e+16 5.050138e+15 8.670523e+15 1.100996e+16 6.064609e+15 9.550093e+15
<GCONST> 1.616430e+03
<MIXTURE> 2 1.066341e-01
<MEAN> 42
 1.685951e+09 4.694122e+08 2.360049e+08 -8.177968e+07 -1.224990e+09 -7.627994e+08 -7.644755e+08 4.926440e+06 4.216269e+08 7.849235e+08 1.043748e+09 6.770291e+08 9.998837e+07 -2.754600e+08 9.993050e+07 -4.223059e+07 -1.620726e+08 -2.415761e+08 -1.269622e+08 2.796256e+08 3.471954e+08 1.698795e+08 -1.086243e+08 -3.334788e+08 -3.036465e+08 -9.737901e+07 1.493772e+08 2.029226e+08 2.102121e+07 -1.065745e+07 -3.158175e+07 -6.163006e+07 -7.126132e+06 9.633017e+07 1.042130e+08 5.203889e+07 -3.007102e+07 -1.060107e+08 -8.896187e+07 -2.503816e+07 4.303358e+07 5.875961e+07
<VARIANCE> 42
 2.156202e+17 2.437550e+17 9.179029e+16 9.791712e+16 3.219223e+17 7.854025e+17 5.294697e+17 1.965245e+17 3.138518e+17 5.422638e+17 9.936752e+17 5.784370e+17 5.178878e+17 8.654319e+17 1.925208e+16 1.656138e+16 9.558909e+15 1.236069e+16 4.764588e+16 6.709460e+16 4.977934e+16 2.709466e+16 7.281004e+16 7.357952e+16 1.106288e+17 6.042803e+16 7.434396e+16 3.405486e+16 7.816081e+14 1.040529e+15 4.807144e+14 1.600292e+15 2.641058e+15 5.232259e+15 5.562396e+15 3.756512e+15 4.801242e+15 5.122923e+15 9.767378e+15 5.096891e+15 7.074058e+15 4.864965e+15
<GCONST> 1.676995e+03
<MIXTURE> 3 1.716704e-01
<MEAN> 42
 4.576389e+08 7.035934e+07 -2.073718e+08 -2.392936e+08 -7.090742e+07 3.492160e+08 1.039311e+08 -4.527046e+07 -1.161243e+08 -1.022188e+08 9.656118e+07 6.055200e+07 3.953592e+07 -1.669232e+07 2.741261e+08 -9.403939e+05 -1.132004e+08 -1.779060e+08 2.124861e+07 3.172780e+08 3.863626e+07 -5.778028e+07 -1.686960e+08 -3.216391e+07 2.027745e+08 1.026474e+08 1.314632e+07 -1.167159e+08 8.682455e+07 1.171283e+07 -2.861063e+07 -6.100704e+07 -6.156668e+06 6.166127e+07 2.685173e+07 -4.848963e+06 -6.346748e+07 2.359836e+06 3.906154e+07 5.647058e+07 1.411532e+07 -5.742467e+07
<VARIANCE> 42
 4.703925e+16 4.259184e+16 2.303015e+16 4.171782e+16 5.116846e+16 5.648435e+16 9.513652e+16 7.494535e+16 5.877168e+16 6.559464e+16 8.664480e+16 7.183630e+16 8.033934e+16 7.639025e+16 1.711186e+16 3.760988e+15 5.725648e+15 1.210813e+16 1.315930e+16 1.165617e+16 1.457461e+16 2.384344e+16 2.007851e+16 1.987932e+16 2.420554e+16 2.055674e+16 3.236594e+16 1.350507e+16 1.183196e+15 5.022985e+14 8.604963e+14 1.708098e+15 1.268276e+15 1.811491e+15 3.010993e+15 1.734850e+15 4.233186e+15 3.296465e+15 2.663996e+15 4.788766e+15 2.434500e+15 4.127800e+15
<GCONST> 1.632252e+03
<MIXTURE> 4 1.289754e-01
<MEAN> 42
 6.413873e+08 8.525100e+05 -1.252019e+08 -9.506721e+07 -4.174728e+08 2.368266e+08 2.489781e+08 8.803534e+07 1.487653e+08 -1.566234e+08 -1.955312e+08 1.502844e+08 -2.682058e+07 5.245562e+07 1.928018e+08 -1.098723e+07 -8.754975e+06 -1.106874e+08 -1.306771e+08 1.305433e+08 5.532580e+07 8.812819e+07 -1.857732e+07 -1.093787e+08 -4.056959e+07 3.517570e+07 2.799206e+07 6.835067e+07 5.348147e+07 1.865278e+07 7.735691e+06 -2.802070e+07 -4.401122e+07 -6.585584e+06 -5.179996e+06 2.521241e+07 1.570180e+07 7.697500e+06 1.493081e+07 8.449294e+06 7.255967e+06 3.279223e+06
<VARIANCE> 42
 6.741845e+16 7.331991e+16 3.806952e+16 8.259864e+16 9.500430e+16 5.692808e+16 9.401051e+16 6.384645e+16 1.417274e+17 1.344508e+17 8.021158e+16 1.249431e+17 1.953209e+17 1.004690e+17 1.280707e+16 6.066439e+15 4.683360e+15 8.257265e+15 1.142627e+16 8.513944e+15 1.400805e+16 1.235445e+16 1.558086e+16 1.454800e+16 2.460011e+16 1.506335e+16 2.861912e+16 2.026427e+16 6.225064e+14 6.239584e+14 5.747934e+14 9.019939e+14 9.538676e+14 1.716520e+15 2.779358e+15 1.324985e+15 2.050060e+15 3.800218e+15 2.102375e+15 3.092642e+15 4.319120e+15 2.994553e+15
<GCONST> 1.632746e+03
<MIXTURE> 5 2.320108e-01
<MEAN> 42
 1.547847e+09 2.347632e+08 -1.894598e+07 1.953412e+08 -3.765533e+08 1.391602e+08 1.579174e+08 2.754911e+08 3.426899e+07 7.551152e+07 -1.143402e+07 7.880227e+07 4.391906e+08 2.438475e+08 7.694458e+07 -4.670729e+07 -7.655714e+07 -1.674443e+08 -1.669479e+08 7.536833e+07 4.505246e+07 -5.928960e+07 5.096180e+06 -6.685578e+06 -5.971118e+07 -5.668450e+06 -5.390191e+07 -6.170080e+07 2.530495e+07 7.023644e+06 -2.106974e+07 -5.257786e+07 -4.306284e+07 6.006584e+06 1.327624e+07 7.643245e+06 2.116307e+07 1.707538e+05 2.625618e+06 6.372288e+06 -3.800825e+07 -2.699318e+07
<VARIANCE> 42
 1.519669e+17 1.855571e+17 3.775269e+17 3.731713e+17 4.248496e+17 6.847110e+17 1.146642e+18 7.707802e+17 7.513813e+17 6.264151e+17 4.659841e+17 7.273173e+17 6.778051e+17 7.764314e+17 7.511851e+15 7.057115e+15 2.249645e+16 2.623144e+16 2.846362e+16 3.486565e+16 3.860856e+16 6.360444e+16 5.048831e+16 4.698386e+16 3.996596e+16 5.037967e+16 7.090457e+16 6.904464e+16 7.990286e+14 1.076760e+15 1.831698e+15 1.628734e+15 4.426235e+15 4.395019e+15 6.501638e+15 5.386067e+15 9.701709e+15 7.246499e+15 6.446775e+15 7.170291e+15 7.072614e+15 7.035425e+15
<GCONST> 1.683556e+03
<MIXTURE> 6 8.916972e-02
<MEAN> 42
 5.483463e+07 7.119882e+06 -1.807401e+07 -7.787804e+06 -7.098021e+06 2.979104e+06 1.468716e+07 1.128603e+07 3.062296e+06 -1.196226e+05 -4.780186e+06 6.001030e+06 4.237792e+06 -2.397210e+05 3.618238e+08 -1.427718e+07 -1.926584e+08 -1.569580e+08 1.149063e+08 3.276954e+08 -1.343746e+08 -1.311768e+08 -3.087101e+07 1.429042e+08 1.325032e+08 -1.018946e+08 -1.079239e+07 1.227778e+07 1.115660e+08 -9.027237e+06 -4.536909e+07 -4.784365e+07 3.510150e+07 8.579946e+07 -3.286244e+07 -2.937120e+07 -3.868732e+06 5.770928e+07 7.922832e+06 -3.514209e+07 5.538824e+06 2.360425e+07
<VARIANCE> 42
 7.722748e+15 2.009958e+15 3.918619e+15 3.620416e+15 5.671945e+15 5.136407e+15 4.980856e+15 5.606635e+15 5.649181e+15 5.613416e+15 5.913046e+15 5.842096e+15 5.253572e+15 5.560280e+15 8.965364e+15 3.003569e+15 6.088416e+15 1.946675e+16 1.517993e+16 2.018936e+16 2.871743e+16 8.064267e+15 5.210023e+16 1.936678e+16 4.389721e+16 3.610267e+16 3.589197e+16 5.139616e+16 7.443842e+14 2.420358e+14 7.607992e+14 9.391671e+14 2.035114e+15 1.121002e+15 2.969539e+15 2.036877e+15 3.491001e+15 2.537372e+15 3.181152e+15 3.413572e+15 4.449741e+15 5.307702e+15
<GCONST> 1.599635e+03
<MIXTURE> 7 1.111824e-01
<MEAN> 42
 4.750600e+08 -2.627890e+07 -4.225242e+07 -3.665218e+07 -3.414601e+08 1.416740e+08 3.437237e+07 8.772728e+07 2.288364e+08 -1.528584e+08 -8.474093e+07 -2.544998e+05 -1.530100e+08 1.487839e+08 2.483144e+08 3.326881e+07 -1.896325e+06 -1.249210e+08 -2.590268e+08 3.780326e+07 3.505667e+07 1.793577e+08 1.662259e+08 -3.582777e+07 -8.360617e+07 -9.900519e+07 -1.007654e+08 6.629715e+07 8.241222e+07 3.152649e+07 5.652985e+06 -5.276632e+07 -1.038336e+08 -3.063722e+07 2.226532e+06 6.706738e+07 7.794333e+07 1.460769e+07 -1.625798e+07 -5.481635e+07 -5.783183e+07 8.021212e+06
<VARIANCE> 42
 5.392775e+16 4.993093e+16 1.549356e+16 3.146638e+16 5.588483e+16 4.764705e+16 2.640564e+16 6.132354e+16 6.684225e+16 4.256485e+16 6.107897e+16 7.220337e+16 3.885932e+16 4.393712e+16 7.775689e+15 3.638635e+15 2.066214e+15 7.140783e+15 5.440289e+15 5.918973e+15 1.107927e+16 1.631003e+16 7.677251e+15 1.654068e+16 1.630980e+16 1.764847e+16 1.378772e+16 1.784204e+16 6.505266e+14 8.693641e+14 3.324859e+14 1.975059e+15 1.379508e+15 1.334927e+15 2.006639e+15 3.315006e+15 1.528982e+15 2.658845e+15 4.063318e+15 3.811460e+15 2.986872e+15 4.232383e+15
<GCONST> 1.619881e+03
<STATE> 6
<NUMMIXES> 7
<MIXTURE> 1 1.249764e-01
<MEAN> 42
 6.481243e+08 4.236847e+07 -7.346801e+07 -1.904413e+08 -4.344189e+08 1.944076e+08 1.325286e+08 1.731245e+08 1.082455e+08 -1.753631e+08 -7.703648e+07 4.392761e+07 2.678255e+07 4.820514e+07 3.586627e+08 8.626182e+07 9.319837e+07 -1.265458e+08 -3.551642e+08 -1.015760e+08 -1.877412e+08 8.534198e+07 1.849541e+08 1.419837e+08 1.763437e+08 2.908214e+07 -1.084485e+08 -1.208524e+08 6.197702e+07 3.467065e+07 3.769550e+07 -1.411745e+07 -7.371735e+07 -7.429876e+07 -8.304210e+07 5.532028e+05 4.563518e+07 7.356144e+07 7.817421e+07 1.190556e+07 -2.527422e+07 -4.716275e+07
<VARIANCE> 42
 2.097735e+17 6.211772e+16 2.641857e+16 8.642988e+16 1.714616e+17 1.373522e+17 1.250936e+17 6.588582e+16 1.412431e+17 1.181895e+17 1.283864e+17 1.291492e+17 1.537207e+17 8.787104e+16 1.373407e+16 4.856100e+15 4.558068e+15 1.274200e+16 2.517529e+16 1.618227e+16 1.861930e+16 2.497840e+16 4.496933e+16 2.406433e+16 2.852572e+16 4.132625e+16 5.393979e+16 3.067540e+16 1.396264e+15 7.462787e+14 4.481735e+14 5.910172e+14 1.740127e+15 2.677644e+15 2.268502e+15 2.743920e+15 4.467135e+15 4.449622e+15 3.572563e+15 6.035818e+15 8.451226e+15 5.470477e+15
<GCONST> 1.646920e+03
<MIXTURE> 2 1.687124e-01
<MEAN> 42
 1.699446e+09 2.885720e+08 2.864451e+07 -3.695114e+08 -1.291141e+09 -1.464754e+08 6.343686e+07 5.599167e+08 3.880361e+08 1.419431e+08 4.849952e+07 4.366581e+07 6.889126e+07 2.256816e+08 1.021871e+08 -3.433411e+07 -1.329041e+08 -2.551777e+08 -1.560043e+08 2.495400e+08 2.785941e+08 1.282929e+08 -7.647445e+07 -3.088456e+08 -2.439239e+08 -5.847952e+07 6.349907e+07 1.672478e+08 2.198504e+06 7.491362e+05 -2.511761e+06 -8.776397e+06 2.744150e+07 3.844974e+07 6.939612e+06 -1.525797e+07 -2.467233e+07 -2.885185e+07 1.168873e+07 3.416249e+07 1.695241e+07 -9.910691e+06
<VARIANCE> 42
 1.311859e+17 1.110920e+17 1.643655e+17 2.109665e+17 2.250987e+17 6.713764e+17 5.520760e+17 7.304429e+17 3.860188e+17 6.109544e+17 9.063676e+17 1.253535e+18 7.706749e+17 8.845790e+17 1.526111e+16 1.002718e+16 1.223862e+16 1.821008e+16 3.222312e+16 7.518576e+16 6.937532e+16 3.772103e+16 5.576957e+16 7.143976e+16 9.080691e+16 5.308660e+16 8.372871e+16 4.418419e+16 8.749436e+14 7.167952e+14 7.368804e+14 1.428859e+15 2.694806e+15 3.126842e+15 3.876295e+15 5.092283e+15 5.351885e+15 4.996905e+15 7.519496e+15 8.369190e+15 7.007067e+15 5.801748e+15
<GCONST> 1.679358e+03
<MIXTURE> 3 1.223483e-01
<MEAN> 42
 1.446135e+09 -2.663760e+08 -3.922300e+08 -4.303698e+08 -2.593739e+08 1.465123e+09 -2.124102e+08 -3.707101e+08 -2.378362e+08 -1.916986e+08 9.399961e+08 -5.298544e+06 -3.038851e+08 -1.287026e+07 2.693785e+08 1.427864e+07 -8.519849e+07 -1.890504e+08 -4.793712e+06 2.901549e+08 8.535026e+07 -2.708039e+06 -1.964473e+08 -3.260355e+07 1.831880e+08 1.546496e+08 4.027452e+07 -1.178535e+08 6.582922e+06 3.384043e+07 -8.940890e+06 -4.585872e+07 -3.653089e+06 -9.867802e+06 6.862540e+07 3.718168e+07 -6.591350e+07 -1.963193e+07 -2.494295e+07 6.900498e+07 6.268809e+07 -4.810090e+07
<VARIANCE> 42
 7.087911e+16 4.059630e+16 8.239238e+16 1.296163e+17 1.054560e+17 1.152150e+17 2.066355e+17 3.100495e+17 2.274329e+17 2.674792e+17 2.171285e+17 2.817769e+17 6.119626e+17 4.489858e+17 1.102742e+16 2.906466e+15 4.463484e+15 9.131483e+15 5.719212e+15 1.514473e+16 1.312295e+16 1.056142e+16 1.834698e+16 2.305401e+16 1.977188e+16 2.042768e+16 2.711291e+16 2.573906e+16 1.482029e+15 5.330520e+14 5.242418e+14 1.108094e+15 9.989638e+14 1.690241e+15 1.526133e+15 1.645367e+15 1.634301e+15 2.813610e+15 3.232277e+15 3.145901e+15 3.758839e+15 2.709990e+15
<GCONST> 1.642090e+03
<MIXTURE> 4 2.186635e-01
<MEAN> 42
 1.162223e+09 2.978505e+07 -2.659932e+08 -2.666359e+08 -6.248500e+08 5.445423e+08 7.393818e+08 2.187048e+08 -2.313818e+08 -3.080263e+08 -3.525560e+08 2.830277e+08 5.012622e+08 2.917396e+07 1.691165e+08 -1.375954e+07 -5.854961e+07 -1.530158e+08 -1.220222e+08 1.748416e+08 8.680164e+07 -3.607578e+07 -6.368116e+07 -8.613982e+07 -3.364145e+07 1.280914e+08 4.116312e+07 -5.196838e+07 1.750085e+07 1.127348e+07 1.682773e+06 -1.097726e+07 -1.113928e+07 -8.058220e+06 -2.208537e+07 9.381292e+06 2.870537e+07 4.442828e+06 2.003093e+07 -2.241304e+06 -4.163848e+07 6.490261e+06
<VARIANCE> 42
 1.346375e+17 8.750264e+16 1.308567e+17 2.383438e+17 1.472954e+17 1.213179e+17 2.485820e+17 2.165603e+17 3.539746e+17 2.773907e+17 2.446925e+17 2.792676e+17 4.290652e+17 3.764654e+17 2.146498e+16 4.926281e+15 7.502498e+15 1.684527e+16 1.727816e+16 1.648055e+16 1.526483e+16 2.966824e+16 3.160401e+16 2.663595e+16 3.512783e+16 2.415614e+16 3.993254e+16 4.111123e+16 8.456511e+14 5.175012e+14 4.891190e+14 1.100475e+15 1.476487e+15 1.162445e+15 1.678853e+15 2.211682e+15 3.114183e+15 3.419593e+15 2.985413e+15 3.515658e+15 4.187889e+15 4.503589e+15
<GCONST> 1.653055e+03
<MIXTURE> 5 1.250041e-01
<MEAN> 42
 1.625512e+09 7.442826e+07 -4.719781e+08 -1.548421e+08 2.857552e+08 6.988419e+08 -5.796787e+08 -3.176174e+08 2.201822e+08 3.277366e+08 2.282837e+08 -3.043441e+08 2.784042e+08 3.345347e+08 3.586677e+08 -1.007356e+07 -2.219939e+08 -3.087212e+08 -3.874650e+06 2.882204e+08 1.841319e+07 -3.727823e+07 -3.602038e+07 1.304726e+08 1.083201e+08 -3.314485e+07 -3.131896e+07 -1.255541e+08 9.829459e+06 2.002484e+07 -6.094720e+06 -4.930552e+07 -3.208070e+07 1.867315e+07 6.564590e+07 1.160148e+07 -5.569051e+07 -4.699975e+06 3.325293e+07 5.869068e+07 -2.082491e+07 -6.701250e+07
<VARIANCE> 42
 3.956400e+17 2.506087e+17 3.014487e+17 2.583487e+17 5.566501e+17 9.985772e+17 1.034525e+18 6.467656e+17 7.286986e+17 6.033364e+17 4.479366e+17 1.115454e+18 7.690387e+17 1.083021e+18 4.166524e+16 1.168204e+16 2.406217e+16 3.283148e+16 8.121169e+16 7.530292e+16 9.864995e+16 7.972731e+16 1.628168e+17 8.208398e+16 8.934077e+16 1.321987e+17 9.388115e+16 1.559592e+17 2.277099e+15 1.150495e+15 2.705540e+15 2.834640e+15 4.872468e+15 4.195419e+15 1.008535e+16 9.929479e+15 1.492676e+16 1.291667e+16 5.717078e+15 2.075150e+16 9.985953e+15 2.145081e+16
<GCONST> 1.702023e+03
<MIXTURE> 6 1.242524e-01
<MEAN> 42
 8.494928e+08 4.584768e+07 -5.844334e+07 -3.375452e+08 -5.712365e+08 2.765915e+08 1.924712e+08 4.246420e+08 1.680121e+08 -2.048056e+08 -2.205084e+08 -8.488746e+07 -2.836200e+04 2.288450e+08 4.042934e+08 1.188639e+08 -3.001275e+07 -3.000518e+08 -4.328445e+08 1.790996e+07 1.340685e+08 3.681745e+08 2.340003e+08 -6.118076e+07 -2.222150e+08 -2.535923e+08 -1.115110e+08 1.581824e+08 5.003297e+07 3.100561e+07 -2.695814e+06 -5.398930e+07 -7.523622e+07 -3.029623e+07 1.207475e+07 6.191897e+07 5.759047e+07 7.710252e+06 -3.160406e+07 -7.763554e+07 -3.905812e+07 1.840663e+07
<VARIANCE> 42
 1.483382e+17 9.088881e+16 4.665850e+16 1.522837e+17 1.852084e+17 1.217777e+17 1.120573e+17 1.707252e+17 2.378305e+17 1.699043e+17 1.575388e+17 2.074549e+17 2.557347e+17 1.461240e+17 1.271999e+16 8.257306e+15 3.837354e+15 1.125754e+16 1.845523e+16 1.979892e+16 2.423231e+16 2.133025e+16 2.650291e+16 6.277481e+16 3.958495e+16 3.424054e+16 5.298264e+16 7.476995e+16 1.125227e+15 1.182634e+15 5.784045e+14 2.021544e+15 2.485346e+15 1.616364e+15 1.789848e+15 2.680603e+15 2.194795e+15 2.680252e+15 3.316391e+15 4.083948e+15 4.310800e+15 3.780434e+15
<GCONST> 1.651662e+03
<MIXTURE> 7 1.160429e-01
<MEAN> 42
 1.080391e+09 8.813777e+07 -6.390722e+08 -7.081116e+08 5.156629e+07 1.172643e+09 1.104811e+08 -5.413178e+08 -7.197388e+08 1.138192e+08 9.364244e+08 1.869997e+08 -4.689123e+08 -5.983521e+08 3.493154e+08 2.050051e+07 -1.716452e+08 -2.424640e+08 5.212790e+07 3.735450e+08 2.236847e+07 -1.331904e+08 -2.041456e+08 7.488558e+07 2.521807e+08 5.299301e+07 -6.685514e+07 -1.481674e+08 3.430113e+07 3.238337e+06 1.037753e+07 -2.206648e+07 -2.390920e+07 -1.620086e+07 1.827153e+07 4.869599e+07 1.123446e+07 -9.796891e+06 -4.719504e+07 2.555446e+06 5.121786e+07 2.186350e+07
<VARIANCE> 42
 1.049452e+17 4.819811e+16 6.171060e+16 5.548662e+16 7.281785e+16 1.224817e+17 9.820273e+16 1.315068e+17 1.115067e+17 2.134842e+17 1.068441e+17 1.736498e+17 2.575364e+17 1.840328e+17 3.057750e+16 2.762500e+15 1.230401e+16 2.125956e+16 1.350113e+16 3.685193e+16 2.157382e+16 2.310022e+16 3.551103e+16 3.606972e+16 3.213817e+16 5.373226e+16 4.391017e+16 4.945738e+16 1.139686e+15 4.929804e+14 8.435585e+14 8.842718e+14 1.415903e+15 2.944060e+15 1.724043e+15 3.321953e+15 2.697250e+15 4.052733e+15 3.330526e+15 6.775941e+15 4.547376e+15 4.918305e+15
<GCONST> 1.649357e+03
<STATE> 7
<NUMMIXES> 7
<MIXTURE> 1 1.694059e-01
<MEAN> 42
 2.125219e+09 2.709611e+08 -4.703991e+08 -1.045833e+09 -1.046309e+09 6.979651e+08 6.354882e+08 8.094259e+08 -2.230077e+08 -6.860694e+08 -4.963037e+08 9.473290e+07 9.405960e+08 6.746918e+08 2.171367e+08 6.421064e+06 -1.605875e+08 -3.130797e+08 -1.491574e+08 2.650468e+08 2.463029e+08 7.605408e+07 -9.496185e+07 -1.391699e+08 -9.666869e+07 6.332416e+07 5.990304e+07 -1.895578e+06 -3.421071e+07 5.995176e+06 2.444842e+07 3.728840e+07 3.003986e+07 -2.236704e+07 -4.768557e+07 -5.314221e+07 5.831527e+06 4.893995e+07 7.795799e+07 3.443547e+07 -5.934080e+07 -5.722557e+07
<VARIANCE> 42
 1.010352e+17 1.395575e+17 2.446158e+17 3.920784e+17 9.837347e+17 1.004726e+18 1.279789e+18 7.277639e+17 1.069665e+18 1.202955e+18 8.702441e+17 1.183430e+18 1.476980e+18 1.149341e+18 3.717887e+16 1.259678e+16 1.577611e+16 2.077244e+16 6.538102e+16 9.021995e+16 8.228738e+16 8.111537e+16 1.175639e+17 1.579511e+17 1.729827e+17 1.229987e+17 1.140499e+17 1.705852e+17 1.153584e+15 1.362002e+15 1.384970e+15 1.929659e+15 4.474661e+15 5.811128e+15 8.475712e+15 7.928304e+15 7.692430e+15 9.000698e+15 7.946593e+15 1.122053e+16 1.206800e+16 1.044610e+16
<GCONST> 1.700216e+03
<MIXTURE> 2 1.257837e-01
<MEAN> 42
 2.230420e+09 6.546141e+07 -9.291737e+08 -1.136633e+09 4.541268e+08 2.074920e+09 -5.231548e+07 -6.909219e+08 -8.119176e+08 7.977276e+08 1.333938e+09 1.606368e+08 -3.923390e+08 -6.617142e+08 3.102764e+08 2.725653e+07 -1.454155e+08 -2.993648e+08 -2.191478e+07 2.899425e+08 1.603877e+08 1.293955e+07 -2.830577e+08 -8.681549e+07 9.383143e+07 2.348366e+08 1.343427e+08 -1.946922e+08 -6.366582e+07 8.513439e+06 4.425224e+07 1.823428e+07 -5.864181e+07 -8.187804e+07 5.761878e+07 8.391620e+07 1.116332e+06 -9.128281e+07 -8.246517e+07 5.579922e+07 8.815730e+07 1.746113e+07
<VARIANCE> 42
 1.867177e+17 7.125218e+16 3.042337e+17 3.325671e+17 2.367055e+17 3.034857e+17 3.096313e+17 5.613231e+17 6.776025e+17 3.961406e+17 5.902441e+17 8.368118e+17 1.055578e+18 1.017026e+18 3.054942e+16 7.016874e+15 1.940345e+16 2.686679e+16 1.466640e+16 3.599145e+16 4.610436e+16 3.348502e+16 5.469203e+16 5.028144e+16 4.769773e+16 8.186335e+16 5.152506e+16 8.931897e+16 1.662684e+15 8.292461e+14 2.119737e+15 3.117875e+15 2.225250e+15 2.418259e+15 3.432058e+15 5.693005e+15 4.722239e+15 5.393447e+15 4.503022e+15 7.303719e+15 1.050489e+16 7.928467e+15
<GCONST> 1.679461e+03
<MIXTURE> 3 1.741434e-01
<MEAN> 42
 1.303852e+09 6.398752e+07 -1.136453e+08 -4.508591e+08 -1.187988e+09 3.612033e+08 5.699926e+08 6.471471e+08 5.816498e+08 -3.789744e+08 -7.539039e+08 -1.817084e+08 -1.647707e+08 5.411961e+08 9.295066e+07 -2.038120e+06 -6.361623e+06 -1.004266e+08 -1.186950e+08 6.439356e+07 1.984538e+07 6.930410e+07 5.264960e+07 -1.150240e+08 -3.141550e+07 -2.760574e+07 -2.186711e+07 1.132765e+08 2.222895e+06 6.179012e+06 1.327672e+07 1.961698e+07 1.318405e+07 -2.001175e+07 -3.561085e+07 -1.575529e+07 -4.725795e+05 2.125420e+07 5.152446e+07 1.092175e+07 -3.163622e+06 -2.020562e+07
<VARIANCE> 42
 8.743139e+16 7.902639e+16 4.980107e+16 1.358644e+17 1.841048e+17 1.922829e+17 1.364412e+17 2.003527e+17 1.722161e+17 2.303041e+17 3.071318e+17 4.303018e+17 3.367068e+17 2.493396e+17 1.340414e+16 3.492412e+15 3.080921e+15 5.468448e+15 1.396141e+16 7.882204e+15 1.258377e+16 1.102498e+16 1.312230e+16 1.273476e+16 2.873917e+16 2.073673e+16 1.759066e+16 2.426073e+16 8.400163e+14 7.596287e+14 4.421268e+14 9.583640e+14 1.909751e+15 1.110981e+15 1.863209e+15 1.751077e+15 2.456799e+15 1.715530e+15 3.568073e+15 3.947346e+15 4.036593e+15 2.390221e+15
<GCONST> 1.640734e+03
<MIXTURE> 4 1.273052e-01
<MEAN> 42
 1.474719e+09 1.343072e+08 3.475662e+07 -5.131978e+08 -1.216487e+09 1.479991e+08 -1.093252e+06 6.326876e+08 6.134824e+08 1.765465e+07 -3.174681e+07 -2.038436e+08 -3.498699e+08 -4.597269e+07 3.812764e+08 1.262272e+08 1.335662e+08 -1.311140e+08 -4.040252e+08 -2.116773e+08 -2.930287e+08 8.229901e+07 2.473608e+08 2.634556e+08 2.811916e+08 3.458256e+07 -1.401930e+08 -2.048429e+08 -1.060280e+07 2.582394e+07 2.812625e+07 1.336922e+07 -5.892038e+06 -7.058430e+07 -6.392139e+07 -2.839235e+07 4.629403e+06 5.628942e+07 6.399700e+07 2.142734e+07 6.047174e+06 -3.478908e+07
<VARIANCE> 42
 2.065308e+17 6.632161e+16 4.627951e+16 2.225265e+17 3.696959e+17 3.330264e+17 2.768341e+17 3.024900e+17 6.457957e+17 5.071511e+17 3.973231e+17 5.651680e+17 6.882506e+17 4.899091e+17 1.620703e+16 5.033155e+15 4.823180e+15 9.864647e+15 2.553731e+16 2.042759e+16 2.066057e+16 2.890230e+16 4.893103e+16 3.691614e+16 3.602024e+16 5.271811e+16 8.468979e+16 4.221689e+16 1.410413e+15 6.149770e+14 3.582227e+14 1.154543e+15 2.247761e+15 4.430715e+15 2.345895e+15 3.163077e+15 5.266510e+15 6.778388e+15 4.303170e+15 5.761297e+15 7.565158e+15 6.919350e+15
<GCONST> 1.665554e+03
<MIXTURE> 5 1.550437e-01
<MEAN> 42
 1.649374e+09 -2.359397e+08 -4.642589e+08 -1.426146e+08 -5.976040e+08 9.245888e+08 5.892772e+08 -6.906618e+08 -2.355820e+08 1.294577e+08 -2.289461e+08 8.955457e+08 -1.288545e+08 -4.140550e+08 9.453612e+07 -9.456782e+06 -1.470872e+07 -9.784110e+07 -5.580722e+07 1.443433e+08 -2.913727e+07 -5.180154e+07 4.481352e+07 -8.729360e+07 3.010110e+07 1.002272e+08 -1.352610e+08 2.904927e+07 -8.235282e+06 2.136658e+07 1.220125e+07 -1.252148e+07 2.645619e+06 -2.069097e+07 -8.141532e+06 6.158544e+07 9.172292e+05 -2.648957e+07 1.986883e+07 -4.084371e+07 3.594918e+06 4.109699e+07
<VARIANCE> 42
 1.145361e+17 7.432453e+16 2.502510e+17 2.456356e+17 2.622261e+17 3.398414e+17 6.606711e+17 3.309953e+17 6.802928e+17 5.205698e+17 4.025725e+17 4.668567e+17 7.237137e+17 8.290898e+17 1.167299e+16 3.383239e+15 9.350587e+15 8.983735e+15 1.295249e+16 1.024724e+16 2.182521e+16 2.163133e+16 2.573261e+16 2.956950e+16 2.227051e+16 3.520146e+16 2.610543e+16 2.640295e+16 1.045653e+15 7.477200e+14 1.178253e+15 1.435192e+15 1.629961e+15 1.554989e+15 2.811232e+15 3.052782e+15 5.911937e+15 4.368996e+15 3.599068e+15 5.246645e+15 5.413485e+15 9.658293e+15
<GCONST> 1.662307e+03
<MIXTURE> 6 1.514373e-01
<MEAN> 42
 1.824257e+09 3.584382e+07 -7.738606e+08 -1.269617e+09 -3.422664e+08 1.903084e+09 6.055678e+08 -3.686981e+08 -1.287491e+09 -5.539624e+08 1.302853e+09 1.007778e+09 -1.551639e+08 -8.999962e+08 2.290126e+08 9.099823e+06 -1.202021e+08 -2.098890e+08 3.462836e+07 3.044908e+08 7.329562e+07 -7.372250e+07 -2.533281e+08 -4.934745e+07 2.382071e+08 1.468217e+08 6.408053e+06 -2.056946e+08 -2.826358e+07 1.155515e+07 3.793318e+07 3.474350e+07 -1.096097e+07 -9.831930e+07 -3.330950e+07 5.523309e+07 7.598254e+07 5.016958e+07 -8.155578e+07 -6.741002e+07 2.475942e+07 4.682578e+07
<VARIANCE> 42
 1.238540e+17 3.480139e+16 8.376556e+16 1.131755e+17 1.580482e+17 2.200739e+17 1.484216e+17 3.407595e+17 2.860225e+17 3.652692e+17 4.617502e+17 2.956519e+17 8.184139e+17 5.829611e+17 2.186826e+16 4.832726e+15 6.736028e+15 1.779939e+16 1.981931e+16 2.199572e+16 2.457109e+16 2.873776e+16 2.773524e+16 4.449692e+16 3.131232e+16 3.780540e+16 3.395587e+16 4.678892e+16 1.969310e+15 4.897709e+14 9.491839e+14 7.291730e+14 2.119216e+15 2.204533e+15 2.098816e+15 3.855640e+15 3.446940e+15 6.230989e+15 5.502539e+15 4.302202e+15 9.463387e+15 7.687845e+15
<GCONST> 1.660486e+03
<MIXTURE> 7 9.688104e-02
<MEAN> 42
 1.605800e+09 9.813229e+07 -4.510883e+07 -8.000731e+08 -1.310505e+09 3.777452e+08 1.711293e+08 1.003368e+09 4.484096e+08 -3.028833e+08 -3.289580e+08 -4.564349e+08 -1.330551e+08 3.867350e+08 4.052368e+08 1.343388e+08 -1.352408e+07 -3.121867e+08 -4.854561e+08 -4.929241e+07 1.069094e+08 4.566973e+08 3.299776e+08 -2.461970e+07 -2.448769e+08 -4.227082e+08 -1.903451e+08 1.486297e+08 -2.465824e+07 1.692497e+07 1.060489e+07 1.077739e+07 2.038959e+06 -4.680027e+07 -1.599628e+07 -5.141822e+06 2.740930e+07 3.188450e+07 9.923596e+06 -2.647320e+07 -2.164970e+07 -1.750645e+07
<VARIANCE> 42
 2.023824e+17 1.069155e+17 8.534208e+16 2.006342e+17 2.508067e+17 3.930115e+17 2.902390e+17 4.163089e+17 5.206105e+17 6.147947e+17 4.769605e+17 5.799564e+17 5.265799e+17 7.952871e+17 1.877643e+16 9.638472e+15 3.181792e+15 1.556607e+16 2.539064e+16 2.081336e+16 2.129002e+16 2.074058e+16 2.297538e+16 4.896012e+16 3.264876e+16 2.526172e+16 4.979915e+16 6.353536e+16 9.724948e+14 1.030418e+15 6.175821e+14 1.121641e+15 1.802737e+15 3.165000e+15 4.199472e+15 3.882159e+15 3.916493e+15 5.011523e+15 7.912044e+15 6.777319e+15 4.318392e+15 7.660051e+15
<GCONST> 1.666789e+03
<STATE> 8
<NUMMIXES> 7
<MIXTURE> 1 1.662266e-01
<MEAN> 42
 2.561881e+09 2.438534e+08 -1.120792e+09 -2.025460e+09 -3.200513e+08 2.540917e+09 1.118071e+09 -1.937002e+08 -2.124094e+09 -6.607026e+08 1.441659e+09 1.773465e+09 6.014551e+08 -1.752754e+09 1.962803e+08 6.209425e+07 -1.030012e+08 -2.653861e+08 -7.231480e+07 2.048081e+08 1.890676e+08 3.165984e+07 -2.730827e+08 -1.374746e+08 8.140410e+07 2.561740e+08 9.588802e+07 -1.892756e+08 -7.915769e+07 1.071428e+06 6.371480e+07 8.506550e+07 -1.035642e+07 -1.562935e+08 -8.860282e+07 2.560124e+07 1.419165e+08 9.167394e+07 -7.174800e+07 -1.136492e+08 -5.546298e+07 8.949732e+07
<VARIANCE> 42
 9.692354e+16 7.592161e+16 1.397905e+17 2.300178e+17 2.886214e+17 3.757208e+17 3.325389e+17 4.998378e+17 5.941681e+17 5.763244e+17 8.665468e+17 7.141770e+17 1.016147e+18 1.085633e+18 2.778798e+16 5.901002e+15 1.305849e+16 2.418360e+16 2.310603e+16 4.872725e+16 4.524028e+16 3.968877e+16 6.557002e+16 6.635533e+16 6.327774e+16 8.682596e+16 6.947086e+16 1.203725e+17 2.375155e+15 6.682834e+14 2.240609e+15 2.268607e+15 2.377593e+15 5.543886e+15 3.939260e+15 6.401067e+15 5.523936e+15 7.206536e+15 7.282307e+15 6.930024e+15 1.000769e+16 8.459003e+15
<GCONST> 1.682043e+03
<MIXTURE> 2 1.440947e-01
<MEAN> 42
 2.181861e+09 5.777309e+08 1.721512e+08 -8.096133e+08 -2.074230e+09 -7.350190e+08 -5.630092e+08 9.155914e+08 1.314191e+09 1.000372e+09 6.851062e+08 -4.762597e+08 -1.118670e+09 -9.266362e+08 2.459886e+08 7.617629e+07 6.870666e+07 -1.196924e+08 -3.069769e+08 -1.214402e+08 -1.253301e+08 5.891762e+07 1.703590e+08 2.032357e+08 1.808434e+08 -1.218592e+07 -1.278231e+08 -1.500810e+08 -6.318437e+07 -1.408122e+07 6.405478e+06 4.749744e+07 9.248950e+07 3.419723e+07 5.141295e+06 -6.475732e+07 -8.156194e+07 -6.189412e+07 -2.611784e+07 4.259851e+07 8.427518e+07 6.873034e+07
<VARIANCE> 42
 1.356202e+17 1.943737e+17 2.374217e+17 2.744749e+17 5.287481e+17 6.262791e+17 7.314245e+17 7.658536e+17 1.155189e+18 6.003316e+17 1.045826e+18 1.327924e+18 1.331180e+18 1.032007e+18 3.258363e+16 1.924319e+16 1.531098e+16 1.987853e+16 5.907663e+16 8.223665e+16 8.613846e+16 9.728841e+16 9.853217e+16 8.011122e+16 8.288497e+16 1.060353e+17 1.325349e+17 1.129715e+17 1.369037e+15 1.215341e+15 6.698916e+14 2.306681e+15 3.890172e+15 7.010519e+15 4.328134e+15 7.262454e+15 8.193636e+15 7.618342e+15 9.450203e+15 1.199893e+16 9.248380e+15 1.321838e+16
<GCONST> 1.695475e+03
<MIXTURE> 3 1.708515e-01
<MEAN> 42
 1.947434e+09 2.686638e+06 -7.523864e+08 -1.184249e+09 -3.549604e+08 1.840446e+09 6.656778e+08 -4.154079e+08 -1.106148e+09 -3.867952e+08 9.417857e+08 1.139385e+09 -1.584450e+08 -8.615946e+08 3.501116e+07 3.418908e+07 4.813659e+07 -7.398508e+07 -9.629916e+07 -2.895724e+07 6.614397e+07 1.649888e+08 1.567241e+06 -1.126487e+08 -8.688207e+07 -6.518416e+06 1.278365e+08 9.798812e+07 -2.110613e+07 1.079147e+07 4.098508e+07 2.514730e+07 -2.486592e+07 -8.754486e+07 -1.970214e+07 8.090634e+07 8.332783e+07 1.943709e+07 -9.411034e+07 -9.197463e+07 2.883183e+07 1.053927e+08
<VARIANCE> 42
 6.565414e+16 5.435867e+16 9.534808e+16 2.018840e+17 2.380758e+17 1.545033e+17 2.103403e+17 2.514693e+17 3.732221e+17 3.235173e+17 6.328414e+17 3.669083e+17 7.948762e+17 6.614331e+17 7.945353e+15 2.826441e+15 4.682190e+15 6.124550e+15 1.759596e+16 1.211817e+16 3.093114e+16 2.170421e+16 3.642689e+16 3.120746e+16 4.245212e+16 4.631836e+16 4.869077e+16 6.230153e+16 7.058616e+14 5.488013e+14 4.726862e+14 1.205473e+15 1.093537e+15 2.071079e+15 1.891998e+15 3.797714e+15 2.748787e+15 2.824389e+15 4.451193e+15 6.864634e+15 4.558751e+15 6.006011e+15
<GCONST> 1.655517e+03
<MIXTURE> 4 9.733851e-02
<MEAN> 42
 2.744414e+09 -1.941668e+08 -1.749571e+09 -9.840263e+08 1.370798e+09 2.155800e+09 -1.547990e+09 -1.132192e+09 8.259447e+08 1.402892e+09 1.275387e+08 -1.358004e+09 4.933650e+07 1.272480e+09 7.548266e+07 -7.073295e+06 -3.438076e+07 -9.308376e+07 -2.292509e+06 6.763647e+07 5.500450e+06 4.580593e+06 -7.211447e+07 3.582905e+07 2.364964e+07 -3.067042e+07 2.449408e+07 -2.678037e+07 -7.581606e+07 2.721882e+07 8.733638e+07 1.613221e+07 -1.015032e+08 -7.154669e+07 1.302849e+08 9.023052e+07 -6.983835e+07 -1.008574e+08 1.083279e+07 1.028792e+08 8.970028e+06 -1.024406e+08
<VARIANCE> 42
 1.851414e+17 1.270351e+17 3.993012e+17 4.379527e+17 3.326389e+17 5.433778e+17 1.187310e+18 6.493923e+17 1.627137e+18 1.289715e+18 1.611759e+18 1.236510e+18 2.804625e+18 1.495557e+18 2.611559e+16 6.519500e+15 3.514465e+16 2.374839e+16 5.607892e+16 3.437671e+16 1.250415e+17 7.593516e+16 1.267759e+17 9.656560e+16 1.095558e+17 1.196087e+17 8.665954e+16 1.740915e+17 3.651654e+15 5.348996e+14 4.157953e+15 4.517403e+15 3.476560e+15 8.888753e+15 4.818681e+15 1.252566e+16 1.226041e+16 1.140920e+16 1.416586e+16 7.212489e+15 1.781329e+16 1.375628e+16
<GCONST> 1.703233e+03
<MIXTURE> 5 1.281026e-01
<MEAN> 42
 1.606998e+09 1.479978e+06 -4.747521e+07 -3.337033e+08 -1.182191e+09 5.086506e+08 4.008555e+08 3.546127e+08 4.134474e+08 -3.451256e+08 -3.985459e+08 2.410414e+08 -5.242611e+06 2.957538e+08 9.874839e+07 9.855488e+06 5.274410e+06 -6.612574e+07 -1.134557e+08 4.456990e+07 -1.965383e+07 4.571466e+07 7.365629e+07 -8.785287e+07 4.339890e+06 -9.572904e+06 -5.247926e+07 8.652034e+07 -2.108265e+07 1.509489e+07 2.129945e+07 2.388015e+07 1.820895e+07 -3.480105e+07 -3.875687e+07 9.875640e+06 1.795929e+07 3.693270e+07 4.490655e+07 -2.843739e+07 -1.305007e+07 -2.346133e+06
<VARIANCE> 42
 8.525297e+16 1.214770e+17 1.588105e+17 1.660412e+17 3.014514e+17 4.055965e+17 5.928713e+17 4.739983e+17 4.673309e+17 4.949050e+17 6.516823e+17 6.250132e+17 8.006912e+17 6.479041e+17 8.177595e+15 2.470528e+15 3.035673e+15 6.225195e+15 1.096298e+16 7.225359e+15 1.071724e+16 1.168999e+16 1.597304e+16 1.473216e+16 1.737122e+16 2.170850e+16 2.637365e+16 2.120606e+16 9.577426e+14 7.389495e+14 7.443504e+14 1.476771e+15 1.926130e+15 2.153734e+15 2.500090e+15 2.815275e+15 2.930966e+15 3.248656e+15 4.960681e+15 4.415043e+15 4.298226e+15 5.385901e+15
<GCONST> 1.654406e+03
<MIXTURE> 6 1.531322e-01
<MEAN> 42
 2.162044e+09 -1.209847e+08 -8.993353e+08 -8.675592e+08 4.692603e+08 1.737799e+09 -3.568427e+08 -5.825332e+08 -4.992778e+07 3.866134e+08 4.941692e+08 4.416030e+07 -8.086178e+07 2.955850e+08 -6.447947e+06 3.375171e+07 2.827200e+07 -1.027311e+08 -7.722992e+07 3.234329e+07 1.496497e+08 7.277470e+07 -1.844917e+08 -9.964002e+07 8.132469e+07 6.956570e+07 3.950583e+07 -1.120289e+08 -2.181600e+07 9.296544e+06 1.247104e+07 -3.806332e+06 -3.379192e+07 -1.982931e+07 3.649684e+07 1.978263e+07 -2.548643e+07 -2.366478e+07 -3.262946e+06 1.895870e+07 7.270456e+06 -2.819513e+07
<VARIANCE> 42
 6.195729e+16 6.898143e+16 1.830597e+17 2.825333e+17 2.969976e+17 1.407525e+17 3.402129e+17 3.706354e+17 5.645751e+17 5.559049e+17 4.811300e+17 8.889704e+17 1.368617e+18 6.529798e+17 4.479265e+15 2.089693e+15 5.317775e+15 4.822534e+15 1.958382e+16 1.252153e+16 2.426654e+16 2.287965e+16 2.505665e+16 4.162323e+16 3.820755e+16 4.567758e+16 3.680631e+16 2.616934e+16 7.840887e+14 3.457716e+14 1.336820e+15 7.819496e+14 9.232933e+14 1.803646e+15 1.819092e+15 2.994594e+15 2.440412e+15 2.919937e+15 3.242695e+15 3.165899e+15 4.685170e+15 2.803165e+15
<GCONST> 1.655144e+03
<MIXTURE> 7 1.402540e-01
<MEAN> 42
 2.287944e+09 3.839412e+08 -4.318020e+08 -1.473985e+09 -2.021877e+09 6.855674e+08 1.250429e+09 1.506914e+09 4.969285e+08 -1.157980e+09 -1.355226e+09 -5.172266e+08 4.941262e+08 1.392630e+09 1.970014e+08 6.361195e+07 -4.356006e+07 -2.211273e+08 -2.439150e+08 6.640247e+07 1.184826e+08 2.140920e+08 1.372462e+08 -1.122536e+08 -1.760466e+08 -2.065232e+08 -4.479422e+07 1.532610e+08 -7.005796e+07 -5.743499e+06 4.317810e+07 8.081315e+07 8.199978e+07 -6.768826e+07 -1.332011e+08 -9.047169e+07 -1.002443e+06 1.232437e+08 1.483729e+08 2.561426e+07 -5.826766e+07 -1.192407e+08
<VARIANCE> 42
 1.440264e+17 9.692074e+16 1.541915e+17 3.063255e+17 3.177799e+17 4.887132e+17 5.667129e+17 6.251728e+17 9.802949e+17 7.997987e+17 7.074972e+17 1.583002e+18 1.617089e+18 6.543717e+17 2.968391e+16 1.537029e+16 1.018632e+16 2.114808e+16 6.992832e+16 5.279561e+16 4.086652e+16 9.055242e+16 8.421948e+16 6.752633e+16 7.467187e+16 1.220374e+17 8.359016e+16 8.012042e+16 1.909073e+15 1.368517e+15 8.712397e+14 1.753489e+15 2.824743e+15 4.853522e+15 4.254707e+15 6.189904e+15 6.563883e+15 7.067525e+15 9.025581e+15 1.215756e+16 1.366293e+16 8.361477e+15
<GCONST> 1.689276e+03
<STATE> 9
<NUMMIXES> 7
<MIXTURE> 1 1.172176e-01
<MEAN> 42
 2.364756e+09 6.960167e+08 5.875834e+08 -7.858984e+08 -2.354590e+09 -1.037865e+09 -1.392095e+09 5.457121e+08 1.301566e+09 1.337589e+09 1.556410e+09 1.238970e+08 -6.883820e+08 -1.235053e+09 2.337222e+08 1.369192e+08 1.508469e+08 -7.076520e+07 -2.707796e+08 -2.461785e+08 -2.931552e+08 -1.361162e+07 1.201570e+08 2.399984e+08 2.655107e+08 4.542415e+07 -1.847327e+07 -1.392032e+08 -1.059383e+08 -2.605924e+07 -1.594090e+07 4.927882e+07 1.324754e+08 5.137276e+07 5.917594e+07 -4.256648e+07 -1.006022e+08 -8.745651e+07 -8.471906e+07 1.036472e+07 7.934886e+07 8.904562e+07
<VARIANCE> 42
 1.878334e+17 1.463917e+17 1.224258e+17 2.658246e+17 5.548988e+17 4.238006e+17 4.673765e+17 8.071260e+17 1.223003e+18 7.170486e+17 7.315879e+17 1.464296e+18 1.990154e+18 1.213269e+18 1.577736e+16 8.446474e+15 5.438215e+15 1.082087e+16 2.198796e+16 3.571257e+16 3.033969e+16 4.571770e+16 6.676797e+16 5.348840e+16 4.666016e+16 8.343790e+16 1.159623e+17 7.840414e+16 2.119825e+15 8.591149e+14 7.438251e+14 1.926660e+15 3.987871e+15 3.496209e+15 3.371673e+15 5.548467e+15 5.644976e+15 3.969596e+15 6.486483e+15 9.507014e+15 8.655432e+15 7.403278e+15
<GCONST> 1.682251e+03
<MIXTURE> 2 2.113855e-01
<MEAN> 42
 2.328478e+09 4.260786e+08 -7.053447e+08 -1.944003e+09 -9.963512e+08 1.552875e+09 1.497312e+09 1.137247e+09 -1.164860e+09 -1.298882e+09 -6.743151e+08 9.671448e+08 1.906969e+09 7.190272e+08 1.861076e+07 4.631780e+07 4.960054e+07 -9.747963e+07 -1.303922e+08 -6.725041e+07 1.192882e+08 1.789580e+08 -3.466896e+07 -1.459580e+08 -1.532711e+08 6.113110e+07 1.351352e+08 9.981363e+07 -3.819094e+07 -5.921701e+05 3.950494e+07 6.832903e+07 2.399073e+07 -9.363704e+07 -1.085591e+08 -5.119736e+07 6.806696e+07 1.198949e+08 5.186136e+07 -4.650291e+07 -9.010714e+07 -3.140453e+07
<VARIANCE> 42
 1.123094e+17 4.190448e+16 1.682981e+17 2.127587e+17 3.939896e+17 1.967251e+17 2.997748e+17 3.681337e+17 3.604662e+17 6.582610e+17 5.612902e+17 7.087464e+17 5.080826e+17 7.918473e+17 5.884100e+15 3.454660e+15 7.533190e+15 8.696486e+15 1.387822e+16 2.449445e+16 2.551691e+16 3.371473e+16 2.097810e+16 2.623313e+16 5.006715e+16 4.820104e+16 2.363460e+16 4.750482e+16 1.890021e+15 5.893862e+14 1.778156e+15 3.749476e+15 2.239486e+15 6.775677e+15 6.338358e+15 3.312529e+15 5.736495e+15 9.370773e+15 6.918020e+15 6.515083e+15 6.932299e+15 8.445857e+15
<GCONST> 1.668342e+03
<MIXTURE> 3 1.455015e-01
<MEAN> 42
 2.496816e+09 1.288641e+08 -1.216511e+09 -1.720664e+09 1.803429e+08 2.711727e+09 3.292032e+08 -8.852979e+08 -1.606164e+09 5.227052e+08 2.164768e+09 3.192975e+08 -8.765835e+08 -1.533326e+09 -2.401022e+07 3.998092e+07 1.722378e+08 1.961956e+07 -1.284145e+08 -2.166962e+08 1.946279e+07 2.459906e+08 1.167842e+08 9.364810e+07 -1.292700e+08 -1.006136e+08 1.965717e+07 -3.065836e+07 -5.198588e+07 1.220728e+07 8.160665e+07 5.506498e+07 -6.653479e+07 -1.785874e+08 -2.930489e+07 1.284118e+08 1.516148e+08 -8.248586e+06 -1.658351e+08 -4.504262e+07 5.562782e+07 1.074806e+08
<VARIANCE> 42
 9.559602e+16 5.434839e+16 1.505716e+17 2.105787e+17 2.652323e+17 2.408689e+17 4.297819e+17 5.081959e+17 5.177726e+17 1.003177e+18 5.642680e+17 1.472472e+18 1.051773e+18 1.052257e+18 1.009683e+16 2.551917e+15 1.976751e+16 1.367006e+16 2.543429e+16 6.186719e+16 2.706075e+16 5.461671e+16 8.472019e+16 5.898826e+16 7.886453e+16 7.983535e+16 5.652895e+16 9.976435e+16 2.125355e+15 3.812124e+14 1.654851e+15 2.371290e+15 2.492841e+15 4.565776e+15 4.474460e+15 4.767777e+15 5.076352e+15 9.545477e+15 5.827195e+15 7.099059e+15 7.159371e+15 5.558789e+15
<GCONST> 1.678151e+03
<MIXTURE> 4 1.422765e-01
<MEAN> 42
 1.890564e+09 9.093229e+07 -1.505618e+08 -6.859556e+08 -7.497326e+08 9.912546e+08 2.046424e+08 1.402308e+08 -2.280630e+08 -3.539666e+08 4.208426e+08 4.132751e+08 6.886106e+07 2.480492e+08 6.777033e+06 2.393942e+07 8.648914e+07 -4.528023e+05 -4.739530e+07 -7.165966e+07 -3.795335e+07 1.313165e+08 5.116099e+07 -1.033693e+07 -7.223342e+07 -1.065169e+08 7.701525e+07 1.182475e+08 -1.910232e+07 1.460810e+07 2.652286e+07 2.510418e+07 -7.978047e+06 -5.767253e+07 -1.911732e+07 2.630155e+07 3.554794e+07 4.762479e+07 -1.902077e+07 -2.625547e+07 4.313064e+06 -2.273871e+07
<VARIANCE> 42
 1.035619e+17 1.246078e+17 2.543149e+17 4.273893e+17 4.952144e+17 8.584602e+17 4.581729e+17 4.971278e+17 8.330178e+17 6.702907e+17 5.604663e+17 1.017401e+18 6.804555e+17 9.221222e+17 5.496296e+15 4.047126e+15 5.097603e+15 6.847122e+15 1.090083e+16 2.087223e+16 1.743776e+16 2.982593e+16 2.689711e+16 1.869689e+16 4.798810e+16 3.317606e+16 3.008607e+16 4.915674e+16 5.585409e+14 9.900207e+14 6.561671e+14 2.192855e+15 2.725293e+15 4.865540e+15 3.506457e+15 3.873908e+15 5.771494e+15 5.531624e+15 6.953450e+15 6.053622e+15 4.853954e+15 6.900281e+15
<GCONST> 1.668921e+03
<MIXTURE> 5 1.227074e-01
<MEAN> 42
 2.544624e+09 6.843642e+08 -2.970660e+08 -1.707663e+09 -2.746686e+09 7.127212e+07 9.392568e+08 2.297246e+09 1.536283e+09 -6.444735e+08 -1.504400e+09 -1.870914e+09 -5.460922e+08 1.274506e+09 1.369140e+08 9.711111e+07 5.040744e+07 -1.323193e+08 -2.487799e+08 -1.195192e+08 -3.994186e+07 1.798939e+08 2.594729e+08 1.044723e+08 -4.107980e+07 -2.444294e+08 -1.746083e+08 -2.634727e+07 -1.013167e+08 -2.890373e+07 4.236338e+07 1.175564e+08 1.513099e+08 -2.542079e+07 -1.316865e+08 -1.789244e+08 -1.108249e+08 6.336368e+07 1.685299e+08 1.723261e+08 6.025760e+07 -1.075973e+08
<VARIANCE> 42
 1.759562e+17 1.476496e+17 9.619771e+16 4.358523e+17 3.611397e+17 5.242420e+17 5.053523e+17 6.230776e+17 5.793130e+17 1.326993e+18 1.014365e+18 1.004170e+18 1.271394e+18 1.550741e+18 1.406364e+16 1.164620e+16 7.310667e+15 1.672562e+16 1.997279e+16 4.279200e+16 4.687478e+16 4.835921e+16 3.932518e+16 6.251813e+16 7.203403e+16 8.979297e+16 7.682882e+16 9.732692e+16 2.750233e+15 1.753537e+15 9.973733e+14 3.433274e+15 3.765810e+15 4.716243e+15 7.098094e+15 5.234207e+15 6.717462e+15 1.528469e+16 1.227081e+16 9.177951e+15 1.471107e+16 1.993269e+16
<GCONST> 1.689536e+03
<MIXTURE> 6 1.456478e-01
<MEAN> 42
 1.753127e+09 5.475974e+07 -3.550138e+08 -6.772129e+08 -1.594957e+09 7.718140e+08 9.760603e+08 5.061992e+08 5.088523e+08 -1.020991e+09 -9.100465e+08 2.800527e+08 9.351918e+07 7.655229e+08 6.964376e+07 3.378436e+07 4.186677e+07 -8.260222e+07 -1.297269e+08 -2.987350e+07 -8.062076e+07 1.268675e+08 1.504820e+08 -2.984725e+07 3.413514e+07 -1.041328e+08 -1.318951e+08 9.031244e+07 -2.477312e+07 1.401774e+07 3.317474e+07 2.760777e+07 2.091604e+07 -7.075599e+07 -8.052976e+07 4.526252e+06 1.596178e+07 9.050571e+07 8.228280e+07 -4.582016e+07 -2.975226e+07 -5.655746e+07
<VARIANCE> 42
 7.380017e+16 3.313828e+16 6.402322e+16 1.629361e+17 1.848834e+17 2.269772e+17 2.592317e+17 3.049948e+17 5.194127e+17 4.244686e+17 3.440781e+17 8.109271e+17 6.527464e+17 6.548254e+17 7.481298e+15 2.201860e+15 2.911242e+15 4.743131e+15 6.252572e+15 5.973577e+15 1.113214e+16 1.596135e+16 1.338595e+16 1.971189e+16 1.554084e+16 3.094035e+16 2.817482e+16 5.182690e+16 5.956165e+14 3.985247e+14 2.416294e+14 9.657653e+14 1.370371e+15 1.090007e+15 1.683658e+15 2.691931e+15 3.088637e+15 2.548359e+15 6.551436e+15 7.844989e+15 6.452188e+15 5.634909e+15
<GCONST> 1.646485e+03
<MIXTURE> 7 1.152631e-01
<MEAN> 42
 3.056366e+09 5.200615e+08 -1.670145e+09 -2.853651e+09 -1.004473e+08 3.236837e+09 1.541328e+09 -6.890260e+08 -3.241342e+09 -4.289191e+08 2.319657e+09 2.539570e+09 9.602846e+07 -3.102879e+09 6.620680e+07 7.550038e+07 1.068958e+08 -7.049226e+07 -1.633640e+08 -2.337986e+08 -4.821376e+07 6.244314e+07 8.863303e+07 2.763568e+08 4.304926e+07 5.176888e+07 -2.898824e+08 -1.944547e+08 -1.214749e+08 -9.463348e+06 1.541701e+08 1.780707e+08 -5.393226e+07 -3.026486e+08 -1.755307e+08 1.114062e+08 3.342876e+08 1.374030e+08 -1.675004e+08 -2.438697e+08 -5.624024e+07 2.231596e+08
<VARIANCE> 42
 8.201001e+16 4.459216e+16 1.937422e+17 1.661819e+17 2.493762e+17 4.222434e+17 3.348784e+17 4.994668e+17 3.106700e+17 8.639720e+17 6.577114e+17 5.853222e+17 1.263561e+18 4.311352e+17 2.561689e+16 1.024062e+16 3.616812e+16 4.249126e+16 3.797251e+16 1.510072e+17 6.936316e+16 6.061293e+16 1.939569e+17 6.864462e+16 7.514710e+16 1.481492e+17 7.691070e+16 1.017320e+17 2.858663e+15 7.795207e+14 1.654630e+15 2.785344e+15 3.954931e+15 6.187096e+15 5.212611e+15 8.423492e+15 6.893176e+15 9.954834e+15 9.919431e+15 9.911623e+15 1.162042e+16 7.640647e+15
<GCONST> 1.688861e+03
<STATE> 10
<NUMMIXES> 7
<MIXTURE> 1 1.399354e-01
<MEAN> 42
 2.452203e+09 8.170164e+08 6.254128e+08 -8.974798e+08 -2.210973e+09 -1.184129e+09 -1.354005e+09 4.122731e+08 9.783245e+08 1.596515e+09 1.452140e+09 4.441680e+08 -7.207208e+08 -1.289422e+09 5.512552e+07 1.095332e+08 1.514737e+08 1.972526e+07 -1.545503e+08 -2.821676e+08 -2.067640e+08 3.278832e+07 1.794131e+08 1.800018e+08 5.042958e+07 -7.779300e+07 -4.177285e+07 3.135023e+07 -8.655502e+07 -4.000582e+07 -3.348600e+07 4.139272e+07 1.312317e+08 1.169050e+08 1.108537e+08 -4.430598e+06 -9.372633e+07 -1.357288e+08 -1.122419e+08 -2.497043e+07 7.430026e+07 1.146637e+08
<VARIANCE> 42
 1.589038e+17 1.432343e+17 1.551529e+17 5.131032e+17 5.292427e+17 5.278145e+17 5.727472e+17 8.760425e+17 1.325795e+18 1.073343e+18 8.284360e+17 1.433833e+18 2.200604e+18 1.613207e+18 1.123819e+16 9.788109e+15 1.084947e+16 1.579229e+16 3.217374e+16 9.937450e+16 3.424769e+16 8.025414e+16 1.830602e+17 5.826742e+16 1.074835e+17 1.553334e+17 1.168383e+17 8.869818e+16 3.309480e+15 1.250644e+15 1.374457e+15 2.402844e+15 6.771014e+15 1.166931e+16 5.872424e+15 5.000923e+15 1.381625e+16 8.776229e+15 9.319799e+15 1.318226e+16 1.559882e+16 1.079933e+16
<GCONST> 1.697219e+03
<MIXTURE> 2 1.096298e-01
<MEAN> 42
 2.447405e+09 2.953270e+08 -9.628210e+08 -2.175182e+09 -4.751362e+08 2.296441e+09 1.304180e+09 -7.367781e+06 -2.393246e+09 -7.905404e+08 1.321126e+09 2.132549e+09 8.524193e+08 -1.975908e+09 -7.963955e+07 3.827586e+07 2.591910e+08 1.666786e+08 -1.116937e+08 -4.893313e+08 -2.867601e+08 1.082003e+08 3.035511e+08 3.745249e+08 -9.180293e+07 -8.140688e+07 -9.231440e+07 8.186653e+07 -3.832804e+07 1.255001e+07 8.476574e+07 1.062788e+08 -2.664630e+07 -1.769233e+08 -1.466073e+08 2.912767e+07 1.949052e+08 1.432742e+08 -2.111784e+07 -1.161111e+08 -5.619357e+07 8.689311e+07
<VARIANCE> 42
 7.549939e+16 5.087817e+16 8.983756e+16 1.365005e+17 9.003195e+16 2.047268e+17 2.208686e+17 2.265737e+17 2.841010e+17 2.585480e+17 4.306920e+17 3.844208e+17 4.539748e+17 6.467198e+17 3.908392e+15 3.107514e+15 1.180700e+16 1.342812e+16 9.262353e+15 6.247943e+16 3.302662e+16 2.362342e+16 4.905402e+16 3.560220e+16 4.296631e+16 2.347470e+16 5.549724e+16 5.054983e+16 1.428875e+15 7.018766e+14 1.219925e+15 2.624335e+15 2.167896e+15 3.134562e+15 3.413361e+15 2.023912e+15 3.876625e+15 3.204320e+15 3.586119e+15 3.826526e+15 4.314808e+15 4.992584e+15
<GCONST> 1.658069e+03
<MIXTURE> 3 1.738290e-01
<MEAN> 42
 1.750805e+09 9.217198e+07 4.091155e+07 -5.536906e+08 -1.600854e+09 3.317363e+08 2.801444e+08 7.443903e+08 9.105529e+08 -4.465370e+08 -5.562309e+08 -3.673743e+08 -4.449801e+08 8.071581e+08 3.034436e+07 3.054936e+07 7.655016e+07 2.220157e+07 -4.281528e+07 -6.413780e+07 -1.848723e+08 -1.450792e+07 5.186808e+07 6.932927e+07 2.087126e+08 3.368668e+06 -3.738593e+07 -4.127943e+07 -1.831116e+07 1.616114e+07 2.525490e+07 2.585547e+07 2.513275e+07 -5.128815e+07 -6.399350e+07 -3.777893e+07 -1.982948e+07 6.911868e+07 9.047933e+07 4.012488e+07 2.210353e+07 -7.579491e+07
<VARIANCE> 42
 8.572470e+16 5.473979e+16 1.003632e+17 2.123342e+17 4.214314e+17 1.274840e+17 4.252072e+17 4.573289e+17 4.566822e+17 3.910838e+17 6.850622e+17 4.034570e+17 4.241463e+17 5.930270e+17 5.720908e+15 3.902965e+15 3.634892e+15 1.124777e+16 1.173317e+16 1.121870e+16 1.824506e+16 2.335333e+16 1.945393e+16 1.788880e+16 3.809349e+16 4.159319e+16 3.078196e+16 2.894965e+16 8.660446e+14 5.754388e+14 6.582845e+14 1.049006e+15 2.381169e+15 2.189852e+15 4.018037e+15 2.987642e+15 4.292694e+15 4.410064e+15 7.800974e+15 4.892019e+15 5.079882e+15 5.430835e+15
<GCONST> 1.657102e+03
<MIXTURE> 4 1.226685e-01
<MEAN> 42
 2.622839e+09 7.882310e+08 -1.130270e+08 -1.755232e+09 -2.922257e+09 -2.524173e+08 6.017748e+08 2.280353e+09 1.938032e+09 -1.153555e+08 -1.121825e+09 -2.066090e+09 -1.147715e+09 6.415991e+08 3.105987e+07 5.164822e+07 1.017027e+08 8.126782e+06 -5.890392e+07 -1.316762e+08 -1.895902e+08 -3.866296e+07 7.237134e+07 1.545774e+08 1.595975e+08 -8.477508e+05 -4.097530e+07 -1.378879e+08 -1.042722e+08 -3.827658e+07 3.745104e+07 1.296782e+08 1.706766e+08 6.612931e+05 -1.099243e+08 -1.896028e+08 -1.645634e+08 1.980544e+07 1.375336e+08 1.937906e+08 1.214053e+08 -5.265637e+07
<VARIANCE> 42
 1.313952e+17 1.502330e+17 1.190395e+17 3.523589e+17 4.523473e+17 5.069620e+17 6.649639e+17 6.159531e+17 7.724662e+17 1.399724e+18 1.289609e+18 1.081297e+18 1.738233e+18 2.338636e+18 5.808512e+15 8.207436e+15 7.893782e+15 1.201714e+16 1.299831e+16 3.734484e+16 5.963405e+16 3.563526e+16 3.403419e+16 6.796329e+16 1.087312e+17 6.946854e+16 6.616762e+16 1.192134e+17 2.276712e+15 1.460365e+15 1.002757e+15 3.652726e+15 5.187696e+15 6.284119e+15 7.913947e+15 6.608793e+15 8.699180e+15 1.741331e+16 1.379513e+16 1.088268e+16 1.924470e+16 2.389894e+16
<GCONST> 1.690896e+03
<MIXTURE> 5 1.595504e-01
<MEAN> 42
 1.802165e+09 6.773325e+07 -2.929199e+08 -9.939159e+08 -1.221981e+09 1.105677e+09 7.830751e+08 7.238810e+08 -1.824199e+08 -1.149607e+09 -2.624157e+08 3.963838e+08 5.726119e+08 6.041276e+08 -3.089844e+07 2.376882e+07 1.142690e+08 1.766806e+07 -6.189198e+07 -1.810215e+08 -1.599876e+08 1.665918e+08 1.618479e+08 1.388636e+08 -2.130435e+06 -2.678806e+08 -6.222077e+07 5.524845e+06 -1.186443e+07 5.581040e+06 1.995813e+07 3.510436e+07 3.086700e+06 -5.553498e+07 -5.502889e+07 -2.603355e+07 3.742767e+07 7.939597e+07 3.233099e+07 -3.386639e+07 -4.971198e+07 -5.668487e+07
<VARIANCE> 42
 4.229939e+16 4.478974e+16 5.585919e+16 1.393807e+17 1.932046e+17 1.245437e+17 1.930954e+17 2.503095e+17 3.671117e+17 2.699264e+17 5.873212e+17 4.391672e+17 6.340259e+17 5.645350e+17 3.499678e+15 2.316698e+15 4.243745e+15 8.306251e+15 1.074652e+16 1.105701e+16 1.489788e+16 2.171604e+16 2.330181e+16 1.757434e+16 4.355835e+16 3.881208e+16 4.200520e+16 5.383094e+16 2.053962e+14 3.823465e+14 3.885885e+14 1.154454e+15 8.164798e+14 8.773368e+14 2.494650e+15 1.699433e+15 2.708996e+15 2.047628e+15 4.167181e+15 2.832478e+15 5.093195e+15 5.054572e+15
<GCONST> 1.644531e+03
<MIXTURE> 6 1.587074e-01
<MEAN> 42
 2.400372e+09 3.369796e+08 -2.226711e+08 -1.316035e+09 -4.070684e+08 1.084762e+09 1.427650e+08 5.404404e+08 -1.322066e+08 1.137025e+09 7.968181e+08 -5.695818e+08 -9.413261e+08 -6.605814e+08 -7.189721e+07 9.747221e+07 2.655106e+08 4.416731e+07 -3.447902e+08 -5.747089e+08 -2.453389e+07 5.226739e+08 4.584959e+08 5.740185e+07 -4.692037e+08 -2.661845e+08 -1.108446e+07 1.518698e+08 -1.581076e+07 1.347415e+07 -2.264773e+07 -1.793367e+07 -2.805804e+07 -1.497755e+07 2.146863e+07 2.768572e+06 7.442689e+06 -5.116434e+07 -4.968881e+07 1.761157e+07 1.795550e+07 2.089580e+07
<VARIANCE> 42
 9.768992e+16 1.146788e+17 1.111457e+17 2.052738e+17 5.224934e+17 7.300833e+17 1.464051e+17 7.275695e+17 5.905230e+17 4.072660e+17 6.868879e+17 1.264541e+18 5.956762e+17 1.330996e+18 5.140681e+15 2.940942e+15 1.408678e+16 1.314068e+16 2.002328e+16 6.700349e+16 3.793347e+16 3.840765e+16 9.058966e+16 7.350685e+16 6.998110e+16 7.007323e+16 8.357932e+16 8.224125e+16 1.224042e+15 1.023417e+15 2.397882e+15 2.995705e+15 4.718278e+15 8.124088e+15 5.146457e+15 7.890729e+15 7.765738e+15 7.357722e+15 6.650726e+15 7.000918e+15 6.552115e+15 8.509420e+15
<GCONST> 1.681269e+03
<MIXTURE> 7 1.356796e-01
<MEAN> 42
 2.298966e+09 5.317714e+08 -6.841558e+08 -2.199824e+09 -1.217613e+09 1.487145e+09 1.733723e+09 1.326016e+09 -1.419210e+09 -1.667946e+09 -7.865947e+08 1.298685e+09 2.126650e+09 6.356083e+08 -5.343516e+07 2.402862e+07 1.372216e+08 6.061820e+07 -4.609449e+07 -2.469641e+08 -1.342815e+08 4.966804e+07 1.386348e+08 1.449167e+08 -6.963428e+07 -6.038944e+07 -6.661549e+07 8.753955e+07 -3.935309e+07 -1.117394e+07 5.721544e+07 1.086280e+08 5.072262e+07 -9.605978e+07 -1.482447e+08 -9.465922e+07 8.153589e+07 1.583099e+08 9.781959e+07 -3.174941e+07 -1.197888e+08 -4.350284e+07
<VARIANCE> 42
 7.276449e+16 5.137785e+16 7.636009e+16 1.596692e+17 2.286816e+17 1.986974e+17 2.076124e+17 3.157446e+17 4.782630e+17 3.472897e+17 6.011580e+17 6.680145e+17 4.580732e+17 1.168258e+18 2.774051e+15 2.532372e+15 4.621225e+15 7.578895e+15 9.231540e+15 1.472584e+16 2.076031e+16 3.478365e+16 1.950259e+16 1.799164e+16 4.921963e+16 5.845964e+16 2.908885e+16 5.163587e+16 8.543743e+14 4.682521e+14 7.922875e+14 1.507347e+15 2.120120e+15 3.345228e+15 3.462707e+15 3.415475e+15 3.172067e+15 4.518471e+15 3.796744e+15 4.964104e+15 3.704472e+15 6.244243e+15
<GCONST> 1.655954e+03
<STATE> 11
<NUMMIXES> 7
<MIXTURE> 1 1.420501e-01
<MEAN> 42
 2.552904e+09 1.022708e+09 6.349260e+08 -1.096515e+09 -2.485258e+09 -1.281479e+09 -1.169698e+09 6.949644e+08 1.169872e+09 1.264417e+09 9.471352e+08 2.930352e+07 -5.061618e+08 -7.606993e+08 -5.840431e+07 3.075466e+07 9.918502e+07 1.154288e+08 8.946402e+07 -4.542855e+07 -4.740988e+07 -7.167602e+07 -4.966149e+07 -6.040312e+07 -5.792656e+07 2.145065e+07 1.254501e+08 2.018179e+08 -8.380282e+07 -5.590660e+07 -2.216925e+07 7.703017e+07 1.653147e+08 1.321328e+08 7.412510e+07 -4.495526e+07 -1.188866e+08 -1.137572e+08 -5.621309e+07 1.908729e+07 5.844646e+07 7.052765e+07
<VARIANCE> 42
 1.589134e+17 2.645054e+17 2.656743e+17 9.536729e+17 6.386383e+17 8.187162e+17 1.635762e+18 1.837172e+18 2.114441e+18 2.167614e+18 2.525872e+18 2.382213e+18 3.247165e+18 2.872660e+18 6.271223e+15 8.927773e+15 9.400559e+15 1.285336e+16 1.973367e+16 5.759988e+16 5.956118e+16 6.919327e+16 7.793441e+16 4.046625e+16 9.078088e+16 1.025804e+17 5.432348e+16 8.871543e+16 1.662947e+15 1.730622e+15 2.047944e+15 4.876200e+15 7.648188e+15 1.720934e+16 1.497608e+16 1.438708e+16 2.125790e+16 1.806238e+16 2.239031e+16 2.469184e+16 2.932363e+16 2.203718e+16
<GCONST> 1.708191e+03
<MIXTURE> 2 1.239641e-01
<MEAN> 42
 2.040337e+09 5.194011e+08 -2.753884e+08 -1.847414e+09 -1.262665e+09 8.155415e+08 1.370411e+09 1.612802e+09 -7.091283e+08 -1.183141e+09 -1.325217e+09 5.562266e+08 1.705844e+09 1.317666e+09 -9.147429e+07 1.902690e+07 2.118688e+08 2.380276e+08 7.661838e+07 -3.175580e+08 -3.491685e+08 -1.591834e+08 1.529425e+08 3.472772e+08 1.600527e+08 1.846517e+07 -1.777385e+08 -4.229038e+07 -1.108406e+07 -7.159061e+06 2.707980e+07 7.486386e+07 4.764823e+07 -4.239717e+07 -1.144336e+08 -1.149984e+08 8.311592e+06 9.318628e+07 1.260752e+08 3.684782e+07 -6.033965e+07 -6.647566e+07
<VARIANCE> 42
 5.471517e+16 3.612592e+16 6.755762e+16 1.603879e+17 1.963532e+17 1.080402e+17 1.357482e+17 2.506356e+17 3.301202e+17 2.067826e+17 3.359905e+17 7.088619e+17 3.323470e+17 3.603010e+17 2.340591e+15 2.662853e+15 6.492596e+15 1.046321e+16 8.377013e+15 2.469954e+16 4.071859e+16 3.537187e+16 2.262118e+16 2.249921e+16 4.944381e+16 4.725073e+16 2.266469e+16 4.114806e+16 2.243762e+14 5.631244e+14 5.927284e+14 1.376841e+15 1.764717e+15 2.528595e+15 2.413636e+15 3.003607e+15 3.386915e+15 2.573423e+15 2.575367e+15 4.863884e+15 2.467826e+15 4.624441e+15
<GCONST> 1.648114e+03
<MIXTURE> 3 1.704383e-01
<MEAN> 42
 1.826332e+09 1.496058e+08 6.398008e+07 -5.994673e+08 -1.806219e+09 3.121321e+08 1.140618e+08 7.817198e+08 1.032707e+09 -3.670782e+08 -1.760725e+08 -3.294739e+08 -4.277939e+08 5.117884e+08 -2.849036e+06 4.935427e+07 1.528699e+08 9.004072e+07 -1.608986e+07 -2.153404e+08 -3.819153e+08 -1.193030e+08 7.139618e+07 2.917204e+08 4.493252e+08 8.904933e+07 -6.068035e+07 -2.655180e+08 -7.513460e+06 1.881708e+07 1.593607e+07 8.717422e+06 1.687625e+07 -4.595726e+07 -4.223053e+07 -2.429374e+07 -2.847492e+07 5.808954e+07 5.340090e+07 3.092247e+07 2.511638e+07 -6.436499e+07
<VARIANCE> 42
 8.950858e+16 4.947470e+16 6.404931e+16 2.159387e+17 3.533062e+17 1.843459e+17 3.143620e+17 4.318853e+17 3.784322e+17 4.951092e+17 5.741922e+17 7.342278e+17 6.271032e+17 8.647519e+17 5.730354e+15 2.876983e+15 2.654291e+15 8.586529e+15 1.320675e+16 9.304282e+15 1.631925e+16 2.512194e+16 3.419222e+16 2.568445e+16 3.770761e+16 5.845310e+16 6.287135e+16 4.563309e+16 8.631718e+14 3.809429e+14 3.678153e+14 1.036453e+15 2.529066e+15 1.733199e+15 1.966849e+15 4.264096e+15 3.630577e+15 3.062491e+15 4.733967e+15 9.595957e+15 5.183556e+15 6.059224e+15
<GCONST> 1.657342e+03
<MIXTURE> 4 1.027041e-01
<MEAN> 42
 1.689765e+09 2.199698e+08 1.107618e+08 -7.687990e+08 -7.737251e+08 3.134708e+08 1.267914e+08 5.274500e+08 1.421448e+08 2.808577e+08 2.070955e+08 7.835942e+07 -1.353872e+08 -3.225550e+08 -3.799302e+07 6.760018e+07 1.313043e+08 5.208274e+07 -1.220141e+08 -2.533989e+08 -6.985413e+07 1.749952e+08 2.272742e+08 9.501834e+07 -9.897512e+07 -1.422212e+08 -8.630532e+07 3.603318e+07 -5.845674e+05 2.033600e+05 -1.159850e+07 -3.910403e+06 1.135497e+07 4.556012e+06 -9.430697e+06 -2.355817e+07 -1.663838e+07 1.308045e+07 -5.200276e+06 3.162203e+06 -7.371100e+06 6.644971e+06
<VARIANCE> 42
 6.647510e+16 8.943512e+16 1.673843e+17 4.333424e+17 1.945567e+17 3.259616e+17 3.069475e+17 2.620855e+17 5.513077e+17 3.947981e+17 4.541106e+17 6.773862e+17 4.005060e+17 6.557296e+17 3.358967e+15 3.161257e+15 6.134470e+15 7.944977e+15 1.400092e+16 4.913283e+16 9.865838e+15 2.640893e+16 4.339447e+16 2.485338e+16 4.864364e+16 3.057392e+16 2.793843e+16 4.814400e+16 4.259229e+14 3.724566e+14 4.906320e+14 8.996527e+14 7.611830e+14 1.655286e+15 1.384108e+15 2.422639e+15 2.311729e+15 1.753349e+15 2.868653e+15 3.286858e+15 3.311650e+15 2.074120e+15
<GCONST> 1.651650e+03
<MIXTURE> 5 2.037643e-01
<MEAN> 42
 2.284293e+09 6.722103e+08 5.229910e+07 -1.484546e+09 -2.363321e+09 -4.092931e+08 2.513085e+08 1.960523e+09 1.721363e+09 4.817592e+08 -7.117345e+08 -1.699969e+09 -1.492682e+09 -4.416493e+07 -5.308431e+07 3.157055e+07 1.235843e+08 4.183086e+07 -3.131120e+07 -1.824999e+08 -1.263942e+08 6.307214e+07 5.887296e+07 5.982523e+07 -3.580656e+07 -5.112692e+07 5.175238e+07 4.282474e+07 -3.900143e+07 -3.210706e+07 3.061145e+06 7.751573e+07 1.389118e+08 8.405674e+07 -3.041675e+07 -1.561936e+08 -1.704670e+08 -3.568022e+07 9.692712e+07 1.557337e+08 1.432541e+08 2.582753e+05
<VARIANCE> 42
 8.406512e+16 8.867229e+16 5.791790e+16 2.013853e+17 3.432337e+17 3.165745e+17 3.342627e+17 2.949852e+17 5.538630e+17 7.508882e+17 9.166606e+17 3.901213e+17 8.028573e+17 1.165949e+18 4.896080e+15 4.846295e+15 8.727032e+15 2.149860e+16 3.953101e+16 3.569234e+16 6.115143e+16 7.058222e+16 6.042095e+16 5.331719e+16 1.713704e+17 8.157181e+16 5.629302e+16 1.082239e+17 1.145052e+15 6.482746e+14 1.273682e+15 2.675025e+15 3.846573e+15 8.843891e+15 4.961953e+15 5.255031e+15 5.589818e+15 5.335465e+15 9.067212e+15 8.353954e+15 1.150653e+16 9.068814e+15
<GCONST> 1.679117e+03
<MIXTURE> 6 1.295033e-01
<MEAN> 42
 1.969483e+09 1.875146e+08 -4.637686e+06 -1.225223e+09 -1.178169e+09 5.148956e+08 4.253767e+08 1.573881e+09 2.728515e+08 -2.832571e+08 -7.411062e+08 -1.032720e+09 1.259447e+08 7.824703e+08 -1.429959e+07 6.813052e+07 7.452482e+07 -8.606745e+07 -2.116410e+08 -2.724947e+08 3.253739e+07 2.884141e+08 1.982390e+08 3.331898e+07 -3.081171e+08 -2.509802e+08 -2.297024e+07 5.988276e+07 -7.323148e+06 7.767792e+06 -1.552225e+07 7.294753e+06 2.779524e+07 2.924233e+07 -2.153256e+06 -6.987620e+07 -2.956235e+07 2.466143e+07 5.629656e+07 6.296263e+07 -2.125414e+07 -4.617921e+07
<VARIANCE> 42
 1.084035e+17 6.346566e+16 4.073298e+16 1.481038e+17 2.338455e+17 1.983047e+17 1.526027e+17 2.335751e+17 2.642418e+17 5.840518e+17 4.917311e+17 2.511093e+17 6.256761e+17 6.205837e+17 3.627591e+15 2.482663e+15 3.182670e+15 7.319479e+15 1.692028e+16 1.233787e+16 1.541938e+16 3.698578e+16 2.214484e+16 3.104583e+16 3.014510e+16 3.956701e+16 6.478509e+16 3.577933e+16 4.240814e+14 4.198031e+14 7.332883e+14 1.256918e+15 2.267660e+15 2.102427e+15 1.489879e+15 2.603091e+15 1.730859e+15 2.024707e+15 2.864088e+15 3.128383e+15 2.119769e+15 3.627909e+15
<GCONST> 1.648122e+03
<MIXTURE> 7 1.275761e-01
<MEAN> 42
 2.129987e+09 2.734381e+08 -2.039068e+08 -1.470445e+09 -6.453206e+08 1.168717e+09 4.108308e+08 2.974972e+08 -1.385106e+09 8.919835e+07 1.089199e+09 1.591456e+09 7.609706e+08 -1.324333e+09 -9.185844e+07 6.897898e+07 3.003609e+08 2.375867e+08 -1.387175e+08 -5.942911e+08 -4.140712e+08 1.020698e+08 4.243110e+08 4.352522e+08 -3.236920e+07 -1.463622e+08 -6.841169e+07 1.195947e+08 -1.011241e+07 1.746129e+07 7.981892e+06 2.876004e+07 -1.629457e+07 -6.805930e+07 -5.455342e+07 -1.823644e+07 8.054653e+07 4.009682e+07 2.236376e+06 -3.901408e+07 -4.826107e+07 2.821298e+07
<VARIANCE> 42
 6.326364e+16 8.078388e+16 1.181310e+17 2.063505e+17 1.600542e+17 3.452911e+17 3.205851e+17 1.985000e+17 3.188014e+17 4.393867e+17 4.158585e+17 4.354222e+17 3.982161e+17 5.364622e+17 2.475155e+15 3.383170e+15 7.536179e+15 9.415309e+15 1.423544e+16 4.420529e+16 2.153517e+16 1.961138e+16 3.841421e+16 3.413487e+16 3.697586e+16 2.255462e+16 5.258635e+16 4.480961e+16 6.564253e+14 4.293160e+14 1.110856e+15 1.557349e+15 1.531292e+15 3.357181e+15 4.254940e+15 3.457357e+15 2.778964e+15 3.255250e+15 3.021234e+15 3.855443e+15 3.305564e+15 3.285760e+15
<GCONST> 1.655867e+03
<STATE> 12
<NUMMIXES> 7
<MIXTURE> 1 1.609495e-01
<MEAN> 42
 2.407792e+09 8.259912e+08 -6.789865e+07 -2.110252e+09 -2.228838e+09 -2.127344e+08 1.118986e+09 2.680192e+09 9.778857e+08 -1.013763e+08 -2.213996e+09 -1.818157e+09 -3.918823e+08 1.219228e+09 -1.280366e+08 -2.223692e+07 1.385705e+08 2.176120e+08 2.159363e+08 6.701970e+06 -1.017042e+08 -1.963216e+08 -1.608376e+08 -6.026760e+07 5.706222e+07 2.103002e+08 1.874374e+08 7.531399e+07 -3.739110e+07 -2.960623e+07 2.836687e+07 1.289331e+08 1.492964e+08 5.225229e+07 -1.111375e+08 -1.971136e+08 -1.114848e+08 4.725666e+07 2.115492e+08 1.604023e+08 3.832292e+07 -1.126785e+08
<VARIANCE> 42
 9.060360e+16 1.455549e+17 8.504569e+16 2.832315e+17 2.976763e+17 3.333434e+17 3.230078e+17 2.531730e+17 6.649787e+17 5.737568e+17 5.248033e+17 5.882507e+17 1.179554e+18 8.275060e+17 8.156121e+15 1.050110e+16 1.014884e+16 3.634608e+16 5.371113e+16 4.946830e+16 6.989558e+16 5.902729e+16 4.877794e+16 5.267101e+16 7.472722e+16 4.205928e+16 9.218101e+16 7.368192e+16 8.265289e+14 1.010709e+15 1.137325e+15 2.321664e+15 3.222628e+15 5.651766e+15 3.454697e+15 4.557618e+15 6.799763e+15 5.883014e+15 5.888453e+15 7.937141e+15 1.151316e+16 1.155044e+16
<GCONST> 1.679668e+03
<MIXTURE> 2 1.496347e-01
<MEAN> 42
 2.109586e+09 6.921271e+08 7.799019e+08 -4.620067e+08 -1.290704e+09 -7.563306e+08 -1.261047e+09 -2.081604e+08 -3.443021e+08 4.470422e+08 8.714696e+08 1.286647e+09 1.193617e+09 6.018723e+08 -4.860349e+07 5.937501e+07 1.490633e+08 1.685548e+08 7.218730e+07 -2.208501e+08 -3.244327e+08 -2.315045e+08 -4.121946e+07 1.768785e+08 2.305497e+08 1.761905e+08 3.257285e+07 7.807071e+06 -1.125681e+07 3.921060e+06 -2.991084e+07 -2.456375e+07 3.581810e+06 2.046717e+07 5.538474e+07 3.916218e+07 1.772410e+07 -1.774366e+07 -3.719232e+07 -3.966094e+07 -4.554595e+07 -1.771766e+07
<VARIANCE> 42
 7.174638e+16 1.191026e+17 1.051719e+17 3.523191e+17 3.119744e+17 4.592776e+17 5.723072e+17 3.785352e+17 7.581572e+17 8.516983e+17 5.428465e+17 7.958300e+17 8.657795e+17 1.092403e+18 5.445959e+15 4.799861e+15 9.736245e+15 2.041492e+16 1.121074e+16 4.354056e+16 6.714485e+16 5.204690e+16 3.651866e+16 6.065375e+16 9.563769e+16 5.264404e+16 4.623593e+16 8.501713e+16 8.257257e+14 9.613356e+14 7.224211e+14 1.194253e+15 1.897165e+15 3.438788e+15 6.004524e+15 3.405930e+15 2.855734e+15 4.182044e+15 5.759374e+15 4.005631e+15 6.430790e+15 7.162430e+15
<GCONST> 1.673038e+03
<MIXTURE> 3 1.656075e-01
<MEAN> 42
 1.716228e+09 2.282619e+08 2.874537e+08 -5.278942e+08 -1.639283e+09 -9.920059e+07 -4.041397e+08 7.787830e+08 1.104930e+09 2.359168e+08 3.347182e+08 -4.721669e+08 -6.952431e+08 -8.639938e+07 -2.917910e+07 4.206908e+07 1.446712e+08 1.113056e+08 3.102957e+07 -1.951393e+08 -3.352925e+08 -1.260136e+08 -1.833424e+07 2.242739e+08 3.358360e+08 9.043210e+07 5.709457e+07 -1.776926e+08 -7.499455e+06 1.232902e+06 -4.824338e+06 1.104687e+07 3.360009e+07 1.848712e+07 8.043486e+06 -5.151220e+07 -7.433340e+07 -2.452681e+07 -5.932810e+06 6.102002e+07 7.238500e+07 1.614358e+07
<VARIANCE> 42
 8.162986e+16 6.320598e+16 4.924169e+16 1.944303e+17 3.132438e+17 1.978214e+17 2.073388e+17 2.994859e+17 3.310323e+17 4.391091e+17 5.228857e+17 5.011029e+17 4.482398e+17 7.894891e+17 7.227789e+15 5.135038e+15 4.282132e+15 1.378274e+16 2.595562e+16 2.468533e+16 2.306228e+16 3.184031e+16 5.972097e+16 4.103347e+16 5.235739e+16 5.145611e+16 9.410853e+16 5.073810e+16 4.976684e+14 4.079378e+14 3.942393e+14 9.762104e+14 1.639639e+15 1.892144e+15 1.706266e+15 4.188903e+15 3.053944e+15 2.542933e+15 4.958981e+15 9.148114e+15 3.981441e+15 6.878095e+15
<GCONST> 1.659397e+03
<MIXTURE> 4 1.224257e-01
<MEAN> 42
 2.097734e+09 5.727332e+08 5.203167e+08 -9.643313e+08 -1.109502e+09 -6.656835e+08 -7.999172e+08 3.559641e+08 -8.317646e+07 1.496502e+09 1.276765e+09 1.368792e+09 1.289207e+08 -1.221909e+09 -8.672011e+07 1.247955e+08 2.799391e+08 2.164257e+08 -2.056121e+08 -6.779827e+08 -4.479635e+08 5.685975e+07 5.244550e+08 4.689753e+08 -4.502070e+06 -1.843786e+08 -2.092342e+08 1.336977e+08 1.494786e+06 -5.001906e+06 -6.668007e+07 -3.980694e+07 4.001828e+07 1.270905e+08 1.038131e+08 -2.002047e+07 -7.906886e+07 -1.114375e+08 -2.264936e+07 2.406041e+06 9.165562e+06 7.091356e+06
<VARIANCE> 42
 5.240249e+16 1.149803e+17 6.675363e+16 1.813042e+17 1.701369e+17 4.495234e+17 2.495034e+17 1.904927e+17 3.041445e+17 3.302894e+17 2.133688e+17 3.942714e+17 6.120097e+17 3.842070e+17 2.308680e+15 3.005594e+15 6.566676e+15 8.722511e+15 1.131501e+16 2.258159e+16 2.291462e+16 2.755137e+16 3.432200e+16 3.546129e+16 2.883764e+16 3.830293e+16 3.733077e+16 4.349245e+16 5.388084e+14 1.107362e+15 1.242485e+15 1.907403e+15 3.547386e+15 9.215432e+15 5.535044e+15 3.716606e+15 5.810685e+15 4.997005e+15 5.116747e+15 4.308425e+15 4.646161e+15 4.086311e+15
<GCONST> 1.658906e+03
<MIXTURE> 5 1.185352e-01
<MEAN> 42
 2.337479e+09 9.429315e+08 6.831056e+08 -8.691002e+08 -2.543777e+09 -1.266832e+09 -1.372150e+09 6.653306e+08 1.658538e+09 1.467987e+09 1.536290e+09 -1.194111e+08 -9.368858e+08 -1.250554e+09 -1.285073e+08 -3.281936e+07 1.019963e+08 1.914854e+08 2.673828e+08 7.311193e+07 -5.111506e+07 -1.314080e+08 -2.129969e+08 -9.141403e+07 7.966576e+06 6.021542e+07 2.021591e+08 8.088785e+07 -5.680138e+07 -5.262252e+07 -2.093517e+07 6.763244e+07 1.523748e+08 1.370476e+08 8.221456e+07 -3.874857e+07 -1.397165e+08 -1.382964e+08 -1.038558e+08 2.823216e+06 7.734618e+07 9.937234e+07
<VARIANCE> 42
 8.811907e+16 2.143882e+17 1.369676e+17 3.415301e+17 2.498884e+17 5.511191e+17 7.225899e+17 8.515386e+17 1.139599e+18 9.260734e+17 7.846939e+17 1.644568e+18 2.280705e+18 1.281123e+18 6.960323e+15 7.530508e+15 9.053926e+15 1.840110e+16 3.153237e+16 6.012691e+16 7.946792e+16 4.472738e+16 5.873586e+16 7.410723e+16 1.161108e+17 8.892261e+16 6.918356e+16 1.397006e+17 5.939685e+14 9.765265e+14 1.630294e+15 1.734138e+15 3.263093e+15 8.199519e+15 5.873525e+15 7.465612e+15 1.010033e+16 5.994960e+15 9.655449e+15 1.435268e+16 1.783254e+16 1.304336e+16
<GCONST> 1.690051e+03
<MIXTURE> 6 1.413914e-01
<MEAN> 42
 1.838787e+09 4.277384e+08 1.278535e+08 -1.174458e+09 -1.776462e+09 -3.218699e+08 2.306196e+08 1.523690e+09 1.306858e+09 3.019929e+08 -5.575859e+08 -1.273340e+09 -9.988972e+08 1.233251e+07 -1.654414e+07 5.415051e+07 4.919421e+07 -2.109803e+07 -6.373920e+07 -1.769079e+08 -8.254085e+07 3.690654e+07 9.599894e+07 1.523381e+08 5.394562e+06 -5.305941e+07 -1.071010e+08 -1.007092e+08 -1.286797e+07 -1.373247e+07 -3.659212e+06 3.110708e+07 5.926362e+07 4.423402e+07 -1.450409e+07 -7.678283e+07 -8.739205e+07 -1.093395e+07 6.172222e+07 1.039382e+08 7.677101e+07 -9.401081e+06
<VARIANCE> 42
 8.416741e+16 6.399436e+16 7.110515e+16 1.597490e+17 2.630057e+17 4.074601e+17 2.049901e+17 2.236206e+17 2.808073e+17 1.061197e+18 5.259523e+17 3.274331e+17 5.872444e+17 1.361343e+18 2.452950e+15 1.888415e+15 2.354247e+15 4.525937e+15 1.026207e+16 1.246852e+16 7.025006e+15 9.920314e+15 1.219372e+16 1.101586e+16 2.967737e+16 2.558340e+16 2.446094e+16 2.244246e+16 3.394248e+14 2.107167e+14 5.041261e+14 8.172450e+14 7.101614e+14 1.563296e+15 1.036616e+15 2.376421e+15 1.779533e+15 1.660393e+15 2.912097e+15 3.785412e+15 3.458502e+15 4.297861e+15
<GCONST> 1.640817e+03
<MIXTURE> 7 1.414557e-01
<MEAN> 42
 1.761924e+09 4.841274e+08 4.327285e+08 -7.704302e+08 -4.890879e+08 2.884100e+08 3.281189e+08 8.348721e+08 -3.051973e+08 2.541376e+08 -7.314331e+07 1.191721e+09 1.073831e+09 5.416879e+08 -7.892790e+07 2.353929e+07 1.995704e+08 2.622789e+08 6.795645e+07 -3.598848e+08 -3.971819e+08 -1.988107e+08 2.108808e+08 3.694516e+08 2.027562e+08 1.952777e+06 -1.949492e+08 -2.209244e+07 2.293026e+06 7.007248e+05 -2.655262e+07 -2.222957e+07 -1.780185e+07 -4.137304e+06 -2.027059e+07 -4.609100e+07 -3.802054e+07 -1.758389e+07 2.966478e+07 2.857856e+06 -1.147912e+07 -3.733575e+07
<VARIANCE> 42
 4.579169e+16 6.615192e+16 9.023157e+16 2.248167e+17 2.707638e+17 3.375306e+17 2.629813e+17 2.305439e+17 1.351222e+17 2.993117e+17 3.465738e+17 4.932284e+17 2.188255e+17 5.778471e+17 1.652818e+15 2.284206e+15 5.385863e+15 1.427994e+16 1.253443e+16 1.945847e+16 2.447261e+16 2.511969e+16 2.399278e+16 2.056473e+16 3.830512e+16 1.546802e+16 1.830605e+16 4.315520e+16 2.232967e+14 5.224098e+14 7.975048e+14 2.229549e+15 2.105294e+15 2.844463e+15 2.660145e+15 2.451010e+15 2.432286e+15 2.899492e+15 2.388842e+15 2.123892e+15 2.135086e+15 3.282264e+15
<GCONST> 1.647056e+03
<STATE> 13
<NUMMIXES> 7
<MIXTURE> 1 1.578185e-01
<MEAN> 42
