~o
<STREAMINFO> 1 42
<VECSIZE> 42<NULLD><USER_D_A><DIAGC>
~s "silst"
<NUMMIXES> 7
<MIXTURE> 1 1.370721e-01
<MEAN> 42
 2.116040e+02 -7.594674e-01 8.038498e-02 -5.046270e-02 -4.169236e-02 -7.501203e-02 -6.097976e-02 -3.331034e-02 -1.706541e-02 2.169518e-02 -1.475302e-02 -6.170133e-03 -4.615352e-03 -1.635531e-02 1.822938e-01 7.054131e-02 -3.756893e-02 1.038242e-02 -4.469573e-03 -9.924142e-03 -1.657555e-04 -3.072282e-03 2.704137e-03 6.539921e-04 -1.491999e-03 7.315465e-04 -2.879243e-04 4.568989e-05 1.322276e-02 7.212128e-03 -6.792146e-03 -1.479176e-04 2.005075e-03 -1.448379e-03 3.341962e-04 1.420396e-04 -8.610775e-04 -4.409844e-04 -3.069608e-04 -7.608029e-05 -5.970742e-05 -3.396111e-05
<VARIANCE> 42
 8.498648e+01 2.488468e+01 7.848009e+00 6.479959e+00 3.305766e+00 2.431392e+00 1.305520e+00 9.402778e-01 6.766554e-01 4.337216e-01 2.798963e-01 1.998125e-01 1.406659e-01 8.807394e-02 2.111965e+00 8.595976e-01 3.779708e-01 2.728012e-01 1.795417e-01 1.292579e-01 7.528293e-02 5.413521e-02 3.842242e-02 2.626597e-02 1.666831e-02 1.158842e-02 7.896199e-03 5.180163e-03 2.451963e-01 1.078194e-01 4.939062e-02 3.459753e-02 2.646868e-02 1.913280e-02 1.178670e-02 8.276490e-03 5.915467e-03 4.184602e-03 2.669029e-03 1.869872e-03 1.262856e-03 8.667234e-04
<GCONST> -1.729931e+01
<MIXTURE> 2 1.291319e-01
<MEAN> 42
 2.115156e+02 -8.011184e-01 9.809545e-02 -5.576695e-02 -4.314465e-02 -6.785235e-02 -5.894423e-02 -3.256840e-02 -1.772405e-02 2.298055e-02 -1.311467e-02 -7.336422e-03 -4.459253e-03 -1.543562e-02 1.862353e-01 7.256535e-02 -3.802403e-02 1.056437e-02 -4.404348e-03 -1.010111e-02 -2.247280e-04 -3.071065e-03 2.707247e-03 5.664097e-04 -1.496617e-03 7.899929e-04 -3.047812e-04 2.490402e-05 1.502933e-02 8.272010e-03 -7.147966e-03 -6.744865e-05 2.090839e-03 -1.705442e-03 1.786439e-04 1.465549e-04 -8.205031e-04 -5.237947e-04 -3.953190e-04 -1.799020e-05 -5.170209e-05 -8.801537e-05
<VARIANCE> 42
 8.498648e+01 2.488468e+01 7.848009e+00 6.479959e+00 3.305766e+00 2.431392e+00 1.305520e+00 9.402778e-01 6.766554e-01 4.337216e-01 2.798963e-01 1.998125e-01 1.406659e-01 8.807394e-02 2.111965e+00 8.595976e-01 3.779708e-01 2.728012e-01 1.795417e-01 1.292579e-01 7.528293e-02 5.413521e-02 3.842242e-02 2.626597e-02 1.666831e-02 1.158842e-02 7.896199e-03 5.180163e-03 2.451963e-01 1.078194e-01 4.939062e-02 3.459753e-02 2.646868e-02 1.913280e-02 1.178670e-02 8.276490e-03 5.915467e-03 4.184602e-03 2.669029e-03 1.869872e-03 1.262856e-03 8.667234e-04
<GCONST> -1.729931e+01
<MIXTURE> 3 1.493824e-01
<MEAN> 42
 2.116219e+02 -7.509736e-01 7.681434e-02 -4.933909e-02 -4.137148e-02 -7.651270e-02 -6.143537e-02 -3.344703e-02 -1.691522e-02 2.140693e-02 -1.510475e-02 -5.914223e-03 -4.643564e-03 -1.655827e-02 1.815317e-01 7.015309e-02 -3.747708e-02 1.034866e-02 -4.482021e-03 -9.888769e-03 -1.539802e-04 -3.074803e-03 2.703088e-03 6.727999e-04 -1.491094e-03 7.191186e-04 -2.848375e-04 5.003974e-05 1.283283e-02 6.981919e-03 -6.719271e-03 -1.682970e-04 1.985431e-03 -1.392319e-03 3.689415e-04 1.401401e-04 -8.707596e-04 -4.217665e-04 -2.872959e-04 -8.958981e-05 -6.158720e-05 -2.169665e-05
<VARIANCE> 42
 8.498648e+01 2.488468e+01 7.848009e+00 6.479959e+00 3.305766e+00 2.431392e+00 1.305520e+00 9.402778e-01 6.766554e-01 4.337216e-01 2.798963e-01 1.998125e-01 1.406659e-01 8.807394e-02 2.111965e+00 8.595976e-01 3.779708e-01 2.728012e-01 1.795417e-01 1.292579e-01 7.528293e-02 5.413521e-02 3.842242e-02 2.626597e-02 1.666831e-02 1.158842e-02 7.896199e-03 5.180163e-03 2.451963e-01 1.078194e-01 4.939062e-02 3.459753e-02 2.646868e-02 1.913280e-02 1.178670e-02 8.276490e-03 5.915467e-03 4.184602e-03 2.669029e-03 1.869872e-03 1.262856e-03 8.667234e-04
<GCONST> -1.729931e+01
<MIXTURE> 4 1.689479e-01
<MEAN> 42
 2.008250e+02 -6.176888e+00 1.286688e+00 -7.918361e-01 -2.614283e-01 3.513705e-01 -7.244018e-02 -4.343773e-02 -9.241932e-02 1.187897e-01 7.255200e-02 -8.887327e-02 1.164101e-02 9.186435e-03 9.382660e-01 4.815808e-01 -4.432906e-02 9.637217e-02 8.843432e-03 -3.924334e-02 -1.131631e-02 -1.190316e-02 1.211817e-02 -1.722302e-04 -4.093365e-03 3.900271e-03 -5.333385e-03 -3.967960e-04 6.016675e-02 3.749335e-02 -3.246848e-02 -6.323650e-03 1.845995e-02 4.281113e-03 7.369464e-03 7.173064e-03 -2.739037e-03 -5.572200e-03 -2.684976e-03 2.655706e-03 2.280743e-03 -1.489632e-03
<VARIANCE> 42
 8.498648e+01 2.488468e+01 7.848009e+00 6.479959e+00 3.305766e+00 2.431392e+00 1.305520e+00 9.402778e-01 6.766554e-01 4.337216e-01 2.798963e-01 1.998125e-01 1.406659e-01 8.807394e-02 2.111965e+00 8.595976e-01 3.779708e-01 2.728012e-01 1.795417e-01 1.292579e-01 7.528293e-02 5.413521e-02 3.842242e-02 2.626597e-02 1.666831e-02 1.158842e-02 7.896199e-03 5.180163e-03 2.451963e-01 1.078194e-01 4.939062e-02 3.459753e-02 2.646868e-02 1.913280e-02 1.178670e-02 8.276490e-03 5.915467e-03 4.184602e-03 2.669029e-03 1.869872e-03 1.262856e-03 8.667234e-04
<GCONST> -1.729931e+01
<MIXTURE> 5 1.436933e-01
<MEAN> 42
 2.116029e+02 -7.600058e-01 8.061305e-02 -5.053441e-02 -4.171447e-02 -7.491745e-02 -6.095117e-02 -3.330119e-02 -1.707435e-02 2.171332e-02 -1.473059e-02 -6.186116e-03 -4.613466e-03 -1.634294e-02 1.823433e-01 7.056663e-02 -3.757474e-02 1.038462e-02 -4.468786e-03 -9.926471e-03 -1.665051e-04 -3.072197e-03 2.704169e-03 6.527961e-04 -1.492064e-03 7.323517e-04 -2.881343e-04 4.540649e-05 1.324731e-02 7.226655e-03 -6.796728e-03 -1.466279e-04 2.006326e-03 -1.451888e-03 3.320105e-04 1.421091e-04 -8.604809e-04 -4.421638e-04 -3.081860e-04 -7.525543e-05 -5.959543e-05 -3.471880e-05
<VARIANCE> 42
 8.498648e+01 2.488468e+01 7.848009e+00 6.479959e+00 3.305766e+00 2.431392e+00 1.305520e+00 9.402778e-01 6.766554e-01 4.337216e-01 2.798963e-01 1.998125e-01 1.406659e-01 8.807394e-02 2.111965e+00 8.595976e-01 3.779708e-01 2.728012e-01 1.795417e-01 1.292579e-01 7.528293e-02 5.413521e-02 3.842242e-02 2.626597e-02 1.666831e-02 1.158842e-02 7.896199e-03 5.180163e-03 2.451963e-01 1.078194e-01 4.939062e-02 3.459753e-02 2.646868e-02 1.913280e-02 1.178670e-02 8.276490e-03 5.915467e-03 4.184602e-03 2.669029e-03 1.869872e-03 1.262856e-03 8.667234e-04
<GCONST> -1.729931e+01
<MIXTURE> 6 1.425162e-01
<MEAN> 42
 2.115912e+02 -7.655436e-01 8.293205e-02 -5.126474e-02 -4.192243e-02 -7.395310e-02 -6.066817e-02 -3.321133e-02 -1.716727e-02 2.189595e-02 -1.450610e-02 -6.349635e-03 -4.594262e-03 -1.621411e-02 1.828473e-01 7.082441e-02 -3.763444e-02 1.040703e-02 -4.460689e-03 -9.949776e-03 -1.743743e-04 -3.071011e-03 2.704858e-03 6.406771e-04 -1.492731e-03 7.403449e-04 -2.901928e-04 4.257829e-05 1.349490e-02 7.372886e-03 -6.842913e-03 -1.337304e-04 2.018880e-03 -1.487196e-03 3.103206e-04 1.432278e-04 -8.545608e-04 -4.541866e-04 -3.205610e-04 -6.684641e-05 -5.843661e-05 -4.241452e-05
<VARIANCE> 42
 8.498648e+01 2.488468e+01 7.848009e+00 6.479959e+00 3.305766e+00 2.431392e+00 1.305520e+00 9.402778e-01 6.766554e-01 4.337216e-01 2.798963e-01 1.998125e-01 1.406659e-01 8.807394e-02 2.111965e+00 8.595976e-01 3.779708e-01 2.728012e-01 1.795417e-01 1.292579e-01 7.528293e-02 5.413521e-02 3.842242e-02 2.626597e-02 1.666831e-02 1.158842e-02 7.896199e-03 5.180163e-03 2.451963e-01 1.078194e-01 4.939062e-02 3.459753e-02 2.646868e-02 1.913280e-02 1.178670e-02 8.276490e-03 5.915467e-03 4.184602e-03 2.669029e-03 1.869872e-03 1.262856e-03 8.667234e-04
<GCONST> -1.729931e+01
<MIXTURE> 7 1.292076e-01
<MEAN> 42
 2.115415e+02 -7.886341e-01 9.316320e-02 -5.390523e-02 -4.258591e-02 -7.019661e-02 -5.972124e-02 -3.270636e-02 -1.750808e-02 2.244812e-02 -1.365871e-02 -6.901929e-03 -4.513870e-03 -1.578064e-02 1.852809e-01 7.209205e-02 -3.791594e-02 1.050131e-02 -4.422766e-03 -1.005742e-02 -2.177792e-04 -3.074870e-03 2.712444e-03 5.921657e-04 -1.498948e-03 7.743263e-04 -2.988621e-04 2.950630e-05 1.422096e-02 7.780822e-03 -7.032892e-03 -1.296281e-04 2.046736e-03 -1.594440e-03 2.465665e-04 1.438330e-04 -8.359172e-04 -4.837259e-04 -3.589066e-04 -4.475871e-05 -5.291359e-05 -6.379760e-05
<VARIANCE> 42
 8.498648e+01 2.488468e+01 7.848009e+00 6.479959e+00 3.305766e+00 2.431392e+00 1.305520e+00 9.402778e-01 6.766554e-01 4.337216e-01 2.798963e-01 1.998125e-01 1.406659e-01 8.807394e-02 2.111965e+00 8.595976e-01 3.779708e-01 2.728012e-01 1.795417e-01 1.292579e-01 7.528293e-02 5.413521e-02 3.842242e-02 2.626597e-02 1.666831e-02 1.158842e-02 7.896199e-03 5.180163e-03 2.451963e-01 1.078194e-01 4.939062e-02 3.459753e-02 2.646868e-02 1.913280e-02 1.178670e-02 8.276490e-03 5.915467e-03 4.184602e-03 2.669029e-03 1.869872e-03 1.262856e-03 8.667234e-04
<GCONST> -1.729931e+01
~h "eight"
<BEGINHMM>
<NUMSTATES> 18
<STATE> 2
<NUMMIXES> 7
<MIXTURE> 1 1.779747e-01
<MEAN> 42
 3.513983e+02 6.553764e+01 -4.160473e+00 1.968544e+01 -1.835136e+00 -9.677254e+00 -4.018082e+00 -5.960653e+00 1.666566e+00 3.433387e+00 -2.892551e+00 -9.112548e-01 6.789580e-01 1.611749e-02 -1.371067e+01 -2.206962e+00 3.759221e+00 3.700691e+00 5.469686e+00 8.234522e-01 -2.079236e+00 -1.038254e+00 3.489415e-02 3.467253e-01 -6.365193e-01 -6.865479e-01 2.320555e-01 -1.534243e-01 1.079577e+00 -1.166982e-01 -9.457819e-01 -1.206120e+00 -8.317058e-01 -3.833027e-01 2.901599e-01 6.903024e-01 1.498685e-02 -3.933981e-01 1.462359e-01 1.829412e-01 -1.024612e-01 3.009108e-03
<VARIANCE> 42
 1.489237e+03 2.727891e+02 5.568923e+02 7.796530e+02 6.041100e+02 2.435829e+02 2.553161e+02 1.427836e+02 8.503352e+01 6.027308e+01 6.847597e+01 3.592414e+01 3.295915e+01 2.034251e+01 9.191724e+01 2.812389e+01 3.645305e+01 3.602282e+01 3.718560e+01 3.003739e+01 1.421701e+01 1.284280e+01 7.720327e+00 4.903668e+00 4.019927e+00 2.382502e+00 1.563839e+00 1.317150e+00 7.092467e+00 1.834852e+00 2.948462e+00 3.612719e+00 4.126154e+00 2.187791e+00 2.019278e+00 1.555573e+00 8.602032e-01 8.388852e-01 4.651660e-01 4.087702e-01 3.538347e-01 1.833546e-01
<GCONST> 1.857818e+02
<MIXTURE> 2 7.455566e-02
<MEAN> 42
 1.888876e+02 -1.246373e+01 2.200227e+00 -2.272854e-01 2.432769e-01 1.474502e+00 3.264884e-01 -2.609197e-01 3.031612e-03 2.857111e-01 2.967776e-02 -9.874922e-02 1.516130e-01 5.155393e-02 1.702086e+00 8.043805e-01 -2.257302e-01 -7.009190e-02 -6.718108e-02 -1.015555e-01 -2.535393e-02 1.885039e-02 -9.818146e-03 -1.495078e-02 2.704979e-02 8.466232e-03 -2.172719e-02 4.893616e-03 1.863865e+00 1.058004e+00 -9.764790e-03 2.353060e-01 -2.829323e-01 -4.291502e-01 6.405156e-03 4.326710e-02 -1.591984e-02 -1.654452e-02 -1.327879e-02 -4.982957e-03 -3.107673e-02 -1.494054e-02
<VARIANCE> 42
 1.180061e+02 3.105503e+01 1.514878e+01 9.379101e+00 6.112054e+00 2.925540e+00 1.679071e+00 1.135041e+00 8.964270e-01 4.337216e-01 2.798963e-01 1.998125e-01 1.406659e-01 8.807394e-02 2.111965e+00 8.595976e-01 5.900247e-01 2.728012e-01 1.795417e-01 1.292579e-01 7.528293e-02 5.413521e-02 3.842242e-02 2.626597e-02 1.666831e-02 1.158842e-02 7.896199e-03 5.180163e-03 4.719856e+00 2.136906e+00 6.648649e-01 3.846186e-01 5.495717e-01 3.323236e-01 9.668308e-02 7.041850e-02 2.490735e-02 1.209729e-02 5.873513e-03 9.065943e-03 3.722452e-03 2.036798e-03
<GCONST> 1.413177e+01
<MIXTURE> 3 1.154018e-01
<MEAN> 42
 3.531238e+02 9.569489e+01 1.316986e+00 -2.292845e+01 -1.161781e+01 1.116192e+01 8.103407e+00 -1.674263e+01 -1.491018e+01 3.525120e+00 5.520862e+00 -1.137946e+00 -3.392744e+00 -2.571696e+00 -4.307765e+00 -1.282460e+00 1.737168e+00 1.101997e+00 -3.062261e-01 -2.957190e-01 8.195935e-01 1.128587e+00 2.889314e-02 -1.063749e+00 -5.485006e-01 6.893957e-01 5.347068e-01 -2.239080e-01 9.346471e-01 -1.334048e+00 -1.902750e+00 5.926048e-01 3.484299e-01 -1.687076e+00 -1.722090e+00 5.539354e-01 1.699792e+00 3.943785e-01 -7.302352e-01 -3.640192e-01 3.421850e-01 3.749211e-01
<VARIANCE> 42
 4.762162e+02 1.143385e+02 2.281568e+02 1.837445e+02 1.612291e+02 1.370757e+02 1.332049e+02 8.794359e+01 7.810083e+01 8.319123e+01 3.034207e+01 3.554651e+01 1.568778e+01 1.211460e+01 2.300076e+01 6.502324e+00 1.943273e+01 1.026194e+01 8.459631e+00 6.769937e+00 7.277127e+00 4.140884e+00 6.201735e+00 2.886378e+00 2.325144e+00 1.385445e+00 1.169151e+00 6.301438e-01 7.434896e+00 1.628499e+00 2.635238e+00 1.583127e+00 1.539397e+00 1.779502e+00 8.813973e-01 1.498795e+00 7.612613e-01 1.111616e+00 7.400361e-01 4.740126e-01 4.950244e-01 1.865809e-01
<GCONST> 1.622386e+02
<MIXTURE> 4 1.904840e-01
<MEAN> 42
 2.043015e+02 -4.972450e+00 -3.138035e+00 -4.474929e-01 -2.510953e-01 -2.628301e+00 4.744478e-01 2.450107e+00 1.513911e-01 -8.784589e-01 4.418612e-02 2.723240e-01 -9.832751e-02 -7.297798e-02 -3.048068e+00 -2.419573e+00 -2.053372e-01 -8.096778e-01 -6.274935e-01 4.826999e-01 8.083552e-02 -3.198383e-01 1.078954e-01 2.311747e-01 -9.343227e-03 -1.072868e-01 1.510148e-02 4.916795e-02 2.849878e+00 1.454748e+00 -2.174599e-01 4.221259e-01 -4.681069e-02 -3.287686e-01 5.972671e-02 7.196016e-02 -1.271800e-02 -4.380793e-02 -4.908300e-02 2.863008e-02 2.258037e-02 -9.404382e-03
<VARIANCE> 42
 7.331292e+02 2.009405e+02 1.333289e+02 6.578022e+01 4.157516e+01 4.305837e+01 1.275526e+01 2.099022e+01 5.604975e+00 4.966010e+00 3.409048e+00 1.588880e+00 1.095080e+00 6.935896e-01 6.802621e+01 3.513107e+01 2.552839e+01 7.812822e+00 6.760231e+00 5.143005e+00 2.112362e+00 2.113271e+00 8.041623e-01 4.229505e-01 2.801658e-01 1.581121e-01 1.646154e-01 8.594165e-02 1.464319e+01 5.409773e+00 2.287017e+00 1.364089e+00 1.028592e+00 8.986533e-01 3.565973e-01 2.399235e-01 1.456389e-01 5.906057e-02 5.748829e-02 2.660310e-02 3.625721e-02 9.841993e-03
<GCONST> 1.094526e+02
<MIXTURE> 5 8.897894e-02
<MEAN> 42
 3.462556e+02 9.183457e+01 2.087353e+00 -1.932468e+01 -1.027056e+01 8.790052e+00 9.541813e+00 -1.161752e+01 -1.529029e+01 -3.218469e-01 6.009802e+00 2.161689e+00 -9.456584e-01 -1.287626e+00 -6.042763e+00 -5.985348e+00 -5.199975e+00 7.499120e-01 2.624938e+00 -1.936460e+00 -4.525147e+00 -1.100363e+00 3.405920e+00 3.126526e+00 -5.373566e-01 -1.830682e+00 -1.609327e-01 5.374996e-01 -7.031892e-01 -2.202606e+00 -1.459833e+00 9.896301e-01 3.459454e-01 -1.513573e+00 -1.416502e+00 4.925469e-01 1.562691e+00 5.166115e-01 -7.451517e-01 -6.905031e-01 5.446220e-02 2.567103e-01
<VARIANCE> 42
 3.365442e+02 1.193110e+02 1.309585e+02 8.996076e+01 8.780806e+01 1.057109e+02 7.200742e+01 3.498466e+01 2.653639e+01 2.563391e+01 1.259662e+01 1.241702e+01 1.189176e+01 6.937058e+00 8.139208e+01 1.510493e+01 2.576676e+01 1.031640e+01 5.237448e+00 9.573312e+00 6.821596e+00 3.518041e+00 4.166408e+00 2.224023e+00 1.122464e+00 1.778108e+00 6.828940e-01 6.872759e-01 1.176472e+01 2.696402e+00 2.242273e+00 1.253083e+00 1.009691e+00 1.141777e+00 6.586106e-01 7.071813e-01 3.916512e-01 5.858802e-01 2.457937e-01 1.919757e-01 1.550092e-01 8.684467e-02
<GCONST> 1.471064e+02
<MIXTURE> 6 2.167071e-01
<MEAN> 42
 3.036547e+02 3.486779e+01 -8.623396e+00 2.120255e+01 -2.714032e+00 -1.340749e+01 1.136024e+00 4.661016e+00 3.766270e-01 -4.220218e+00 6.288972e-01 3.247869e+00 -8.781141e-01 -7.656580e-01 -1.113496e+01 -4.354107e+00 1.194559e+00 -6.142358e-01 -1.179367e-01 1.336062e+00 1.074422e+00 -5.780685e-01 -8.393880e-01 3.568255e-01 5.429922e-01 -3.164217e-01 -4.360829e-01 -1.818840e-02 2.107881e-01 4.834561e-01 -1.440104e-02 -8.802886e-01 -3.309406e-01 7.498039e-02 -3.020607e-01 -4.113035e-01 9.488560e-02 3.427938e-01 -1.893701e-01 -2.811096e-01 3.445151e-02 8.132929e-02
<VARIANCE> 42
 2.721474e+03 1.165735e+03 1.193919e+03 3.976213e+02 3.070023e+02 2.660223e+02 1.103482e+02 1.204289e+02 5.464229e+01 3.667068e+01 2.282527e+01 1.187794e+01 1.514911e+01 6.047351e+00 1.361128e+02 5.146821e+01 5.207734e+01 1.727456e+01 1.745719e+01 1.615051e+01 9.003831e+00 4.828887e+00 2.888210e+00 1.688469e+00 9.557924e-01 1.014649e+00 9.719862e-01 5.408930e-01 3.828872e+01 1.418185e+01 6.533815e+00 2.656685e+00 4.206976e+00 4.208676e+00 1.307051e+00 1.054387e+00 5.958441e-01 3.647168e-01 2.035870e-01 1.559195e-01 1.424404e-01 7.418341e-02
<GCONST> 1.725599e+02
<MIXTURE> 7 1.358964e-01
<MEAN> 42
 2.115923e+02 -1.014542e+00 9.436042e-02 1.970820e-01 -1.080192e-01 -8.065325e-02 -9.960077e-02 -1.429707e-01 1.006837e-01 1.563650e-01 -5.095906e-02 -4.633052e-02 1.556554e-02 6.223396e-03 5.147405e-01 1.808558e-01 -6.409872e-02 1.176581e-01 -5.736370e-02 -7.357074e-02 3.097434e-02 -3.875545e-02 -3.302653e-02 9.015332e-03 1.144378e-02 -1.060862e-03 -9.382191e-03 -1.544179e-03 8.176242e+00 4.223938e+00 -3.664590e-01 2.189366e-01 -1.798758e+00 -1.596839e+00 3.504159e-01 3.771190e-01 -9.556740e-02 -1.999777e-01 -4.053080e-02 5.870906e-02 -1.087279e-01 -2.941029e-02
<VARIANCE> 42
 8.498648e+01 2.488468e+01 7.848009e+00 6.479959e+00 3.305766e+00 2.431392e+00 1.305520e+00 9.402778e-01 6.766554e-01 4.337216e-01 2.798963e-01 1.998125e-01 1.406659e-01 8.807394e-02 2.111965e+00 8.595976e-01 3.779708e-01 2.728012e-01 1.795417e-01 1.362258e-01 7.528293e-02 5.413521e-02 3.842242e-02 2.626597e-02 1.666831e-02 1.158842e-02 7.896199e-03 5.180163e-03 1.039935e+01 3.534350e+00 1.479238e+00 2.034978e+00 1.370575e+00 8.060732e-01 6.021329e-01 1.981034e-01 1.156856e-01 4.903607e-02 3.172953e-02 2.601423e-02 1.767141e-02 8.553548e-03
<GCONST> 2.773182e+01
<STATE> 3
<NUMMIXES> 7
<MIXTURE> 1 2.095444e-01
<MEAN> 42
 3.122881e+02 6.044144e+01 1.183430e+01 3.553515e+01 1.292036e+01 -9.093539e+00 -5.202428e+00 -5.673157e+00 -2.062370e+00 2.678676e+00 -1.252897e+00 -2.341530e+00 -5.837207e-01 -4.693106e-01 -1.314304e+01 -3.509324e+00 3.488056e+00 2.728279e+00 3.273354e+00 5.239616e-01 -6.356941e-01 -3.279680e-01 -5.162408e-01 -3.167364e-01 -2.692029e-01 -2.271316e-01 -2.790969e-02 -2.229995e-01 4.744072e+00 -8.407400e-02 -2.690194e+00 -2.898501e+00 -3.201653e+00 -9.377446e-01 8.435130e-01 1.122491e+00 3.008964e-01 -4.885736e-01 3.680314e-02 3.551948e-01 -4.458602e-03 5.145328e-02
<VARIANCE> 42
 1.386067e+03 3.272395e+02 5.020282e+02 3.987610e+02 4.219303e+02 2.219686e+02 1.390841e+02 1.298067e+02 7.120023e+01 5.727909e+01 4.901156e+01 3.738521e+01 1.793563e+01 1.372585e+01 7.017479e+01 2.544410e+01 2.013598e+01 2.013217e+01 3.292409e+01 2.007698e+01 1.356212e+01 8.259150e+00 4.285207e+00 3.863194e+00 2.813635e+00 2.290886e+00 1.203835e+00 9.868190e-01 3.271734e+01 7.127975e+00 4.828745e+00 3.703932e+00 7.540444e+00 4.718263e+00 2.973635e+00 1.779473e+00 1.316264e+00 7.078252e-01 6.498455e-01 4.184163e-01 2.573950e-01 1.823923e-01
<GCONST> 1.836931e+02
<MIXTURE> 2 1.379641e-01
<MEAN> 42
 2.126083e+02 -4.417162e-01 -1.369954e-02 -9.409913e-02 -1.694551e-01 9.695011e-02 -6.959706e-02 -3.022185e-01 3.778412e-02 2.221933e-01 -1.634589e-02 -8.079422e-02 -2.241184e-02 2.910631e-02 1.304440e+01 6.354732e+00 -2.010531e-01 1.662258e+00 -2.376235e+00 -2.344629e+00 5.211638e-01 3.123695e-01 -1.028638e-01 -2.093589e-01 -2.095170e-02 3.737683e-02 -1.755824e-01 -4.708588e-03 1.730603e+01 9.266193e+00 6.088857e-02 5.229910e-01 -3.824333e+00 -3.288045e+00 5.102648e-01 6.499786e-01 -2.712501e-01 -4.122471e-01 -1.706356e-01 5.278599e-02 -1.485636e-01 -3.027651e-02
<VARIANCE> 42
 8.498648e+01 2.488468e+01 7.848009e+00 6.479959e+00 3.305766e+00 2.431392e+00 1.305520e+00 9.402778e-01 6.766554e-01 4.337216e-01 2.798963e-01 1.998125e-01 1.406659e-01 8.807394e-02 5.202018e+01 1.476556e+01 5.479542e+00 6.021515e+00 5.364526e+00 4.019582e+00 2.068984e+00 8.134509e-01 4.992507e-01 3.482925e-01 8.657651e-02 1.534332e-01 6.707808e-02 4.837918e-02 1.190271e+01 2.040922e+00 3.130031e+00 5.400889e+00 2.212417e+00 1.259306e+00 1.848735e+00 3.957264e-01 4.686622e-01 1.677725e-01 1.105469e-01 8.988999e-02 4.444240e-02 2.537129e-02
<GCONST> 7.728349e+01
<MIXTURE> 3 1.339814e-01
<MEAN> 42
 2.651299e+02 -7.680306e+00 -4.061953e+01 1.168180e+01 -4.343307e-02 -1.381129e+00 5.036593e+00 1.275409e-01 1.565365e+00 -2.802126e+00 1.234288e+00 2.203302e+00 -1.399557e+00 2.262478e-01 -8.381346e-01 1.610270e+00 1.132776e+00 -7.019888e-01 -1.588967e+00 -6.541853e-01 1.054032e-02 -6.597805e-01 2.948577e-02 6.635385e-01 -2.792131e-01 -3.068703e-01 4.235252e-02 -6.528232e-02 6.836682e+00 6.399803e+00 3.326640e+00 5.174953e-01 -1.036768e+00 -2.153113e+00 -1.004383e+00 9.092797e-02 -2.715364e-02 8.465969e-02 -3.055469e-01 -8.991627e-02 5.763894e-02 -8.818729e-02
<VARIANCE> 42
 2.278828e+03 3.667271e+02 8.161348e+02 3.487703e+02 2.831684e+02 9.840155e+01 3.727991e+01 7.016815e+01 2.399333e+01 2.801400e+01 9.582316e+00 1.362226e+01 9.677211e+00 6.501575e+00 1.213132e+02 5.446175e+01 5.306556e+01 1.323858e+01 5.618447e+00 1.103556e+01 3.387450e+00 3.465622e+00 1.684248e+00 1.513555e+00 9.598070e-01 6.787798e-01 6.739567e-01 3.071281e-01 4.111143e+01 7.087667e+00 7.166544e+00 2.973593e+00 4.513829e+00 2.343766e+00 1.132617e+00 6.974767e-01 3.741581e-01 4.191822e-01 1.939615e-01 1.933642e-01 1.401977e-01 8.665890e-02
<GCONST> 1.591978e+02
<MIXTURE> 4 1.896073e-01
<MEAN> 42
 3.526562e+02 8.090926e+01 -1.516384e+01 -1.608651e+01 -4.619045e-01 5.851082e+00 -5.867187e+00 -1.683790e+01 -2.774985e+00 9.188503e+00 2.325584e+00 -3.992448e+00 -2.802266e+00 -9.580118e-01 -5.740399e+00 -6.429384e+00 -3.812241e+00 1.156215e+00 2.488334e-01 -4.726871e+00 -3.900720e+00 2.284635e+00 4.212013e+00 6.302728e-01 -2.008752e+00 -1.080133e+00 6.746559e-01 5.795891e-01 -1.921848e+00 -1.641976e+00 4.836019e-01 9.909469e-01 -9.529598e-01 -1.831641e+00 8.845247e-02 1.709435e+00 5.081490e-01 -9.701063e-01 -5.981180e-01 3.056411e-01 4.470959e-01 1.380831e-01
<VARIANCE> 42
 1.274726e+03 2.983279e+02 4.469648e+02 2.336894e+02 3.468869e+02 2.945349e+02 1.553205e+02 2.050773e+02 9.506997e+01 5.547778e+01 5.744112e+01 2.173802e+01 2.489867e+01 1.192127e+01 1.249221e+02 3.132090e+01 3.181812e+01 2.716871e+01 1.801143e+01 1.293591e+01 9.956389e+00 6.334246e+00 7.025987e+00 5.606592e+00 3.910795e+00 3.039295e+00 1.751097e+00 1.077900e+00 1.243724e+01 3.388061e+00 2.627684e+00 1.985827e+00 3.306205e+00 2.926052e+00 1.847894e+00 1.473502e+00 8.681971e-01 6.380047e-01 5.806727e-01 2.372783e-01 2.353579e-01 1.140408e-01
<GCONST> 1.787798e+02
<MIXTURE> 5 8.038870e-02
<MEAN> 42
 2.837207e+02 4.261699e+01 1.092208e+01 3.351564e+01 1.239084e+01 -7.106782e+00 1.295093e+00 1.023207e+00 -1.473311e+00 -1.288865e-01 -1.509365e+00 -6.220659e-01 -7.974082e-01 -1.128669e+00 -2.934010e+00 -1.591737e+00 -1.111417e+00 -1.923872e+00 -7.877248e-01 -5.753640e-01 -4.362289e-01 -9.951048e-02 -3.790138e-01 -2.432767e-01 1.016701e-01 7.366583e-02 3.027182e-02 3.348164e-02 8.757059e-01 -3.251582e-01 -6.737915e-01 -7.395384e-01 -9.644613e-01 -3.809433e-01 -2.483825e-01 1.289105e-01 4.230933e-01 7.050344e-02 -1.485902e-02 9.265076e-02 7.323017e-02 2.696900e-02
<VARIANCE> 42
 5.253536e+02 1.469827e+02 1.332862e+02 1.062656e+02 1.675779e+02 3.162238e+01 4.704620e+01 1.355166e+01 1.273298e+01 2.570629e+01 4.834319e+00 1.116617e+01 8.138778e+00 5.414311e+00 2.682691e+01 5.721672e+00 3.289487e+00 5.273901e+00 5.054588e+00 2.881783e+00 1.579524e+00 7.674661e-01 1.034157e+00 5.961724e-01 3.073096e-01 2.856342e-01 1.696834e-01 1.978319e-01 1.274023e+01 2.720078e+00 1.348578e+00 4.590124e-01 1.223835e+00 8.391832e-01 6.295227e-01 1.497362e-01 3.294382e-01 9.752917e-02 8.715602e-02 6.364104e-02 3.183657e-02 5.985468e-02
<GCONST> 1.168848e+02
<MIXTURE> 6 1.179842e-01
<MEAN> 42
 2.017486e+02 -6.201931e+00 2.687112e-01 -7.420709e-01 -2.417176e-01 5.175074e-01 2.446437e-02 -2.658208e-01 -1.715453e-02 1.470399e-01 2.645793e-02 -9.978272e-02 -1.367681e-02 2.132821e-02 6.309568e+00 3.043023e+00 -5.847597e-01 4.980070e-01 -1.115090e+00 -1.556661e+00 -9.736385e-02 1.774375e-01 4.821413e-02 -9.421994e-02 3.929199e-03 1.343340e-01 -1.098721e-01 -6.191688e-02 1.098393e+01 5.534917e+00 -1.166343e+00 -6.715455e-02 -2.316180e+00 -2.323064e+00 4.150590e-01 6.554443e-01 -8.308738e-02 -1.764962e-01 5.334472e-02 1.422721e-01 -1.122032e-01 -5.669028e-02
<VARIANCE> 42
 2.569959e+02 6.502192e+01 9.722584e+00 6.479959e+00 3.305766e+00 2.842328e+00 1.305520e+00 1.066869e+00 6.766554e-01 4.337216e-01 2.798963e-01 1.998125e-01 1.406659e-01 8.807394e-02 3.926283e+01 2.072412e+01 1.210743e+01 7.836629e+00 4.787146e+00 5.351846e+00 2.753366e+00 9.968337e-01 1.456818e-01 1.354285e-01 8.846471e-02 5.438589e-02 4.473180e-02 3.959144e-02 1.330546e+01 3.000067e+00 3.433704e+00 3.758981e+00 2.034719e+00 8.249786e-01 1.142991e+00 3.457857e-01 2.123774e-01 8.728597e-02 9.155513e-02 5.176337e-02 5.203946e-02 1.774638e-02
<GCONST> 7.454448e+01
<MIXTURE> 7 1.305294e-01
<MEAN> 42
 2.679773e+02 2.394333e+01 4.806533e+00 2.391909e+01 -5.718321e-01 -9.583171e+00 -1.720654e+00 -2.727051e+00 -1.075746e+00 -4.077280e-01 -1.156746e+00 3.933886e-01 1.220927e-02 -5.541323e-01 -3.954602e+00 -8.152046e-01 -8.222350e-01 -2.874513e+00 -1.877890e+00 -1.850628e+00 -6.104257e-01 6.538323e-02 -4.591379e-01 2.797269e-02 1.255021e-01 -1.981029e-01 -1.437715e-01 -1.104659e-02 2.824175e+00 9.829442e-01 -1.007210e+00 -6.639471e-01 -6.625071e-01 -3.865746e-01 1.661501e-01 4.231313e-01 2.206501e-01 -1.031179e-02 -5.401861e-02 -2.570744e-02 -3.257953e-02 -9.372796e-03
<VARIANCE> 42
 2.847748e+03 5.946609e+02 4.852388e+02 3.279090e+02 3.456113e+02 1.159452e+02 4.653753e+01 6.370110e+01 4.272179e+01 1.032211e+01 1.431818e+01 3.027281e+00 7.305138e+00 4.303427e+00 1.185501e+02 3.858447e+01 2.759120e+01 1.601157e+01 1.624161e+01 2.148966e+01 4.349019e+00 8.225622e+00 2.012825e+00 1.784938e+00 6.190101e-01 3.453276e-01 5.068128e-01 4.263186e-01 1.760915e+01 5.183751e+00 3.146441e+00 2.515906e+00 1.249133e+00 2.121376e+00 5.733470e-01 7.931507e-01 2.999675e-01 1.984609e-01 1.124055e-01 6.074878e-02 4.700724e-02 4.019111e-02
<GCONST> 1.502546e+02
<STATE> 4
<NUMMIXES> 7
<MIXTURE> 1 1.344718e-01
<MEAN> 42
 3.185396e+02 5.982418e+01 8.163033e+00 3.960667e+01 1.659312e+01 -8.413049e+00 -3.190418e+00 -4.116746e+00 -2.941874e+00 5.387319e-01 -3.017577e+00 -1.246373e+00 7.824948e-01 -1.439786e+00 -8.257431e-02 -1.653363e+00 -1.513619e+00 -1.812185e+00 -3.065248e+00 -1.824241e+00 7.999091e-01 1.689077e+00 1.708570e-01 -7.399948e-01 8.165507e-03 1.631334e-02 -2.917988e-01 1.232716e-01 6.806624e+00 2.929716e-01 -3.100709e+00 -3.724783e+00 -4.602410e+00 -1.474768e+00 1.078868e+00 1.539881e+00 5.124034e-01 -3.926464e-01 3.255631e-01 4.099579e-01 -1.794028e-01 1.548783e-01
<VARIANCE> 42
 7.971134e+02 4.874015e+02 4.847592e+02 3.685811e+02 3.095401e+02 2.518978e+02 1.471545e+02 9.623240e+01 9.952547e+01 4.763604e+01 5.255840e+01 3.316250e+01 1.931773e+01 1.012887e+01 3.631787e+01 1.206608e+01 1.325063e+01 1.755279e+01 2.191998e+01 1.059119e+01 1.033730e+01 4.766220e+00 5.418235e+00 2.920663e+00 2.093378e+00 1.414752e+00 8.857688e-01 9.930055e-01 1.624349e+01 4.801805e+00 6.716112e+00 5.671613e+00 7.150585e+00 4.811116e+00 3.140931e+00 1.872120e+00 1.669211e+00 8.818685e-01 6.318989e-01 7.125840e-01 3.027914e-01 1.993631e-01
<GCONST> 1.788638e+02
<MIXTURE> 2 1.446967e-01
<MEAN> 42
 2.538060e+02 -2.522452e+00 -3.061167e+01 6.667823e+00 -4.904245e+00 -7.136040e+00 2.526700e+00 1.386153e+00 2.638525e+00 -1.537537e+00 -8.013361e-01 1.275462e+00 -6.470891e-01 -3.197600e-01 1.434496e+01 1.431891e+01 6.659400e+00 1.941548e+00 -2.694814e+00 -4.994918e+00 -1.019799e+00 3.571581e-01 -3.166547e-01 4.979902e-01 -4.707868e-01 -2.898429e-01 7.617932e-03 -2.541786e-01 9.185096e+00 6.423373e+00 1.789425e+00 4.739441e-01 -1.304197e+00 -1.907410e+00 -5.744112e-01 3.851830e-01 -1.935875e-02 -2.861646e-01 -2.190078e-01 -3.112601e-02 4.612486e-02 -6.764475e-03
<VARIANCE> 42
 2.673281e+03 3.340143e+02 5.880058e+02 1.455262e+02 1.289643e+02 8.612936e+01 3.214622e+01 3.677966e+01 2.705563e+01 1.700167e+01 1.339960e+01 7.693810e+00 9.721488e+00 2.735143e+00 1.574648e+02 8.356282e+01 7.844083e+01 7.478725e+00 1.396305e+01 1.602933e+01 6.357601e+00 4.390884e+00 1.502468e+00 1.826010e+00 1.062891e+00 6.340291e-01 4.808953e-01 4.760016e-01 3.656967e+01 8.177068e+00 7.831014e+00 2.220805e+00 2.666400e+00 1.665451e+00 9.317786e-01 5.540153e-01 4.420846e-01 3.819961e-01 1.134020e-01 1.209481e-01 1.047577e-01 4.680467e-02
<GCONST> 1.544279e+02
<MIXTURE> 3 1.433192e-01
<MEAN> 42
 2.124893e+02 -8.470834e-01 -4.714537e-02 4.277947e-01 -2.806397e-01 -1.487795e-01 1.183000e-01 -2.429764e-01 -1.970345e-02 2.342468e-01 -1.931535e-02 -6.873332e-02 -1.221016e-02 1.000868e-02 4.106808e+01 2.219646e+01 1.624135e+00 4.227079e+00 -8.038509e+00 -8.728425e+00 -1.159101e-01 9.139717e-01 -2.167215e-01 -1.018159e+00 -5.486442e-01 1.590824e-01 -3.826228e-01 -1.035221e-01 1.939747e+01 1.038150e+01 1.020964e+00 1.338414e+00 -4.027530e+00 -4.017138e+00 -8.440252e-02 6.337153e-01 -1.799060e-01 -4.965093e-01 -2.990765e-01 -5.840481e-02 -1.415853e-01 1.798262e-02
<VARIANCE> 42
 8.498648e+01 2.488468e+01 7.848009e+00 6.479959e+00 3.305766e+00 2.431392e+00 1.305520e+00 9.402778e-01 6.766554e-01 4.337216e-01 2.798963e-01 1.998125e-01 1.406659e-01 8.807394e-02 1.505547e+02 3.455605e+01 1.396383e+01 2.288426e+01 1.933904e+01 1.147079e+01 8.603355e+00 2.509547e+00 1.918114e+00 1.438678e+00 5.381309e-01 4.914559e-01 3.571893e-01 1.773050e-01 1.788368e+01 3.473474e+00 1.853408e+00 3.852832e+00 2.606159e+00 9.379730e-01 1.564403e+00 4.811579e-01 3.734142e-01 2.706301e-01 1.095747e-01 8.397399e-02 4.729225e-02 2.409547e-02
<GCONST> 9.523584e+01
<MIXTURE> 4 1.633100e-01
<MEAN> 42
 3.164894e+02 5.943082e+01 6.014956e+00 8.958949e+00 -1.091903e+01 -1.627472e+01 -6.916514e+00 -4.787842e+00 -1.061409e+00 2.865211e+00 -3.891767e-01 -2.347522e+00 -1.165540e+00 -2.516766e-01 -1.636611e+01 -8.326699e+00 -2.125621e-01 -2.062703e+00 -2.617440e+00 -2.705808e+00 -1.158045e-01 2.307154e+00 7.343426e-01 -1.016390e+00 -4.336270e-01 1.740938e-01 3.493488e-01 5.809850e-02 -2.687327e+00 -2.252714e+00 -9.391102e-01 -9.368768e-01 1.118150e-01 1.353256e+00 1.119035e+00 4.048050e-01 -2.692002e-02 -2.905975e-01 -6.818116e-02 2.195299e-01 1.613087e-01 5.162565e-02
<VARIANCE> 42
 2.218429e+03 2.834861e+02 6.476773e+02 4.546859e+02 4.823271e+02 3.180362e+02 1.927582e+02 2.234950e+02 5.963684e+01 6.934652e+01 4.221554e+01 2.101429e+01 1.436256e+01 6.555276e+00 1.364531e+02 6.091181e+01 2.471479e+01 3.460349e+01 2.864881e+01 1.881857e+01 1.695948e+01 9.403473e+00 6.474255e+00 4.203519e+00 1.989739e+00 1.632757e+00 1.180656e+00 3.633134e-01 1.554976e+01 3.533526e+00 3.529336e+00 2.090996e+00 3.253517e+00 1.987178e+00 2.061358e+00 1.450818e+00 5.539061e-01 7.079387e-01 3.069026e-01 1.743215e-01 1.254133e-01 7.439741e-02
<GCONST> 1.766100e+02
<MIXTURE> 5 1.371921e-01
<MEAN> 42
 2.621563e+02 2.947116e+01 1.721369e+01 3.742244e+01 1.222226e+01 -3.298945e+00 -4.704491e-02 -1.843339e+00 -7.430563e-01 9.020208e-01 1.071433e-01 -1.034990e+00 -6.662001e-01 1.099767e+00 6.899632e+00 2.375837e+00 -3.097624e+00 -3.795737e+00 -5.006717e+00 -4.143053e+00 -8.944116e-01 1.264673e+00 7.406951e-01 -5.924656e-01 -3.598647e-01 3.757247e-01 -2.524412e-01 -3.169108e-01 1.106128e+01 4.849818e+00 -1.581867e+00 -1.884979e+00 -3.762095e+00 -2.939682e+00 -3.292608e-01 7.583742e-01 1.752681e-01 -5.563637e-01 -4.296584e-01 1.427244e-01 5.759275e-02 -1.445192e-01
<VARIANCE> 42
 1.976836e+03 1.658416e+02 3.087328e+02 2.769480e+02 3.371479e+02 1.217177e+02 4.130616e+01 3.266800e+01 1.565898e+01 3.074663e+01 8.650814e+00 1.285907e+01 6.630385e+00 3.102053e+00 1.543230e+02 4.071700e+01 1.102345e+01 7.793830e+00 1.591575e+01 1.018957e+01 4.621315e+00 2.712110e+00 2.729737e+00 1.736244e+00 1.248154e+00 1.676800e+00 5.076345e-01 4.480809e-01 2.258727e+01 4.962461e+00 4.406832e+00 3.105970e+00 5.757594e+00 2.756138e+00 2.045449e+00 6.342683e-01 4.782654e-01 5.006354e-01 3.325445e-01 2.332981e-01 1.161199e-01 1.077496e-01
<GCONST> 1.566126e+02
<MIXTURE> 6 1.255405e-01
<MEAN> 42
 2.065433e+02 -3.431457e+00 3.931623e-01 -1.314231e-01 3.844644e-01 5.193986e-01 -2.894700e-01 -3.955648e-01 8.965854e-02 1.594202e-01 -2.852866e-02 -5.964158e-02 1.989431e-02 2.433214e-02 3.513948e+01 1.829063e+01 -4.552153e+00 -3.604329e+00 -8.873092e+00 -6.178504e+00 3.095395e+00 2.899729e+00 -5.181281e-01 -7.736425e-01 1.528862e-01 5.679395e-01 -3.580141e-01 -1.984820e-01 1.708829e+01 7.938887e+00 -2.877718e+00 -2.019914e+00 -4.282675e+00 -2.479078e+00 1.535607e+00 1.028504e+00 -4.493129e-01 -3.463363e-01 1.664846e-01 3.296471e-01 -1.376198e-01 -9.771891e-02
<VARIANCE> 42
 1.718912e+02 4.068027e+01 7.848009e+00 6.479959e+00 3.305766e+00 2.431392e+00 1.305520e+00 9.402778e-01 7.319145e-01 4.337216e-01 2.798963e-01 1.998125e-01 1.406659e-01 8.807394e-02 1.316883e+02 4.976989e+01 2.869862e+01 1.619666e+01 2.098620e+01 9.799639e+00 8.757785e+00 3.364398e+00 2.751114e+00 8.549032e-01 5.579967e-01 6.793416e-01 3.617902e-01 1.752068e-01 2.013760e+01 5.863408e+00 3.048685e+00 2.653408e+00 2.714759e+00 8.290454e-01 9.923369e-01 3.426697e-01 7.473876e-01 2.486867e-01 1.995372e-01 1.099579e-01 9.771318e-02 3.857195e-02
<GCONST> 1.001164e+02
<MIXTURE> 7 1.514699e-01
<MEAN> 42
 3.574631e+02 7.556288e+01 -2.693049e+01 -1.593635e+01 5.721355e-01 -3.892238e+00 -1.580441e+01 -1.539741e+01 7.416071e+00 1.468268e+01 -1.777372e+00 -1.018410e+01 -2.504714e+00 2.299539e+00 -2.999494e+00 -7.533395e+00 -4.680311e+00 3.540730e+00 -2.798581e-01 -7.164948e+00 -3.569038e+00 5.117392e+00 5.301199e+00 -1.296217e+00 -3.729482e+00 -5.571374e-01 1.819847e+00 8.108857e-01 -8.367471e-01 -4.661400e-01 1.517338e+00 9.464058e-01 -1.371371e+00 -9.835334e-01 1.426291e+00 1.574767e+00 -8.195859e-01 -1.623845e+00 1.600825e-02 1.029922e+00 3.230759e-01 -2.938634e-01
<VARIANCE> 42
 1.560174e+03 3.542271e+02 1.632635e+02 2.334097e+02 2.811266e+02 1.325212e+02 1.446895e+02 5.790499e+01 6.217589e+01 3.682124e+01 2.916143e+01 2.502718e+01 1.436486e+01 2.115283e+01 1.090066e+02 1.875538e+01 2.404060e+01 1.772463e+01 1.615441e+01 1.062727e+01 6.194340e+00 5.437284e+00 4.915106e+00 4.559392e+00 2.695598e+00 2.212074e+00 1.483821e+00 9.062437e-01 1.386491e+01 3.385157e+00 2.446158e+00 1.505680e+00 3.341128e+00 1.737632e+00 1.258019e+00 6.097466e-01 6.260000e-01 4.280539e-01 3.509958e-01 2.811975e-01 1.534767e-01 2.067850e-01
<GCONST> 1.676605e+02
<STATE> 5
<NUMMIXES> 7
<MIXTURE> 1 6.829652e-02
<MEAN> 42
 3.441829e+02 6.403113e+01 -6.602993e+00 2.210840e+01 5.059828e+00 -1.294680e+01 -8.309488e+00 -2.698032e+00 6.151948e+00 3.447243e+00 -7.625785e+00 -4.487863e+00 1.112014e+00 -3.809205e-01 6.416312e+00 -1.694107e+00 -6.576521e+00 -7.321984e+00 -6.232008e+00 -2.892045e+00 2.013741e+00 5.110692e+00 1.352564e+00 -2.177665e+00 -6.386491e-01 8.425457e-01 4.090818e-01 2.544548e-01 3.891586e+00 3.715476e-01 -1.213966e+00 -2.299733e+00 -3.001182e+00 -6.575012e-01 1.530509e+00 9.520516e-01 -7.788169e-01 -7.510363e-01 6.659349e-01 7.402411e-01 -1.049931e-01 -3.284861e-02
<VARIANCE> 42
 3.153339e+03 6.136352e+02 7.110995e+02 1.103393e+03 5.725341e+02 2.358189e+02 1.174638e+02 6.272457e+01 1.276679e+02 7.419701e+01 5.769469e+01 4.268257e+01 2.265963e+01 1.460531e+01 4.251685e+01 1.501561e+01 1.603795e+01 2.973934e+01 2.145319e+01 2.298106e+01 1.302411e+01 1.276645e+01 1.450731e+01 3.661396e+00 4.487378e+00 1.985897e+00 2.147751e+00 7.196597e-01 2.189136e+01 4.127438e+00 1.123361e+01 1.100974e+01 5.581167e+00 4.101157e+00 2.614159e+00 1.420724e+00 1.469683e+00 8.867925e-01 5.544828e-01 5.141299e-01 2.124409e-01 3.012680e-01
<GCONST> 1.892856e+02
<MIXTURE> 2 1.577492e-01
<MEAN> 42
 2.224863e+02 4.470825e+00 5.569515e-01 7.991853e+00 -3.070431e+00 -6.538138e+00 1.206623e+00 -6.950989e-01 -1.662825e+00 4.002910e-01 1.120343e-01 -3.818801e-02 -2.185041e-01 -2.121350e-01 3.672369e+01 1.942454e+01 -2.446890e-01 6.345608e-01 -9.804692e+00 -8.254628e+00 1.017133e+00 1.985752e+00 2.066310e-02 -6.098171e-01 -2.178331e-01 -7.943850e-02 -3.514418e-01 1.237768e-01 1.120707e+01 5.257989e+00 -3.002772e-01 -1.573320e-01 -2.152497e+00 -1.572129e+00 2.332825e-01 6.621105e-01 -1.179866e-03 -4.465136e-01 -2.132093e-01 1.849985e-02 -3.923822e-03 4.052696e-02
<VARIANCE> 42
 7.760871e+02 4.369394e+02 2.031576e+02 1.488383e+02 3.777106e+01 5.812094e+01 3.641899e+01 9.918451e+00 7.153756e+00 4.242792e+00 2.371617e+00 1.587289e+00 1.235070e+00 8.897496e-01 5.593086e+02 2.107051e+02 2.978023e+01 4.022633e+01 3.087259e+01 2.546631e+01 1.349666e+01 4.222293e+00 3.174006e+00 1.864803e+00 8.311508e-01 5.621119e-01 2.381083e-01 2.382124e-01 2.319386e+01 1.030398e+01 5.908188e+00 2.261351e+00 2.161575e+00 1.750890e+00 1.685854e+00 6.649023e-01 3.775934e-01 2.716174e-01 1.126952e-01 1.148277e-01 6.233303e-02 3.730774e-02
<GCONST> 1.431065e+02
<MIXTURE> 3 1.154096e-01
<MEAN> 42
 2.138268e+02 -5.994183e-01 -1.467869e-01 8.244945e-01 -6.465405e-01 -5.912120e-01 7.529753e-02 -7.949343e-02 3.814867e-02 -4.790596e-02 -2.911659e-02 2.831131e-02 -1.349714e-02 -2.361855e-02 6.052860e+01 3.298135e+01 2.634579e+00 5.010207e+00 -1.233435e+01 -1.372630e+01 -6.670651e-01 1.519225e+00 -4.966667e-01 -1.097701e+00 -8.543508e-01 -1.376145e-01 -4.213012e-01 3.814158e-03 1.253657e+01 6.578845e+00 9.943552e-01 1.302197e+00 -2.313203e+00 -2.375596e+00 7.544574e-02 3.789720e-01 -2.046718e-01 -1.705980e-01 -1.875193e-01 -1.905381e-01 -1.071928e-01 4.303906e-02
<VARIANCE> 42
 1.157818e+02 3.257573e+01 7.848009e+00 6.479959e+00 3.305766e+00 2.431392e+00 1.305520e+00 9.402778e-01 6.766554e-01 4.337216e-01 2.798963e-01 1.998125e-01 1.406659e-01 8.807394e-02 3.229612e+02 6.301691e+01 2.761750e+01 4.182513e+01 3.445895e+01 8.838181e+00 1.449601e+01 5.098610e+00 4.077672e+00 2.701534e+00 1.145000e+00 7.532411e-01 7.921232e-01 3.583960e-01 1.458210e+01 5.894040e+00 1.488237e+00 1.474147e+00 1.746054e+00 1.241839e+00 5.163879e-01 3.834632e-01 2.694467e-01 1.730929e-01 1.118980e-01 6.246127e-02 5.208827e-02 2.804019e-02
<GCONST> 1.009668e+02
<MIXTURE> 4 1.644034e-01
<MEAN> 42
 2.996906e+02 5.093596e+01 -6.572365e-01 1.556651e+00 -1.973397e+01 -2.732574e+01 -1.025194e+01 6.530550e-02 3.149842e+00 1.705122e+00 -2.923145e+00 -3.110307e+00 7.314548e-02 1.318918e+00 -2.260167e+01 -1.195393e+01 1.260455e-01 -3.132169e+00 -2.381471e+00 -2.588345e-01 1.379393e+00 2.384024e+00 6.502416e-01 -1.211407e+00 -5.558643e-01 3.758087e-01 4.681027e-01 3.261687e-02 -1.822756e+00 -1.765921e+00 -5.153539e-01 7.856250e-02 1.562977e+00 2.511488e+00 1.208264e+00 -2.388585e-01 -4.294631e-01 -3.356161e-02 2.541250e-01 1.915288e-01 -7.304522e-02 -9.233709e-02
<VARIANCE> 42
 2.372232e+03 4.580963e+02 4.139674e+02 3.671155e+02 6.200028e+02 2.314276e+02 3.476643e+02 1.800542e+02 7.137712e+01 5.307090e+01 3.413786e+01 1.867441e+01 1.485642e+01 1.091510e+01 1.235363e+02 5.476189e+01 2.241167e+01 3.100459e+01 2.661379e+01 1.996184e+01 1.243449e+01 1.056167e+01 3.387828e+00 2.945997e+00 1.647780e+00 9.373787e-01 8.929837e-01 3.006573e-01 2.534780e+01 5.169405e+00 4.380733e+00 3.035335e+00 6.669372e+00 1.848368e+00 3.444123e+00 1.332214e+00 8.480916e-01 6.285982e-01 3.634879e-01 1.846703e-01 1.519255e-01 6.877322e-02
<GCONST> 1.772686e+02
<MIXTURE> 5 2.578552e-01
<MEAN> 42
 3.112775e+02 4.310807e+01 -4.731846e+00 2.861926e+01 1.075106e+00 -1.335853e+01 -2.504051e+00 -1.204334e+00 9.524208e-01 -8.071870e-01 -1.442960e+00 8.497477e-01 -8.944671e-01 -7.261299e-01 1.904159e+01 1.140487e+01 2.727963e-01 -3.647906e+00 -7.856087e+00 -6.836735e+00 -8.426996e-01 2.128950e+00 5.850481e-01 -7.430068e-01 -5.112699e-01 2.123271e-01 -1.730369e-01 -2.145738e-01 4.946743e+00 1.813360e+00 -7.400250e-01 -1.873785e+00 -2.398122e+00 -8.549759e-01 4.634523e-01 5.571330e-01 -5.967477e-02 -2.337606e-01 -1.812981e-02 1.852033e-02 3.970985e-02 8.493761e-02
<VARIANCE> 42
 1.364969e+03 5.427158e+02 6.979373e+02 2.854244e+02 3.855309e+02 2.096904e+02 9.684142e+01 6.481216e+01 4.872077e+01 2.919837e+01 1.905909e+01 1.567566e+01 1.424160e+01 7.259530e+00 2.720947e+02 1.667608e+02 9.051907e+01 2.718483e+01 2.997604e+01 1.282132e+01 1.598025e+01 5.448749e+00 4.113664e+00 3.787297e+00 2.383717e+00 2.015134e+00 8.658478e-01 8.730377e-01 2.169592e+01 7.147166e+00 6.052368e+00 2.734176e+00 3.883285e+00 1.767660e+00 1.347059e+00 6.196174e-01 4.763604e-01 4.522196e-01 2.568437e-01 1.938836e-01 1.493109e-01 9.169473e-02
<GCONST> 1.743060e+02
<MIXTURE> 6 9.280378e-02
<MEAN> 42
 2.139397e+02 -1.075401e+00 -1.639232e+00 5.017258e-01 -5.157599e-01 -7.637315e-01 1.419601e-01 -7.943527e-02 6.007577e-02 -9.850854e-02 -1.480043e-01 7.821507e-02 4.508689e-03 -7.103208e-03 6.219664e+01 2.886234e+01 -1.034085e+01 -8.342030e+00 -1.565517e+01 -8.345939e+00 6.065834e+00 3.908171e+00 -1.776747e+00 -1.433347e+00 5.630889e-01 1.119387e+00 -7.784206e-01 -4.100358e-01 1.428491e+01 6.365795e+00 -2.006635e+00 -1.998310e+00 -3.486418e+00 -1.436378e+00 1.214970e+00 2.618999e-01 -8.680488e-01 -2.125576e-01 3.452690e-01 2.380392e-01 -1.847187e-01 -1.239184e-01
<VARIANCE> 42
 2.716879e+02 5.659497e+01 1.070585e+01 6.479959e+00 5.147916e+00 3.555609e+00 1.305520e+00 1.089504e+00 6.766554e-01 4.502408e-01 2.798963e-01 1.998125e-01 1.406659e-01 8.807394e-02 1.825885e+02 4.922260e+01 3.640044e+01 1.257722e+01 2.308502e+01 1.324203e+01 8.138420e+00 2.846475e+00 6.893995e+00 2.203117e+00 2.614016e+00 1.052977e+00 1.015403e+00 3.876638e-01 2.191663e+01 5.741948e+00 3.738642e+00 2.322615e+00 3.263359e+00 1.334080e+00 5.294532e-01 5.176191e-01 4.778973e-01 3.938510e-01 2.273117e-01 5.832927e-02 7.848216e-02 4.791311e-02
<GCONST> 1.083597e+02
<MIXTURE> 7 1.434824e-01
<MEAN> 42
 3.536819e+02 6.375314e+01 -3.482042e+01 -9.094249e+00 1.959132e+00 -1.605059e+01 -2.138730e+01 -4.707812e+00 1.605311e+01 9.805996e+00 -1.004458e+01 -9.788932e+00 2.162139e+00 3.147262e+00 -6.707992e+00 -8.072302e+00 -1.028746e+00 5.077963e+00 -1.488192e+00 -6.795403e+00 -3.777854e-01 6.513433e+00 2.545641e+00 -3.637886e+00 -2.580703e+00 1.332523e+00 1.752658e+00 8.951041e-02 -4.151486e-01 3.091803e-01 2.071221e+00 3.134384e-01 -1.564300e+00 3.620663e-01 2.157424e+00 4.696759e-01 -1.809912e+00 -1.138013e+00 9.228970e-01 1.008817e+00 -2.726450e-01 -4.337338e-01
<VARIANCE> 42
 2.096630e+03 3.483290e+02 2.236162e+02 2.957520e+02 2.162112e+02 1.021869e+02 1.172055e+02 7.298669e+01 3.917525e+01 5.058271e+01 1.840032e+01 3.813966e+01 1.861753e+01 1.948565e+01 1.521208e+02 2.765520e+01 1.731300e+01 1.279862e+01 1.451790e+01 1.356804e+01 5.905774e+00 4.394232e+00 5.355170e+00 2.912375e+00 3.711715e+00 1.593110e+00 1.540244e+00 1.024717e+00 1.438633e+01 2.578864e+00 3.485547e+00 1.343368e+00 2.510026e+00 1.207369e+00 1.128566e+00 6.868947e-01 6.181847e-01 5.928901e-01 2.113449e-01 4.048655e-01 2.262516e-01 1.948975e-01
<GCONST> 1.675809e+02
<STATE> 6
<NUMMIXES> 7
<MIXTURE> 1 1.440726e-01
<MEAN> 42
 3.467967e+02 5.495719e+01 -3.456891e+01 -4.896270e+00 -5.805363e+00 -2.774324e+01 -1.799191e+01 9.712819e+00 1.894298e+01 -1.699641e-01 -1.389795e+01 -4.735585e+00 5.988141e+00 3.234558e+00 -3.808227e+00 -6.286914e+00 7.978919e-01 5.035997e+00 -3.792543e+00 -6.259639e+00 2.328009e+00 6.421236e+00 -1.708249e-01 -4.787935e+00 -1.032115e+00 2.628848e+00 1.261560e+00 -6.333894e-01 1.146237e+00 1.427292e+00 1.979127e+00 1.489282e-01 -9.298389e-01 1.118167e+00 1.719217e+00 -7.791160e-01 -2.066703e+00 -1.976057e-01 1.424844e+00 5.722374e-01 -7.125208e-01 -4.658091e-01
<VARIANCE> 42
 3.919169e+03 8.008603e+02 3.598302e+02 4.252302e+02 2.350844e+02 1.660380e+02 8.816219e+01 4.656902e+01 3.845572e+01 4.490229e+01 2.531813e+01 3.219466e+01 2.024050e+01 1.652883e+01 1.347306e+02 2.594828e+01 2.407487e+01 1.459114e+01 1.658906e+01 1.040485e+01 6.140993e+00 4.142692e+00 4.454762e+00 3.384098e+00 3.487577e+00 1.701213e+00 1.433834e+00 1.122168e+00 1.932408e+01 4.140933e+00 3.101761e+00 2.105402e+00 1.958543e+00 1.457441e+00 9.819845e-01 5.790469e-01 9.347801e-01 5.080820e-01 4.144423e-01 3.269438e-01 2.334888e-01 2.085115e-01
<GCONST> 1.713057e+02
<MIXTURE> 2 1.102742e-01
<MEAN> 42
 2.603797e+02 2.255334e+01 4.514748e-01 1.415320e+01 -1.140519e+00 -6.729980e+00 1.227613e+00 -4.588969e-01 -1.602329e+00 -7.534774e-01 -1.054906e+00 -5.447990e-01 -4.599674e-01 1.057537e-01 2.384067e+01 8.343872e+00 -5.962745e+00 -5.874999e+00 -9.618272e+00 -4.639392e+00 3.306851e+00 3.722292e+00 3.816757e-01 -9.052299e-01 1.723207e-01 3.182612e-01 -4.560974e-01 1.598351e-01 4.820468e+00 1.865830e+00 -6.661518e-01 -6.607178e-01 -1.224912e+00 -5.002010e-01 4.088226e-01 2.814411e-01 -1.251642e-01 -9.420728e-02 1.310503e-01 1.653767e-01 5.840855e-04 -7.104786e-02
<VARIANCE> 42
 3.704525e+03 1.139581e+03 3.185345e+02 2.934946e+02 1.424863e+02 8.491517e+01 6.568045e+01 2.241313e+01 1.655914e+01 8.151764e+00 9.621156e+00 3.246846e+00 3.307841e+00 1.859854e+00 8.729320e+02 2.359783e+02 5.805422e+01 4.085601e+01 5.649255e+01 1.691589e+01 1.552694e+01 6.344269e+00 6.578853e+00 3.145177e+00 1.426557e+00 1.780008e+00 9.473049e-01 6.135427e-01 2.303061e+01 9.900098e+00 2.329842e+00 1.895013e+00 2.349777e+00 1.326267e+00 7.108299e-01 4.475679e-01 3.118476e-01 1.816411e-01 7.638159e-02 8.522359e-02 4.402212e-02 4.333455e-02
<GCONST> 1.583681e+02
<MIXTURE> 3 1.563186e-01
<MEAN> 42
 3.812139e+02 7.596928e+01 -2.074759e+01 2.395491e+00 -3.131647e+01 -3.013134e+01 8.186110e+00 1.016188e+01 2.533472e-01 -4.599280e+00 -2.018329e+00 1.994340e+00 -1.040271e+00 -5.739743e-01 5.885236e+01 2.735450e+01 -5.864240e+00 -6.344930e+00 -1.582264e+01 -9.103677e+00 3.904391e+00 2.708574e+00 -1.487278e+00 -1.518279e+00 -1.818104e-01 8.271104e-01 -1.020137e-01 -1.197294e-01 3.521429e-01 -3.632092e-01 7.156397e-01 -1.240537e-01 1.409342e-01 6.896006e-01 -5.190437e-02 -5.709409e-01 -6.344738e-01 -1.718552e-02 1.849235e-01 4.485772e-02 6.801080e-02 -1.512728e-02
<VARIANCE> 42
 2.444910e+03 1.224835e+03 6.180037e+02 6.078674e+02 6.342147e+02 3.045247e+02 2.379960e+02 1.131341e+02 7.898771e+01 3.972430e+01 2.935490e+01 2.194328e+01 1.700535e+01 6.423485e+00 5.537892e+02 1.959562e+02 4.570432e+01 4.563650e+01 3.360720e+01 1.591369e+01 1.850544e+01 8.002463e+00 1.046806e+01 4.994253e+00 4.006512e+00 1.957604e+00 1.491787e+00 6.387500e-01 1.763707e+01 7.404281e+00 4.612931e+00 3.836490e+00 3.420618e+00 2.068281e+00 1.387576e+00 8.709768e-01 5.510157e-01 5.319659e-01 2.906872e-01 1.296347e-01 1.163659e-01 8.124489e-02
<GCONST> 1.837340e+02
<MIXTURE> 4 1.682193e-01
<MEAN> 42
 2.731456e+02 3.556664e+01 5.957750e+00 6.037376e+00 -1.869345e+01 -2.012182e+01 -3.682616e+00 2.328063e+00 3.540685e+00 -1.252261e-01 -2.570561e+00 -3.991431e-01 -2.088855e-01 -3.121338e-01 -9.803268e+00 -9.674239e+00 -4.062093e+00 -4.964987e+00 -2.828701e+00 2.373543e+00 4.269271e+00 2.299990e+00 -4.901289e-01 -7.055656e-01 6.308942e-01 7.031440e-01 -4.826605e-02 -4.487358e-02 6.722697e+00 1.747503e+00 -1.881587e+00 -3.144741e-01 -1.965655e-01 7.200889e-01 9.478754e-01 -1.583926e-01 -5.059119e-01 -1.732608e-02 2.628498e-01 1.670011e-01 -3.088617e-02 -2.688043e-02
<VARIANCE> 42
 4.323166e+03 7.654257e+02 2.816844e+02 6.005983e+02 4.001164e+02 1.577776e+02 9.336463e+01 5.441079e+01 4.089994e+01 2.774524e+01 2.749994e+01 1.390427e+01 7.875545e+00 1.329432e+01 3.714730e+02 8.906635e+01 3.347253e+01 3.293488e+01 5.490836e+01 2.371819e+01 1.021736e+01 7.167172e+00 3.289796e+00 2.923844e+00 1.648947e+00 1.701367e+00 8.762668e-01 7.222384e-01 3.430388e+01 8.613736e+00 3.731225e+00 5.092483e+00 4.023852e+00 1.802900e+00 1.261444e+00 6.285222e-01 3.792675e-01 3.919058e-01 2.801139e-01 2.064865e-01 9.797567e-02 1.757069e-01
<GCONST> 1.747392e+02
<MIXTURE> 5 1.723513e-01
<MEAN> 42
 3.519842e+02 9.715224e+01 2.278583e+01 1.942106e+01 -2.397553e+01 -4.178721e+01 -1.617014e+01 2.006132e-01 2.564046e+00 -9.800532e-01 -2.557792e+00 -4.306937e-01 -1.348325e+00 -1.522174e+00 1.091994e+01 1.003550e+01 3.143255e+00 -3.654326e+00 -6.141770e+00 -5.454398e+00 -9.147186e-01 1.482210e+00 3.910442e-02 -2.566749e-01 -6.095799e-01 -3.214982e-01 6.028622e-02 -2.228722e-01 -4.140109e+00 -6.128388e+00 -3.459573e+00 -6.109859e-01 8.810932e-01 2.625677e+00 1.829757e+00 3.295624e-01 -1.124581e-01 -2.171949e-01 7.082465e-02 1.116825e-01 1.074144e-01 1.557411e-01
<VARIANCE> 42
 1.432211e+03 1.041371e+03 4.187404e+02 4.152841e+02 5.024327e+02 2.531415e+02 2.152254e+02 9.081052e+01 4.611564e+01 3.698121e+01 2.437805e+01 1.952520e+01 1.571127e+01 9.212077e+00 4.899515e+02 1.413940e+02 6.874820e+01 2.493697e+01 2.442658e+01 2.200910e+01 7.786558e+00 3.562571e+00 2.151448e+00 2.468054e+00 1.058152e+00 1.024305e+00 6.081919e-01 4.243765e-01 3.538050e+01 1.677548e+01 6.448723e+00 4.961915e+00 5.666012e+00 2.345461e+00 1.457956e+00 6.867081e-01 4.053541e-01 4.155788e-01 2.993632e-01 1.829762e-01 1.223965e-01 8.024963e-02
<GCONST> 1.754176e+02
<MIXTURE> 6 1.114762e-01
<MEAN> 42
 2.608255e+02 3.375674e+01 -8.084064e+00 -1.793730e+01 -2.323052e+01 -2.357818e+01 6.256696e-01 1.712119e+01 5.048428e+00 -7.181801e+00 -4.189473e+00 1.837820e+00 1.497373e+00 -7.782320e-01 -2.175145e+01 -1.323555e+01 8.652192e-01 9.715352e-02 -5.313455e-01 2.344752e+00 3.338875e+00 8.294214e-01 -1.826393e+00 -7.910467e-01 1.294086e+00 6.106194e-01 -2.828576e-01 6.524412e-02 2.149806e+00 4.905687e-01 2.099464e-01 1.397968e+00 1.535010e+00 1.623122e+00 -1.809360e-01 -1.829668e+00 -5.181303e-01 8.032957e-01 2.981614e-01 -3.076203e-01 -2.383995e-01 4.943548e-03
<VARIANCE> 42
 2.980831e+03 7.197301e+02 3.092707e+02 3.589107e+02 2.889438e+02 2.408544e+02 1.399490e+02 1.160885e+02 5.156857e+01 3.774055e+01 1.793412e+01 1.593342e+01 1.178731e+01 3.730613e+00 1.436422e+02 4.616470e+01 2.969577e+01 2.395742e+01 3.186574e+01 1.331198e+01 1.388363e+01 9.958212e+00 3.267535e+00 3.338855e+00 1.102270e+00 8.454450e-01 5.650902e-01 2.140601e-01 1.358267e+01 6.394891e+00 2.913929e+00 3.730726e+00 3.759303e+00 3.401815e+00 2.760772e+00 9.367599e-01 8.139843e-01 2.464145e-01 2.898274e-01 1.410008e-01 1.193612e-01 5.180416e-02
<GCONST> 1.682576e+02
<MIXTURE> 7 1.372876e-01
<MEAN> 42
 3.148255e+02 4.521218e+01 -6.158381e+00 2.401620e+01 -1.305885e+01 -2.380066e+01 1.440325e-01 2.507878e+00 7.653272e-01 -1.899564e+00 -2.284050e-01 1.757921e+00 -1.548087e+00 -1.116879e+00 5.836121e+01 3.245401e+01 4.093970e+00 4.742320e+00 -1.179795e+01 -1.321018e+01 -1.335953e+00 2.191386e+00 -1.101876e-01 -1.434590e+00 -8.848539e-01 -3.060631e-01 -6.125567e-01 3.611138e-02 2.774032e+00 9.616122e-01 7.275760e-01 -1.217535e-01 -3.407326e-01 2.451917e-01 1.876120e-01 1.335391e-01 -2.664705e-01 -2.060793e-01 -1.414054e-01 -1.992480e-01 1.685794e-02 7.294729e-02
<VARIANCE> 42
 1.909012e+03 6.341556e+02 3.296295e+02 2.981614e+02 1.355274e+02 1.865391e+02 5.530155e+01 3.238662e+01 1.583623e+01 2.113552e+01 3.549875e+00 1.114229e+01 4.993295e+00 3.505759e+00 4.703319e+02 1.102543e+02 3.261413e+01 5.393964e+01 3.167629e+01 1.709443e+01 1.258593e+01 5.818235e+00 4.089985e+00 2.893671e+00 1.332154e+00 7.523484e-01 5.330359e-01 3.271864e-01 1.046942e+01 6.889362e+00 3.035178e+00 2.442832e+00 1.479115e+00 1.191273e+00 5.567819e-01 3.836187e-01 2.435968e-01 2.529911e-01 7.136764e-02 9.818628e-02 5.170170e-02 5.211274e-02
<GCONST> 1.539591e+02
<STATE> 7
<NUMMIXES> 7
<MIXTURE> 1 1.200748e-01
<MEAN> 42
 1.726750e+02 -2.247584e+01 1.834896e+00 6.075388e-01 2.323605e+00 2.540211e+00 6.088759e-01 1.872109e-01 -2.472167e-01 1.171767e-01 3.482741e-01 2.325508e-02 2.351043e-01 4.732266e-02 2.815134e+01 9.887501e+00 -4.289283e+00 -1.158748e+00 -6.758901e+00 -2.158003e+00 4.247983e+00 6.168428e-01 -1.850258e+00 -3.038684e-01 4.901065e-01 3.270430e-01 -2.871245e-01 -1.083826e-02 1.948198e+01 9.076258e+00 -2.018851e+00 -1.474021e+00 -4.491828e+00 -2.272579e+00 1.613168e+00 6.182525e-01 -7.635106e-01 -3.144113e-01 9.509488e-02 1.210646e-01 -1.594668e-01 -4.883679e-03
<VARIANCE> 42
 1.623896e+02 6.040531e+01 1.560360e+01 2.811533e+01 6.206405e+00 6.397709e+00 3.045483e+00 3.923954e+00 1.611856e+00 7.692815e-01 6.587827e-01 1.998125e-01 3.895641e-01 1.346025e-01 6.605724e+02 1.486728e+02 2.811590e+01 2.057644e+01 5.941593e+01 2.181435e+01 1.235451e+01 6.821748e+00 2.768032e+00 1.544911e+00 1.370554e+00 4.527900e-01 4.785750e-01 2.484443e-01 1.889483e+01 5.552934e+00 4.687554e+00 2.650436e+00 3.564981e+00 1.688455e+00 8.395817e-01 8.110131e-01 4.082685e-01 3.113979e-01 2.995563e-01 1.316323e-01 1.336515e-01 5.917124e-02
<GCONST> 1.206183e+02
<MIXTURE> 2 1.677550e-01
<MEAN> 42
 3.755314e+02 7.258564e+01 -1.091436e+01 1.251271e+01 -3.430271e+01 -3.841044e+01 4.068111e-01 9.456602e+00 2.805792e+00 -3.187478e+00 -1.686649e+00 1.079604e+00 -2.391940e+00 -5.407508e-01 2.080499e+01 7.132496e+00 -3.744544e+00 -3.724688e+00 -7.978233e+00 -3.558561e+00 2.646685e+00 2.188174e+00 -5.217805e-01 -9.032750e-01 -6.990618e-02 5.609058e-02 -1.129652e-01 2.122907e-01 -1.513662e+00 -8.992155e-01 6.222794e-01 3.190960e-01 1.193452e+00 1.505720e+00 4.245361e-01 -2.958628e-01 -4.767110e-01 -1.012110e-01 4.658822e-02 -1.905974e-02 1.599649e-01 3.370002e-02
<VARIANCE> 42
 1.509279e+03 6.453304e+02 3.314904e+02 3.414895e+02 4.180689e+02 2.887946e+02 2.410145e+02 8.348653e+01 7.488614e+01 4.944786e+01 3.454091e+01 2.489380e+01 1.825730e+01 1.080938e+01 2.654204e+02 1.016308e+02 4.161895e+01 5.734248e+01 3.387144e+01 2.312619e+01 1.313601e+01 6.487728e+00 4.060835e+00 3.229169e+00 2.617143e+00 1.532275e+00 1.057484e+00 5.736770e-01 1.512802e+01 6.367922e+00 3.527270e+00 1.668376e+00 2.469249e+00 1.846258e+00 1.326665e+00 6.945322e-01 5.084130e-01 3.895818e-01 2.288771e-01 2.155529e-01 1.333629e-01 1.106912e-01
<GCONST> 1.759697e+02
<MIXTURE> 3 1.967484e-01
<MEAN> 42
 2.013682e+02 -6.044147e+00 3.429073e-01 -1.192800e+00 3.632125e-02 2.201613e-01 1.280434e-01 3.260717e-01 2.660980e-02 6.673954e-02 -1.722804e-01 -1.042099e-01 2.028723e-01 2.562505e-02 1.076584e+00 5.496298e-01 -5.490098e-02 1.039994e-01 -1.154391e-02 -4.567054e-02 -3.663585e-02 -3.760782e-02 1.645057e-02 -1.937359e-03 2.352758e-03 1.590009e-02 -1.405818e-02 -9.580590e-03 4.787423e-02 1.584042e-02 -1.905965e-02 -9.679663e-04 -6.118495e-03 -1.102678e-02 8.471553e-03 8.314643e-03 -2.688364e-03 -3.833206e-03 2.675871e-03 8.938687e-04 -2.707091e-03 2.123925e-03
<VARIANCE> 42
 1.134917e+02 4.139127e+01 9.324061e+00 6.479959e+00 3.305766e+00 2.431392e+00 1.341538e+00 1.598770e+00 9.624448e-01 4.337216e-01 4.928317e-01 1.998125e-01 1.406659e-01 8.807394e-02 2.111965e+00 8.595976e-01 3.779708e-01 2.728012e-01 1.795417e-01 1.292579e-01 7.528293e-02 5.413521e-02 3.842242e-02 2.626597e-02 1.666831e-02 1.158842e-02 7.896199e-03 5.180163e-03 2.451963e-01 1.078194e-01 4.939062e-02 3.459753e-02 2.646868e-02 1.913280e-02 1.178670e-02 8.276490e-03 5.915467e-03 4.184602e-03 2.669029e-03 1.869872e-03 1.262856e-03 8.667234e-04
<GCONST> -1.485282e+01
<MIXTURE> 4 1.567681e-01
<MEAN> 42
 5.007852e+02 1.530764e+02 -8.155322e+00 2.306098e+00 -6.411947e+01 -5.623376e+01 8.659462e+00 1.380122e+01 -1.398071e+00 -6.502639e+00 -2.658947e+00 1.599211e+00 -2.927736e+00 -1.107716e+00 6.349915e+01 3.129721e+01 -8.234048e-01 -8.868003e-01 -1.370295e+01 -9.757212e+00 2.270887e+00 2.169491e+00 -1.878484e+00 -1.607326e+00 -2.299148e-01 2.071529e-01 -4.968059e-01 -1.147967e-01 -1.098366e+01 -6.952523e+00 6.990607e-01 5.545833e-01 3.046157e+00 2.932122e+00 -1.530616e-01 -8.880772e-01 -3.546081e-01 2.800492e-01 1.837480e-01 -1.375741e-01 8.850519e-02 3.201300e-02
<VARIANCE> 42
 5.826370e+03 1.682296e+03 1.375968e+03 1.849783e+03 1.020125e+03 5.865686e+02 5.890087e+02 1.890693e+02 1.485653e+02 5.962757e+01 5.302830e+01 3.001451e+01 2.043557e+01 1.132582e+01 1.953418e+02 6.330803e+01 6.562105e+01 7.934776e+01 2.778479e+01 1.802386e+01 1.886549e+01 6.361438e+00 6.391867e+00 4.435763e+00 3.240158e+00 1.714738e+00 8.047900e-01 5.164603e-01 3.225470e+01 1.120130e+01 9.380167e+00 8.344720e+00 4.804353e+00 2.909996e+00 2.680708e+00 1.067745e+00 7.815127e-01 3.792278e-01 3.526998e-01 1.923002e-01 1.593613e-01 8.547265e-02
<GCONST> 1.937692e+02
<MIXTURE> 5 1.433748e-01
<MEAN> 42
 1.859713e+02 -1.588821e+01 6.377658e-01 1.432498e-02 -3.410101e+00 -2.352546e+00 1.889959e+00 2.528183e+00 6.330488e-01 -3.313888e-01 -2.041361e-01 9.312834e-02 -1.333371e-01 -5.951637e-02 1.717513e+01 3.757626e+00 -4.020199e+00 2.139218e-03 -3.748028e+00 -1.055123e+00 3.381905e+00 1.652278e+00 -1.139841e+00 -1.226508e+00 3.020967e-01 6.678250e-01 -1.727910e-01 -6.672227e-02 1.453481e+01 7.398163e+00 -5.059255e-01 4.175625e-01 -1.653937e+00 -1.726204e+00 -2.628676e-01 -9.076274e-02 -2.472994e-01 -1.803831e-01 -6.520750e-02 -4.425063e-02 -1.155265e-01 1.005621e-02
<VARIANCE> 42
 4.959796e+02 1.869969e+02 6.058860e+01 7.079716e+01 4.125061e+01 2.347155e+01 1.567420e+01 1.171487e+01 7.378175e+00 3.730979e+00 1.653041e+00 1.364005e+00 7.170745e-01 6.533579e-01 1.139923e+03 2.987124e+02 4.485920e+01 3.224458e+01 6.548651e+01 4.565319e+01 1.740595e+01 9.599652e+00 4.688908e+00 3.773623e+00 2.409051e+00 1.651784e+00 9.258351e-01 6.555035e-01 3.176299e+01 9.698579e+00 4.118840e+00 3.715494e+00 3.418072e+00 2.984878e+00 1.694186e+00 8.156390e-01 5.045353e-01 3.885186e-01 3.147399e-01 1.420852e-01 1.222823e-01 4.785869e-02
<GCONST> 1.505688e+02
<MIXTURE> 6 1.052043e-01
<MEAN> 42
 3.611215e+02 5.582854e+01 -3.413598e+01 1.162975e+00 -1.518703e+01 -3.222163e+01 -6.797796e+00 1.700957e+01 1.249395e+01 -7.302389e+00 -1.176999e+01 1.538047e+00 6.265407e+00 -5.159317e-01 1.015888e+01 1.978624e+00 -3.924001e-01 9.160591e-01 -5.410417e+00 -4.377104e+00 2.954986e+00 4.298149e+00 -1.469545e+00 -3.760325e+00 4.432502e-01 2.536692e+00 4.861254e-02 -9.283163e-01 5.058211e-01 1.006429e+00 1.836443e+00 2.952597e-01 -1.790743e-02 1.049855e+00 4.691598e-01 -1.339578e+00 -1.258678e+00 5.802595e-01 9.765308e-01 -1.933672e-01 -7.195563e-01 -6.056916e-02
<VARIANCE> 42
 2.337937e+03 4.900366e+02 4.568867e+02 4.250399e+02 2.233603e+02 1.949007e+02 2.049339e+02 6.915215e+01 7.969278e+01 3.545730e+01 3.226979e+01 2.115661e+01 2.028271e+01 1.767593e+01 3.450035e+02 8.892349e+01 4.056571e+01 4.786467e+01 1.787445e+01 1.272836e+01 1.071613e+01 5.333036e+00 6.224071e+00 3.789352e+00 3.130944e+00 1.674342e+00 1.189863e+00 1.007980e+00 1.881865e+01 4.545671e+00 4.951406e+00 2.684411e+00 2.205198e+00 1.983270e+00 1.123266e+00 7.664916e-01 9.028020e-01 5.624235e-01 4.347030e-01 1.767356e-01 2.616456e-01 1.466368e-01
<GCONST> 1.781461e+02
<MIXTURE> 7 1.100746e-01
<MEAN> 42
 1.792470e+02 -1.837351e+01 6.570557e-01 -1.440833e+00 1.384190e+00 1.629113e+00 5.920832e-01 1.058891e+00 -8.402531e-02 -3.220671e-01 -8.004563e-03 3.545067e-02 3.190671e-01 -3.347956e-03 5.144481e+00 8.114384e-01 -9.735417e-01 9.984471e-01 -5.648254e-01 -3.388738e-01 6.680208e-01 -4.642206e-02 -2.738871e-01 -7.594524e-02 8.907802e-02 5.637582e-03 -2.920064e-02 1.108498e-01 1.069802e+01 5.384985e+00 -1.426699e-01 3.764041e-01 -2.363854e+00 -1.967807e+00 6.111480e-02 2.503793e-02 -3.193020e-02 9.485478e-03 -1.471946e-01 -1.164434e-01 -6.674027e-02 3.798177e-02
<VARIANCE> 42
 2.681402e+02 9.076493e+01 1.270119e+01 1.564993e+01 7.581243e+00 4.114109e+00 3.686019e+00 2.946504e+00 1.087263e+00 6.771908e-01 5.338936e-01 2.355164e-01 2.791683e-01 2.433376e-01 2.717288e+02 8.590186e+01 4.857429e+00 7.651672e+00 2.478163e+01 1.655971e+01 2.581465e+00 1.396428e+00 9.314474e-01 2.207199e-01 3.117971e-01 1.965732e-01 7.898337e-02 1.263711e-01 4.991038e+01 1.320671e+01 2.019623e+00 2.101858e+00 4.854047e+00 2.552749e+00 1.052435e+00 5.434079e-01 2.866844e-01 1.159480e-01 1.168652e-01 6.766904e-02 3.435300e-02 3.458891e-02
<GCONST> 1.002466e+02
<STATE> 8
<NUMMIXES> 7
<MIXTURE> 1 1.163165e-01
<MEAN> 42
 5.905212e+02 2.022708e+02 2.372335e+01 2.938863e+01 -7.475175e+01 -7.996078e+01 -6.198091e+00 1.303476e+01 -2.639966e+00 -9.778863e+00 -6.517465e+00 -2.275752e+00 -3.028563e+00 8.618363e-01 4.762960e+01 2.299455e+01 5.298325e+00 5.652786e+00 -6.803708e+00 -6.759038e+00 6.263139e-01 1.782610e+00 -1.095804e+00 -1.205869e+00 -7.335952e-01 -8.465714e-01 -5.459926e-01 1.780082e-01 -2.419626e+01 -1.428995e+01 -1.029735e+00 -7.963908e-01 5.570836e+00 6.014292e+00 8.679311e-01 -9.516876e-01 -1.423930e-02 7.948766e-01 5.225459e-01 9.727101e-02 1.763913e-01 -4.129342e-02
<VARIANCE> 42
 2.524554e+03 5.772411e+02 5.588759e+02 1.069008e+03 1.122824e+03 1.961111e+02 4.568229e+02 2.104655e+02 1.672583e+02 8.023482e+01 4.032306e+01 2.292087e+01 1.566773e+01 1.135134e+01 1.145434e+02 4.648360e+01 8.130756e+00 2.209404e+01 1.562754e+01 9.149257e+00 6.827796e+00 6.893245e+00 2.707111e+00 2.853930e+00 1.300150e+00 5.800798e-01 5.186340e-01 3.541872e-01 2.481099e+01 6.156801e+00 5.155547e+00 9.234693e+00 8.502355e+00 2.583947e+00 3.123185e+00 1.171837e+00 1.037497e+00 5.136855e-01 2.965094e-01 2.249472e-01 1.439569e-01 6.996275e-02
<GCONST> 1.779709e+02
<MIXTURE> 2 1.986039e-01
<MEAN> 42
 3.971624e+02 7.131070e+01 -1.888997e+01 -6.349091e+00 -5.193421e+01 -3.348424e+01 1.168989e+01 1.277408e+01 -1.431807e-01 -5.611514e+00 -2.774471e+00 8.757691e-01 -4.245064e-01 1.215118e+00 1.120786e+01 2.032791e+00 -5.723435e+00 -7.431070e+00 -6.250077e+00 1.316331e-01 4.031367e+00 2.073032e+00 -1.168963e+00 -8.229234e-01 1.928947e-01 2.661979e-01 5.022234e-01 1.666687e-01 -4.610312e+00 -1.167580e+00 1.646550e+00 2.076400e+00 3.302984e+00 1.699020e+00 -5.964020e-01 -1.008741e+00 -3.839189e-01 2.544507e-01 2.350665e-01 8.917092e-03 1.278034e-02 -1.212243e-01
<VARIANCE> 42
 8.634141e+02 3.859078e+02 2.852397e+02 3.328008e+02 2.772755e+02 3.028415e+02 2.427225e+02 1.068398e+02 9.331506e+01 5.842040e+01 4.003085e+01 3.665928e+01 2.010643e+01 1.263109e+01 7.489091e+01 2.520134e+01 1.744204e+01 1.983739e+01 2.640439e+01 1.630190e+01 8.166185e+00 4.675556e+00 3.754077e+00 2.250953e+00 3.753946e+00 1.058448e+00 1.087811e+00 7.279783e-01 1.156718e+01 5.146056e+00 2.076250e+00 2.232127e+00 3.168316e+00 2.864563e+00 1.774050e+00 1.155039e+00 9.835822e-01 4.900628e-01 3.506589e-01 2.392490e-01 1.776941e-01 1.077135e-01
<GCONST> 1.720578e+02
<MIXTURE> 3 1.142794e-01
<MEAN> 42
 3.156239e+02 3.694494e+01 -8.402782e+00 3.094598e+01 -1.473347e+01 -2.691073e+01 5.284540e+00 8.035501e+00 -1.279808e+00 -5.534834e+00 1.305056e+00 3.408636e+00 -3.424890e+00 -1.300932e+00 1.867933e+01 6.405046e+00 3.818199e-02 2.810409e+00 -4.419440e+00 -1.660555e+00 2.738994e+00 7.932478e-01 -1.207587e+00 -7.283513e-01 4.161830e-01 1.561604e-01 -4.292868e-01 4.279062e-02 4.140297e+00 2.760774e+00 7.246451e-01 -8.537361e-01 -2.633482e-01 -8.842985e-02 -6.180771e-01 -2.131180e-01 -5.720385e-02 1.911424e-01 -9.912913e-02 -2.414777e-01 1.521949e-01 1.086925e-01
<VARIANCE> 42
 2.910167e+03 1.459530e+03 3.249909e+02 2.752519e+02 1.065363e+02 1.494988e+02 1.670067e+02 5.412563e+01 4.785894e+01 1.845486e+01 2.218961e+01 5.386487e+00 9.943011e+00 4.321641e+00 3.886272e+02 1.272846e+02 1.478078e+01 2.317987e+01 1.278707e+01 2.712553e+01 1.376175e+01 4.845291e+00 3.120316e+00 1.745949e+00 1.245316e+00 6.183023e-01 5.393983e-01 3.232095e-01 2.749348e+01 1.377486e+01 3.404510e+00 5.542317e+00 1.842572e+00 1.498892e+00 1.819351e+00 6.501241e-01 5.893945e-01 2.964899e-01 2.847909e-01 7.584457e-02 1.175624e-01 2.423747e-02
<GCONST> 1.629664e+02
<MIXTURE> 4 1.286113e-01
<MEAN> 42
 3.151930e+02 2.957707e+01 -1.850541e+01 1.565349e+00 -3.136405e+01 -1.555212e+01 1.740961e+01 4.626318e+00 -5.635764e+00 -7.642687e-01 1.982408e+00 1.564237e-01 -1.787712e+00 7.929796e-01 5.721087e+01 2.408249e+01 -5.878343e+00 -4.842617e+00 -1.457592e+01 -5.238149e+00 5.996605e+00 1.169857e+00 -3.130671e+00 -9.311283e-01 4.749722e-01 1.112401e-01 -4.447995e-01 2.772706e-01 1.403787e+00 1.463221e+00 1.313419e+00 1.993089e-01 -3.146430e-02 2.046427e-01 -6.736455e-01 -5.021142e-01 -1.188085e-01 -1.266747e-01 -1.829402e-01 -2.416571e-02 8.358371e-02 -3.382443e-02
<VARIANCE> 42
 3.379581e+03 6.415637e+02 3.125638e+02 2.436104e+02 5.653701e+02 2.343358e+02 1.073578e+02 6.911208e+01 3.034495e+01 1.150797e+01 1.138683e+01 1.240211e+01 7.812184e+00 4.751804e+00 2.926519e+02 8.839245e+01 4.926088e+01 3.084189e+01 3.403185e+01 2.643745e+01 9.319029e+00 4.409757e+00 2.667802e+00 2.301579e+00 2.812178e+00 1.290183e+00 1.310595e+00 7.255123e-01 1.673258e+01 4.258003e+00 2.283279e+00 2.584268e+00 2.451283e+00 1.083946e+00 8.715639e-01 6.846608e-01 2.483702e-01 1.987607e-01 1.908705e-01 1.344491e-01 1.038035e-01 5.890780e-02
<GCONST> 1.639388e+02
<MIXTURE> 5 1.408759e-01
<MEAN> 42
 5.453809e+02 1.572526e+02 -4.951952e+01 -4.341107e+01 -7.928662e+01 -4.229716e+01 2.702559e+01 1.973654e+01 -8.374042e+00 -9.906080e+00 6.037184e-01 6.575588e+00 -2.480861e+00 -2.553710e+00 4.722590e+01 2.019467e+01 -4.742525e+00 -6.164278e+00 -1.088298e+01 -4.009959e+00 3.508241e+00 2.560769e-01 -3.852627e+00 -1.220233e+00 1.120485e+00 1.039175e+00 -2.103397e-01 -3.404458e-01 -1.854955e+01 -9.810333e+00 3.468890e+00 3.718310e+00 5.038806e+00 2.795563e+00 -1.755880e+00 -1.931853e+00 -1.050046e-01 6.137911e-01 -1.436967e-02 -4.161900e-01 1.604322e-01 1.581607e-01
<VARIANCE> 42
 4.406240e+03 1.427245e+03 1.303210e+03 7.000104e+02 7.026747e+02 3.603633e+02 4.840380e+02 1.306829e+02 2.701793e+02 1.180868e+02 1.129624e+02 3.399969e+01 5.170706e+01 1.341136e+01 1.590129e+02 7.029753e+01 4.414935e+01 2.977570e+01 1.427823e+01 1.418460e+01 9.429168e+00 6.127261e+00 4.350244e+00 4.953482e+00 2.471607e+00 7.726967e-01 8.624557e-01 4.505133e-01 4.058639e+01 1.382052e+01 1.386479e+01 7.587461e+00 5.798088e+00 2.876848e+00 3.133521e+00 1.063472e+00 1.784900e+00 7.631842e-01 9.185352e-01 3.262964e-01 4.019999e-01 1.189057e-01
<GCONST> 1.949406e+02
<MIXTURE> 6 1.540913e-01
<MEAN> 42
 3.722542e+02 5.612659e+01 -3.492168e+01 7.684284e-01 -2.105576e+01 -3.448991e+01 3.045007e-01 2.085109e+01 6.423849e+00 -1.298327e+01 -8.741685e+00 6.659313e+00 5.087055e+00 -3.176447e+00 7.425585e+00 7.336886e-01 2.354465e+00 2.803087e+00 -4.235101e+00 -2.544484e+00 3.545479e+00 2.118620e+00 -3.534899e+00 -2.729937e+00 2.247870e+00 2.185570e+00 -1.204586e+00 -9.754884e-01 2.700572e-01 9.325268e-01 1.586544e+00 4.951994e-01 4.866078e-01 1.289006e+00 -7.572176e-02 -1.797339e+00 -6.080898e-01 1.321381e+00 6.511489e-01 -8.107318e-01 -5.908787e-01 2.849230e-01
<VARIANCE> 42
 1.608661e+03 3.623748e+02 4.139739e+02 5.098829e+02 1.910718e+02 1.995492e+02 2.128767e+02 5.433287e+01 5.945453e+01 3.755698e+01 4.328354e+01 3.369744e+01 1.798640e+01 2.008479e+01 2.153405e+02 3.632069e+01 4.654838e+01 2.552627e+01 1.049187e+01 5.300737e+00 7.981627e+00 3.778882e+00 4.579114e+00 2.903842e+00 2.413881e+00 1.285327e+00 1.341927e+00 1.016846e+00 1.860762e+01 4.866014e+00 1.956447e+00 4.164125e+00 2.520751e+00 1.887958e+00 8.536339e-01 6.410601e-01 5.721254e-01 5.220841e-01 3.213639e-01 1.971211e-01 2.197721e-01 1.747555e-01
<GCONST> 1.713512e+02
<MIXTURE> 7 1.472213e-01
<MEAN> 42
 4.417033e+02 1.231617e+02 5.105971e+00 1.922090e+01 -5.207121e+01 -5.480640e+01 -8.028200e-01 8.739236e+00 -8.129361e-01 -5.090127e+00 -2.598215e+00 5.703906e-02 -1.028566e+00 8.494199e-01 4.018370e+01 2.038262e+01 3.826138e+00 2.501582e+00 -8.132092e+00 -6.452562e+00 4.367105e-01 1.681650e+00 -9.350684e-01 -1.786894e+00 -9.339104e-01 -5.938401e-01 -3.491679e-01 2.090489e-01 -1.082615e+01 -6.882881e+00 1.834181e-01 -9.013877e-02 3.075648e+00 3.176825e+00 2.478533e-01 -4.755888e-01 -1.302004e-01 2.034276e-01 6.471314e-02 -1.303995e-01 -1.544464e-02 -9.707432e-02
<VARIANCE> 42
 1.905650e+03 7.938939e+02 2.936248e+02 4.217083e+02 5.847434e+02 2.215054e+02 3.251051e+02 1.038706e+02 7.135921e+01 5.872241e+01 1.749979e+01 1.676870e+01 1.672107e+01 7.845295e+00 1.409788e+02 4.504987e+01 2.630967e+01 2.505427e+01 1.915318e+01 1.333169e+01 7.262283e+00 3.430961e+00 2.551878e+00 2.294694e+00 5.828353e-01 7.521303e-01 5.297500e-01 3.574249e-01 2.206318e+01 8.658113e+00 3.643764e+00 2.741978e+00 3.779894e+00 2.054083e+00 1.457084e+00 5.796436e-01 6.901526e-01 3.633440e-01 1.353925e-01 1.184753e-01 1.151349e-01 6.726152e-02
<GCONST> 1.665868e+02
<STATE> 9
<NUMMIXES> 7
<MIXTURE> 1 8.439947e-02
<MEAN> 42
 5.782624e+02 1.882717e+02 2.921205e+01 4.241641e+01 -6.279989e+01 -7.245848e+01 -4.075768e+00 1.186684e+01 -4.340246e+00 -7.788543e+00 -5.202512e+00 -4.305704e+00 -3.414057e+00 9.214523e-01 1.250197e+01 2.493221e+00 3.810718e+00 4.143642e+00 1.192544e+00 1.867681e+00 2.075536e+00 5.364251e-01 -1.120990e+00 3.063671e-01 1.300522e-01 -6.506441e-01 -2.239766e-01 3.981104e-02 -2.580691e+01 -1.517445e+01 -2.032594e+00 -1.382893e+00 5.345793e+00 6.118046e+00 8.140771e-01 -1.203558e+00 2.020262e-01 8.249862e-01 6.246129e-01 4.091529e-01 2.260199e-01 -9.371128e-02
<VARIANCE> 42
 8.614765e+02 4.330681e+02 3.590143e+02 6.241282e+02 4.305806e+02 1.669025e+02 2.513662e+02 2.153160e+02 1.002313e+02 1.088044e+02 3.643093e+01 2.658236e+01 1.400931e+01 9.368300e+00 1.449198e+02 5.969643e+01 1.325604e+01 2.142167e+01 1.508954e+01 7.336567e+00 3.428725e+00 4.210354e+00 3.001274e+00 2.313128e+00 8.009518e-01 8.682979e-01 4.944274e-01 4.950641e-01 8.399333e+00 4.213490e+00 3.196841e+00 6.225917e+00 3.820134e+00 1.659254e+00 2.133717e+00 1.438923e+00 7.752435e-01 6.743682e-01 3.010426e-01 2.012140e-01 1.351754e-01 5.597366e-02
<GCONST> 1.689186e+02
<MIXTURE> 2 1.392048e-01
<MEAN> 42
 4.015023e+02 7.770644e+01 -1.474385e+01 6.723596e+00 -3.945634e+01 -3.782513e+01 3.280187e+00 1.501784e+01 3.927372e+00 -8.342322e+00 -7.189207e+00 3.281009e-01 1.416115e+00 3.356962e-01 7.223680e+00 1.666431e+00 -5.037926e-01 -1.779755e-01 -8.856818e-01 5.954310e-01 1.804324e+00 1.031927e+00 -1.007313e+00 -1.049240e+00 -8.966934e-02 1.187002e-01 1.464496e-01 1.273367e-01 -3.929517e+00 -1.414072e+00 1.638548e+00 1.884170e+00 2.260865e+00 9.721403e-01 -7.251670e-01 -9.783186e-01 -3.646336e-01 3.867272e-01 4.957516e-01 -4.778750e-02 -2.721319e-01 -1.578729e-02
<VARIANCE> 42
 3.746579e+02 2.223870e+02 2.347782e+02 3.535455e+02 2.652516e+02 1.156418e+02 1.163511e+02 6.721307e+01 5.662286e+01 3.298508e+01 5.251711e+01 1.699224e+01 2.056275e+01 1.195116e+01 9.392880e+01 2.823501e+01 6.670463e+00 1.579642e+01 1.288631e+01 9.613670e+00 3.289859e+00 2.041425e+00 2.767932e+00 2.061689e+00 1.138492e+00 8.347816e-01 6.692591e-01 6.132993e-01 7.558282e+00 3.251930e+00 1.597991e+00 2.085606e+00 3.188022e+00 1.914838e+00 9.470035e-01 5.604167e-01 2.797536e-01 2.820567e-01 4.012422e-01 1.571622e-01 1.630972e-01 9.535959e-02
<GCONST> 1.551535e+02
<MIXTURE> 3 1.844447e-01
<MEAN> 42
 4.639421e+02 1.078687e+02 -2.518926e+01 -2.257725e+01 -8.034602e+01 -3.449957e+01 3.437151e+01 1.153519e+01 -1.240149e+01 -3.138569e+00 2.375089e+00 1.201872e+00 -1.466016e+00 1.271098e+00 4.170711e+01 1.784485e+01 -1.482641e+00 -1.895397e+00 -1.024696e+01 -2.917394e+00 3.494933e+00 -5.385765e-01 -2.558836e+00 -8.267248e-01 -1.934841e-01 1.221691e-01 1.138893e-01 1.427368e-01 -1.431289e+01 -6.105653e+00 2.818748e+00 2.584181e+00 4.960740e+00 2.222323e+00 -2.502167e+00 -1.406800e+00 6.167471e-01 1.663857e-01 -3.765173e-01 -1.140251e-01 1.830757e-01 -5.570117e-02
<VARIANCE> 42
 1.527277e+03 5.934984e+02 3.440869e+02 4.641490e+02 2.831556e+02 2.917219e+02 1.105810e+02 1.408061e+02 6.400979e+01 4.778930e+01 4.287759e+01 1.720724e+01 1.524840e+01 8.464092e+00 2.951129e+02 6.473333e+01 2.238049e+01 1.658032e+01 2.481647e+01 1.410555e+01 8.102333e+00 3.264248e+00 2.590380e+00 1.757108e+00 3.055207e+00 1.173362e+00 8.670183e-01 4.656382e-01 2.070917e+01 6.953506e+00 1.874030e+00 3.003961e+00 3.698301e+00 2.001489e+00 9.852842e-01 9.365221e-01 4.566869e-01 3.253407e-01 2.476794e-01 1.865980e-01 1.430327e-01 7.614918e-02
<GCONST> 1.692648e+02
<MIXTURE> 4 1.639317e-01
<MEAN> 42
 3.806795e+02 5.717604e+01 -3.875920e+01 -1.883174e+01 -4.124286e+01 -1.443594e+01 2.807013e+01 1.336986e+01 -1.077542e+01 -8.035566e+00 3.664118e+00 5.497307e+00 -2.528526e+00 -2.312805e+00 1.475580e+01 3.965279e+00 -3.700676e+00 -3.751103e+00 -3.852876e+00 9.654586e-01 3.055205e+00 -7.829807e-01 -2.692654e+00 3.159991e-01 1.783402e+00 1.944389e-01 -7.712095e-01 -1.374501e-01 -2.451176e+00 -2.876847e-01 2.265694e+00 1.659012e+00 1.282340e+00 -3.111205e-01 -1.889274e+00 -1.004053e+00 5.707904e-01 5.951362e-01 -3.830425e-01 -4.388473e-01 1.163752e-01 1.244942e-01
<VARIANCE> 42
 2.863750e+03 4.603011e+02 5.358625e+02 4.953946e+02 4.143318e+02 2.115746e+02 8.179071e+01 1.424339e+02 5.580860e+01 8.066871e+01 3.624053e+01 4.283542e+01 1.529475e+01 2.019648e+01 2.493976e+02 4.383026e+01 4.424703e+01 2.056485e+01 1.314449e+01 1.011756e+01 6.621856e+00 7.466267e+00 4.759203e+00 2.302944e+00 2.458810e+00 1.391745e+00 1.758763e+00 9.698454e-01 3.886984e+01 5.981259e+00 3.921058e+00 4.432073e+00 3.539588e+00 1.670988e+00 8.977112e-01 8.664103e-01 7.106427e-01 7.484848e-01 3.560477e-01 3.227338e-01 1.913473e-01 1.779283e-01
<GCONST> 1.787265e+02
<MIXTURE> 5 1.655155e-01
<MEAN> 42
 5.649374e+02 1.604286e+02 -4.072895e+01 -4.231519e+01 -8.899913e+01 -3.927176e+01 2.853366e+01 8.113262e+00 -1.736044e+01 -8.746487e+00 3.026887e+00 5.046966e+00 -1.986716e+00 -8.365084e-01 2.042566e+01 6.183098e+00 4.212040e-01 3.548325e-01 -2.725931e+00 4.090869e-01 7.078858e-01 -2.667794e+00 -3.314901e+00 -2.566311e-01 3.984555e-01 1.385644e-01 1.178567e-01 -1.643240e-02 -2.227578e+01 -1.091268e+01 3.457649e+00 4.770988e+00 6.437478e+00 2.457369e+00 -2.246818e+00 -1.088338e+00 1.110667e+00 7.976278e-01 -2.902012e-01 -4.630941e-01 1.617217e-01 5.761047e-02
<VARIANCE> 42
 2.159753e+03 1.277872e+03 1.284471e+03 5.964155e+02 7.939506e+02 4.887358e+02 3.606503e+02 1.663955e+02 1.514447e+02 1.309669e+02 1.287232e+02 4.405405e+01 5.250941e+01 3.141108e+01 2.214290e+02 1.034617e+02 5.500287e+01 5.408783e+01 2.489406e+01 1.599880e+01 1.145924e+01 5.931428e+00 4.586431e+00 2.226055e+00 3.839949e+00 1.522393e+00 1.187630e+00 5.292195e-01 2.605428e+01 7.694243e+00 1.080626e+01 4.174509e+00 6.729918e+00 3.874005e+00 3.185977e+00 1.249478e+00 1.213110e+00 1.274076e+00 1.104193e+00 4.030037e-01 4.223605e-01 1.930629e-01
<GCONST> 1.981275e+02
<MIXTURE> 6 1.349145e-01
<MEAN> 42
 3.838848e+02 6.023603e+01 -2.476145e+01 1.000255e+01 -2.398893e+01 -4.004372e+01 -1.651396e+00 1.985584e+01 3.893376e+00 -1.300289e+01 -5.490386e+00 6.379495e+00 3.062517e+00 -2.489784e+00 2.814730e+00 -1.351021e-01 5.276802e+00 4.322927e+00 -2.652416e+00 -9.569187e-01 2.802522e+00 1.599652e-01 -3.283708e+00 -6.026208e-01 2.316129e+00 7.876442e-01 -1.419096e+00 -5.134221e-01 -1.385425e+00 -9.456296e-03 9.590148e-01 8.293285e-01 1.443285e+00 1.566167e+00 -2.546287e-01 -1.422512e+00 -7.380261e-02 1.138546e+00 3.059007e-03 -8.775378e-01 -2.364383e-01 2.875815e-01
<VARIANCE> 42
 1.105644e+03 1.635690e+02 3.402519e+02 5.064948e+02 1.434964e+02 1.008059e+02 6.473726e+01 5.634642e+01 3.875190e+01 5.218996e+01 2.405600e+01 1.946664e+01 1.331462e+01 8.238717e+00 8.294892e+01 1.932558e+01 1.782656e+01 1.938460e+01 8.707424e+00 7.092053e+00 5.031738e+00 3.627452e+00 2.976927e+00 3.599498e+00 1.496148e+00 1.226158e+00 1.661459e+00 7.970813e-01 8.939183e+00 2.162736e+00 2.396070e+00 4.626406e+00 2.617598e+00 1.291782e+00 8.276719e-01 9.160430e-01 6.079406e-01 7.763581e-01 2.352118e-01 2.031325e-01 1.320406e-01 1.167782e-01
<GCONST> 1.594501e+02
<MIXTURE> 7 1.275889e-01
<MEAN> 42
 4.726408e+02 1.339380e+02 9.157293e+00 2.902677e+01 -4.650755e+01 -6.341721e+01 -1.014690e+01 1.575607e+01 3.163969e+00 -1.062802e+01 -5.324865e+00 -4.218720e-01 -2.638519e+00 -2.463015e-01 1.734604e+01 6.012513e+00 3.829512e+00 2.711156e+00 -2.119903e+00 -1.531320e+00 4.514576e-01 1.019124e+00 -9.521474e-01 -1.120331e+00 -2.230604e-01 -6.572469e-01 -5.061701e-01 2.093890e-01 -1.347624e+01 -8.600246e+00 -6.940950e-01 -2.303297e-01 3.313143e+00 3.855948e+00 1.003244e+00 -8.569224e-01 -4.868832e-01 6.918551e-01 4.152687e-01 -3.435388e-02 1.073759e-01 -2.433883e-02
<VARIANCE> 42
 2.117310e+03 8.518468e+02 2.877029e+02 4.505699e+02 3.322047e+02 1.409528e+02 1.773338e+02 9.170589e+01 6.304698e+01 8.167065e+01 2.642200e+01 1.320456e+01 1.578794e+01 5.856580e+00 1.039589e+02 3.933912e+01 2.005823e+01 1.212127e+01 7.014122e+00 9.847742e+00 4.545058e+00 2.724954e+00 1.737552e+00 1.831073e+00 1.554636e+00 1.100325e+00 5.783778e-01 4.843793e-01 1.565120e+01 6.473802e+00 4.136497e+00 3.799000e+00 3.463002e+00 2.530043e+00 1.277618e+00 6.344388e-01 4.646484e-01 5.475816e-01 1.576968e-01 8.853871e-02 1.420725e-01 6.806224e-02
<GCONST> 1.627852e+02
<STATE> 10
<NUMMIXES> 7
<MIXTURE> 1 2.046373e-01
<MEAN> 42
 5.003532e+02 1.413699e+02 1.982451e+01 3.867257e+01 -4.823816e+01 -5.683234e+01 -1.222660e+00 1.261337e+01 -1.931909e+00 -8.599161e+00 -4.951785e+00 -2.967150e+00 -3.757965e+00 5.332924e-01 -5.125102e+00 -8.697438e+00 1.498511e+00 3.081120e+00 4.228844e+00 5.434591e+00 2.145111e+00 -4.308425e-01 -9.580020e-01 3.957398e-01 4.262615e-01 -3.605271e-01 -1.885277e-01 2.822310e-02 -1.363705e+01 -8.066026e+00 -1.386668e+00 -4.725918e-01 3.081635e+00 3.195502e+00 4.526314e-01 -8.982092e-01 3.258838e-02 6.534683e-01 3.918902e-01 3.117453e-01 1.907218e-01 -9.163528e-02
<VARIANCE> 42
 2.655580e+03 9.249705e+02 2.616483e+02 4.455151e+02 3.015998e+02 1.731620e+02 1.439835e+02 1.230351e+02 6.380502e+01 7.576149e+01 2.457838e+01 1.584301e+01 1.142642e+01 9.892402e+00 1.871246e+02 7.820484e+01 2.026925e+01 2.409204e+01 1.784315e+01 1.658615e+01 6.207399e+00 3.882205e+00 3.021406e+00 2.441719e+00 1.205685e+00 1.003446e+00 7.562079e-01 3.515478e-01 2.497816e+01 8.984177e+00 2.536511e+00 3.310264e+00 2.589465e+00 1.702187e+00 9.254997e-01 8.338065e-01 4.162996e-01 4.929182e-01 1.685083e-01 1.454072e-01 9.192477e-02 8.920265e-02
<GCONST> 1.675800e+02
<MIXTURE> 2 1.117874e-01
<MEAN> 42
 3.862807e+02 7.343849e+01 -2.324345e+00 2.487114e+01 -2.827355e+01 -4.626408e+01 -3.405017e+00 1.751501e+01 1.937964e-01 -1.369164e+01 -3.573641e+00 3.501805e+00 -1.570444e+00 -2.173945e+00 3.199142e+00 -6.506280e-01 5.524642e+00 6.229812e+00 -7.684729e-01 4.159749e-01 1.772812e+00 -8.424343e-01 -2.040719e+00 5.503759e-01 1.725269e+00 -3.370425e-01 -1.466999e+00 1.966320e-01 -2.208367e+00 -1.304142e+00 -2.468443e-01 3.805303e-01 1.666813e+00 1.594001e+00 -2.474168e-01 -9.475643e-01 4.122322e-01 1.005487e+00 -1.399840e-01 -4.957851e-01 2.103787e-01 2.580188e-01
<VARIANCE> 42
 6.646726e+02 4.031803e+02 1.579568e+02 3.563162e+02 1.289393e+02 4.424400e+01 3.930696e+01 5.756697e+01 3.251871e+01 4.536232e+01 2.280355e+01 1.808486e+01 1.473990e+01 4.893100e+00 8.624335e+01 2.339092e+01 2.055928e+01 2.309268e+01 1.114416e+01 5.464887e+00 4.755121e+00 2.270002e+00 2.073726e+00 2.123199e+00 1.629905e+00 1.106636e+00 1.423316e+00 7.708959e-01 7.166991e+00 3.519781e+00 2.581960e+00 2.292171e+00 1.356750e+00 5.776883e-01 4.488058e-01 4.959445e-01 3.706578e-01 3.758677e-01 3.332939e-01 1.726998e-01 2.063469e-01 6.688566e-02
<GCONST> 1.511744e+02
<MIXTURE> 3 1.141185e-01
<MEAN> 42
 5.417523e+02 1.560756e+02 -1.526882e+01 -1.271499e+01 -6.341088e+01 -4.218428e+01 1.207730e+01 4.636981e+00 -1.759827e+01 -1.636923e+01 -5.090720e+00 5.335025e+00 1.552524e-01 -2.825267e+00 -1.527807e+01 -1.154742e+01 6.064678e+00 9.215900e+00 7.783676e+00 4.614143e+00 -3.865981e-01 -3.152393e+00 -1.613451e+00 1.665295e+00 7.660866e-01 -1.131549e+00 -7.343000e-01 8.854379e-03 -1.431744e+01 -7.208822e+00 1.187185e+00 2.983744e+00 3.838915e+00 1.891510e+00 -6.020301e-01 1.196851e-02 1.775361e+00 1.505580e+00 2.133421e-01 -5.660256e-01 -9.890223e-02 1.542099e-01
<VARIANCE> 42
 2.333538e+03 7.720086e+02 6.313373e+02 5.863355e+02 5.041944e+02 1.888246e+02 2.818680e+02 1.667950e+02 1.281160e+02 8.142085e+01 5.324293e+01 4.202625e+01 1.790114e+01 1.972872e+01 9.349940e+01 5.607408e+01 7.739386e+01 6.536843e+01 3.042648e+01 1.259617e+01 1.494513e+01 5.623529e+00 8.883179e+00 4.095578e+00 4.073068e+00 2.809425e+00 2.160112e+00 7.417340e-01 4.904364e+01 1.330102e+01 4.404687e+00 4.685191e+00 5.571481e+00 1.975793e+00 2.529606e+00 1.750489e+00 1.231603e+00 7.210214e-01 6.394699e-01 3.552544e-01 1.974461e-01 1.785768e-01
<GCONST> 1.918962e+02
<MIXTURE> 4 1.349679e-01
<MEAN> 42
 4.147469e+02 7.369225e+01 -3.567848e+01 -2.506261e+01 -5.650868e+01 -1.921574e+01 2.757304e+01 9.735483e+00 -1.352634e+01 -5.844433e+00 6.158872e+00 5.218966e+00 -1.541865e+00 -1.502973e+00 2.884579e+00 -2.279463e-02 8.967881e-02 5.220938e-01 1.842599e+00 2.925982e+00 5.965753e-01 -2.442108e+00 -1.997766e+00 9.057615e-01 1.108948e+00 6.867141e-02 -2.127985e-01 -2.126958e-01 -5.136150e+00 -1.242104e+00 2.759490e+00 2.776087e+00 1.997074e+00 -9.933915e-02 -1.640213e+00 -7.249103e-01 6.677352e-01 2.810920e-01 -5.715808e-01 -3.891881e-01 3.671797e-02 1.436335e-01
<VARIANCE> 42
 5.585656e+02 2.213278e+02 3.212928e+02 3.313717e+02 1.831136e+02 1.525808e+02 9.516319e+01 1.068364e+02 6.676294e+01 7.851785e+01 4.703046e+01 4.650552e+01 1.548257e+01 2.116363e+01 1.023592e+02 4.141964e+01 1.747103e+01 1.171366e+01 1.724622e+01 1.322897e+01 8.598391e+00 3.702054e+00 4.875980e+00 2.474955e+00 2.701977e+00 1.111104e+00 1.295564e+00 7.964993e-01 1.575022e+01 5.027357e+00 2.300890e+00 2.698468e+00 2.671809e+00 1.826791e+00 1.013041e+00 7.883981e-01 5.530229e-01 5.589653e-01 3.821373e-01 2.576514e-01 2.196475e-01 1.428486e-01
<GCONST> 1.687927e+02
<MIXTURE> 5 1.681412e-01
<MEAN> 42
 5.087664e+02 1.259925e+02 -3.174000e+01 -2.835841e+01 -7.903314e+01 -3.130398e+01 3.130754e+01 6.123368e+00 -1.795000e+01 -3.235513e+00 4.669752e+00 2.117546e+00 -1.915004e+00 -1.228983e-02 2.958597e+00 2.881635e-01 5.027110e+00 4.743412e+00 1.861361e+00 1.708686e+00 -2.194115e+00 -3.405919e+00 -1.171859e+00 -3.744764e-02 -8.450758e-01 -2.051347e-01 6.954591e-01 8.757680e-02 -1.626918e+01 -7.078714e+00 3.126935e+00 3.743550e+00 4.873765e+00 1.374881e+00 -2.345479e+00 -7.840551e-01 1.282167e+00 2.474704e-01 -6.199522e-01 -3.000571e-01 1.008331e-01 1.965451e-02
<VARIANCE> 42
 2.104954e+03 9.828062e+02 8.560989e+02 3.817139e+02 3.308161e+02 3.811089e+02 1.046666e+02 9.896901e+01 6.627830e+01 6.462337e+01 9.363313e+01 3.668081e+01 2.778977e+01 9.699659e+00 1.366318e+02 4.061069e+01 1.383228e+01 1.589337e+01 1.727169e+01 1.281733e+01 7.504589e+00 5.113603e+00 2.757060e+00 2.092777e+00 2.126632e+00 1.547539e+00 9.696224e-01 6.988794e-01 1.602107e+01 5.475945e+00 5.013118e+00 3.586569e+00 3.862840e+00 4.301421e+00 1.799113e+00 1.126149e+00 8.555933e-01 8.738459e-01 7.967873e-01 2.963112e-01 2.748890e-01 8.389613e-02
<GCONST> 1.785137e+02
<MIXTURE> 6 1.209333e-01
<MEAN> 42
 3.876266e+02 5.841928e+01 -3.874160e+01 -1.756382e+01 -3.966784e+01 -6.869315e+00 2.873100e+01 1.065748e+01 -9.757217e+00 -2.433938e+00 7.220736e+00 1.689948e+00 -6.143633e+00 -8.932976e-01 9.020761e+00 7.196046e-02 -2.044017e+00 -2.655726e+00 -3.733360e+00 -1.179393e+00 -9.914101e-01 -1.390442e+00 -8.963618e-02 1.416975e+00 6.915333e-01 -1.907885e-01 -2.407456e-01 4.720822e-02 -2.224377e+00 -6.837346e-01 1.667179e+00 1.458121e+00 5.805667e-01 -9.327314e-01 -1.411705e+00 -4.891562e-01 4.383199e-01 1.230639e-01 -3.913153e-01 -6.832319e-03 2.973305e-01 5.157892e-02
<VARIANCE> 42
 1.120263e+03 1.335066e+02 7.331306e+02 4.876166e+02 1.818759e+02 1.755303e+02 5.280922e+01 5.915059e+01 8.146202e+01 5.116928e+01 2.692093e+01 2.174238e+01 1.428541e+01 9.614702e+00 7.420248e+01 2.131269e+01 1.974804e+01 1.036807e+01 3.623771e+00 5.550147e+00 3.473622e+00 4.491935e+00 3.216707e+00 1.779583e+00 1.333223e+00 1.376735e+00 9.508321e-01 5.150988e-01 1.937326e+01 2.849965e+00 4.055869e+00 2.624682e+00 2.013028e+00 8.586307e-01 9.007264e-01 5.070190e-01 4.565482e-01 2.537441e-01 2.508310e-01 1.390108e-01 1.056464e-01 5.864799e-02
<GCONST> 1.555603e+02
<MIXTURE> 7 1.454144e-01
<MEAN> 42
 3.970109e+02 6.743079e+01 -2.570093e+01 -3.880925e-01 -3.310318e+01 -3.631251e+01 2.623896e+00 1.864811e+01 2.413356e+00 -1.084593e+01 -4.818595e+00 5.094807e+00 2.824261e+00 -1.202250e+00 -4.060928e-01 -4.652367e-01 3.047589e+00 3.135902e+00 1.432099e+00 8.568670e-01 4.101419e-01 -1.151115e+00 -2.129783e+00 -1.904506e-01 7.993913e-01 -2.623389e-01 -5.796297e-01 9.441487e-02 -2.016881e+00 -3.282091e-01 1.764873e+00 2.157519e+00 1.328032e+00 5.463107e-01 -6.448120e-01 -1.123753e+00 -8.956730e-02 4.875814e-01 1.043740e-01 -3.544208e-01 -3.126684e-01 9.013468e-03
<VARIANCE> 42
 6.537211e+02 2.135921e+02 2.148857e+02 2.936257e+02 1.725172e+02 1.344721e+02 3.703954e+01 5.226369e+01 4.660612e+01 2.315014e+01 3.016397e+01 1.496847e+01 1.256844e+01 7.863518e+00 2.069055e+01 7.078769e+00 7.835756e+00 1.318183e+01 1.223889e+01 6.362072e+00 4.171603e+00 4.854492e+00 2.851133e+00 1.685124e+00 1.034082e+00 8.270997e-01 7.835449e-01 6.951334e-01 8.196553e+00 1.805486e+00 7.811477e-01 1.402135e+00 2.191045e+00 1.340100e+00 6.768465e-01 4.649360e-01 4.419928e-01 3.428892e-01 3.024714e-01 1.693622e-01 1.145686e-01 7.694603e-02
<GCONST> 1.463100e+02
<STATE> 11
<NUMMIXES> 7
<MIXTURE> 1 1.425576e-01
<MEAN> 42
 5.018893e+02 1.350125e+02 2.408955e+01 4.691558e+01 -3.595745e+01 -4.980641e+01 4.584699e-01 9.888157e+00 -4.489120e+00 -5.675436e+00 -2.835925e+00 -3.080581e+00 -4.065525e+00 -9.147770e-01 -1.933354e+01 -1.701666e+01 1.124883e+00 4.673018e+00 6.972109e+00 7.766540e+00 2.643495e+00 -1.150403e+00 -5.624142e-02 1.867313e+00 9.626849e-01 -2.228011e-01 -1.985385e-01 -1.730813e-02 -6.901036e+00 -3.723322e+00 -1.590676e+00 -6.715896e-01 8.596531e-01 1.225791e+00 2.529632e-01 -3.451744e-01 2.571075e-01 2.630480e-01 2.304054e-01 4.446441e-01 2.773162e-01 5.113246e-03
<VARIANCE> 42
 1.222713e+03 3.481575e+02 2.669662e+02 3.953568e+02 2.017170e+02 9.418068e+01 8.835499e+01 1.469891e+02 4.746194e+01 6.495972e+01 3.003407e+01 2.189564e+01 1.104258e+01 1.004912e+01 1.102635e+02 3.852261e+01 2.511203e+01 3.888902e+01 1.308359e+01 1.217887e+01 5.691666e+00 4.624914e+00 5.564591e+00 3.965904e+00 1.341440e+00 1.889376e+00 1.035823e+00 4.585947e-01 1.519146e+01 5.075210e+00 2.412053e+00 2.356759e+00 1.693280e+00 1.438120e+00 7.917653e-01 9.385736e-01 5.418436e-01 3.981533e-01 2.651366e-01 2.038333e-01 1.060714e-01 9.424377e-02
<GCONST> 1.647529e+02
<MIXTURE> 2 1.512682e-01
<MEAN> 42
 5.050806e+02 1.200081e+02 -2.967746e+01 -2.108088e+01 -6.810170e+01 -2.540355e+01 2.846459e+01 1.579862e+00 -2.118238e+01 -4.561787e+00 5.412603e+00 5.679487e+00 -5.709087e-01 7.542697e-02 -1.673406e+01 -8.669466e+00 9.003165e+00 1.056988e+01 7.645397e+00 2.402020e+00 -4.656391e+00 -4.110607e+00 4.101129e-01 1.496842e-02 -2.326831e+00 -9.789954e-01 9.255878e-01 4.809662e-01 -6.989351e+00 -2.585580e+00 1.857853e+00 2.262915e+00 1.767932e+00 -2.431869e-01 -1.144427e+00 5.981611e-02 1.278707e+00 1.613495e-01 -6.535681e-01 -5.286614e-01 -1.350865e-01 2.854658e-02
<VARIANCE> 42
 1.331559e+03 5.930487e+02 1.866729e+02 1.915180e+02 1.771248e+02 2.558918e+02 1.146336e+02 1.085384e+02 6.874356e+01 4.605646e+01 4.744370e+01 2.743228e+01 2.621476e+01 1.560705e+01 6.193896e+01 2.537382e+01 1.671298e+01 1.678167e+01 1.640580e+01 1.469900e+01 1.072702e+01 5.942035e+00 4.416575e+00 6.402713e+00 3.512330e+00 2.869527e+00 8.285586e-01 8.186023e-01 2.421658e+01 7.958296e+00 1.702298e+00 2.251881e+00 2.653836e+00 2.962679e+00 1.887172e+00 1.383014e+00 9.859803e-01 6.486419e-01 4.966195e-01 2.260876e-01 2.322464e-01 1.516065e-01
<GCONST> 1.741978e+02
<MIXTURE> 3 1.853094e-01
<MEAN> 42
 4.143675e+02 8.197346e+01 2.347971e+00 3.107382e+01 -2.932133e+01 -4.442203e+01 -2.240343e+00 1.530453e+01 -1.879594e+00 -1.129434e+01 -3.345037e+00 4.015400e-01 -2.256288e+00 -9.292087e-02 -3.316884e+00 -4.227324e+00 3.784195e+00 5.352942e+00 3.034793e+00 3.206259e+00 1.447639e+00 -1.609642e+00 -1.615675e+00 1.201534e+00 1.246547e+00 -4.875349e-01 -6.446543e-01 1.789918e-01 -3.663083e+00 -1.263913e+00 -1.639328e-01 6.868652e-02 1.245536e+00 1.126679e+00 -9.776763e-02 -5.940610e-01 3.220653e-01 6.514531e-01 1.129145e-02 -7.802930e-02 2.042338e-01 -1.930853e-02
<VARIANCE> 42
 1.429021e+03 5.219980e+02 1.261165e+02 2.792411e+02 1.361949e+02 5.954581e+01 5.137479e+01 6.302315e+01 4.699170e+01 3.687073e+01 1.683591e+01 1.204839e+01 1.122631e+01 9.391439e+00 5.657048e+01 2.050371e+01 1.787380e+01 2.021208e+01 7.454725e+00 5.852120e+00 5.284845e+00 2.650018e+00 1.828366e+00 2.150501e+00 1.264369e+00 7.995052e-01 8.411286e-01 5.286039e-01 9.301523e+00 3.098367e+00 1.818514e+00 1.641429e+00 1.488389e+00 9.359397e-01 6.770428e-01 5.957574e-01 3.295572e-01 3.006724e-01 2.816606e-01 1.166046e-01 1.789128e-01 1.165328e-01
<GCONST> 1.499041e+02
<MIXTURE> 4 9.715859e-02
<MEAN> 42
 4.010068e+02 6.753884e+01 -1.219104e+01 2.055326e+00 -4.396230e+01 -2.848665e+01 9.388733e+00 1.123152e+01 -3.945617e-01 -7.634260e+00 -5.440904e+00 5.938308e-01 1.021146e+00 -4.507539e-01 -3.892615e+00 -1.544175e+00 5.129733e+00 5.701577e+00 3.296786e+00 1.870670e+00 -8.360597e-01 -2.053966e+00 -4.361417e-01 4.690857e-01 1.654184e-01 -3.590919e-01 -6.156840e-01 -2.449953e-01 -1.915382e+00 -2.270419e-01 1.337929e+00 1.977396e+00 1.499170e+00 3.230625e-01 -6.335977e-01 -7.012466e-01 -8.585989e-02 3.867020e-01 2.908323e-01 -6.718273e-02 -1.888843e-01 2.768859e-02
<VARIANCE> 42
 3.500440e+02 1.668227e+02 1.250707e+02 1.644974e+02 3.876299e+02 1.076881e+02 1.767484e+02 5.224934e+01 6.259206e+01 3.667906e+01 1.025465e+01 1.527521e+01 8.009470e+00 1.423725e+01 1.791329e+01 8.228449e+00 9.547754e+00 1.217114e+01 8.310480e+00 9.354684e+00 4.747228e+00 4.197089e+00 2.886826e+00 2.422491e+00 1.622319e+00 1.119571e+00 7.184978e-01 4.206695e-01 3.051520e+00 7.446434e-01 3.941252e-01 1.312232e+00 2.077733e+00 1.046877e+00 8.981468e-01 4.045967e-01 3.987007e-01 1.748202e-01 7.225175e-02 1.002238e-01 1.364666e-01 1.193652e-01
<GCONST> 1.420535e+02
<MIXTURE> 5 1.329291e-01
<MEAN> 42
 4.840055e+02 1.260910e+02 8.656163e+00 7.286659e+00 -6.646091e+01 -3.112850e+01 2.036847e+01 -1.704649e+00 -1.389861e+01 -7.398299e+00 -8.166020e+00 -3.267540e+00 5.386858e-01 8.596562e-01 -1.609366e+01 -9.560605e+00 5.053342e+00 8.570854e+00 9.951981e+00 5.952046e+00 -2.186135e+00 -2.141124e+00 1.414936e+00 1.157311e+00 -4.656874e-01 -7.045878e-01 -1.447248e-01 -3.679274e-01 -7.785655e+00 -3.655454e+00 2.934171e-01 1.251809e+00 2.172074e+00 6.743789e-01 -8.175045e-01 -3.584899e-02 1.023647e+00 8.133956e-01 5.906283e-01 1.605295e-01 -2.118842e-01 -7.733810e-02
<VARIANCE> 42
 1.869482e+03 7.818629e+02 1.909375e+02 2.683325e+02 2.303190e+02 2.141661e+02 7.854887e+01 1.364015e+02 8.994476e+01 3.102639e+01 2.916913e+01 1.472983e+01 1.648889e+01 8.591273e+00 8.020614e+01 4.562336e+01 1.625358e+01 2.922499e+01 2.652014e+01 1.264077e+01 9.277305e+00 6.263764e+00 3.144463e+00 3.550322e+00 2.232934e+00 1.422499e+00 8.072319e-01 4.569895e-01 2.590124e+01 6.920354e+00 1.877462e+00 3.844077e+00 4.303397e+00 2.933666e+00 1.397095e+00 1.478655e+00 8.642340e-01 3.348114e-01 2.665408e-01 1.598847e-01 1.712351e-01 8.053125e-02
<GCONST> 1.698298e+02
<MIXTURE> 6 1.587960e-01
<MEAN> 42
 4.207509e+02 6.114136e+01 -5.455493e+01 -3.426016e+01 -4.370785e+01 -8.962122e+00 2.424715e+01 4.323209e+00 -1.441715e+01 -1.177421e+00 9.493922e+00 4.441527e+00 -5.354494e+00 -2.302367e+00 -3.804367e+00 -2.411421e+00 3.765133e+00 3.752853e+00 1.319199e+00 -1.907222e-01 -1.914410e+00 -2.405406e+00 -4.157778e-01 1.331217e+00 3.310980e-01 -4.497893e-01 1.623362e-01 2.690118e-01 -2.348716e+00 5.961860e-01 2.835059e+00 2.201499e+00 2.887471e-01 -8.970313e-01 -8.981644e-01 1.070566e-01 5.695422e-01 -3.768241e-01 -7.884668e-01 -1.987811e-01 3.253843e-01 2.187607e-01
<VARIANCE> 42
 8.592257e+02 2.992630e+02 3.914760e+02 1.980731e+02 2.148560e+02 1.322738e+02 1.259772e+02 8.582729e+01 8.080821e+01 4.589501e+01 2.536242e+01 2.159534e+01 2.505669e+01 1.566749e+01 3.700237e+01 1.731592e+01 1.867125e+01 1.425531e+01 1.281532e+01 1.363183e+01 6.719081e+00 2.774781e+00 2.814004e+00 2.756818e+00 1.824765e+00 1.028948e+00 1.577471e+00 4.053910e-01 1.252368e+01 3.702545e+00 3.052109e+00 2.149625e+00 1.747195e+00 1.568751e+00 1.241344e+00 9.347166e-01 1.065726e+00 3.969910e-01 3.643658e-01 2.139425e-01 1.957023e-01 1.344778e-01
<GCONST> 1.631392e+02
<MIXTURE> 7 1.319807e-01
<MEAN> 42
 3.892460e+02 6.443988e+01 -1.660321e+01 1.343446e+00 -4.570918e+01 -3.324499e+01 1.409847e+01 1.071270e+01 -1.016656e+01 -6.648592e+00 3.653186e+00 4.881147e+00 -5.741223e-01 -2.143641e-01 4.489734e+00 1.580920e+00 3.854138e+00 2.665710e+00 -8.017212e-01 -2.384564e-01 -1.001655e+00 -2.556829e+00 -1.715839e+00 1.861920e-01 -3.645296e-01 -8.429408e-01 -4.996926e-02 3.791702e-01 -1.783170e+00 -5.328649e-01 8.157219e-01 1.280131e+00 1.391864e+00 5.933775e-01 -5.477542e-01 -2.478347e-01 5.068733e-01 6.983034e-02 -4.729543e-01 -3.099483e-01 -3.424180e-02 -8.985030e-02
<VARIANCE> 42
 8.824514e+02 2.554868e+02 1.604322e+02 2.037373e+02 1.649481e+02 7.033438e+01 6.458119e+01 8.801599e+01 5.386211e+01 5.321764e+01 1.735594e+01 1.192130e+01 1.016345e+01 1.026558e+01 6.882771e+01 9.188285e+00 5.086591e+00 1.071806e+01 9.260799e+00 4.793400e+00 4.708598e+00 2.076946e+00 2.425893e+00 1.356851e+00 1.363926e+00 7.138010e-01 7.841958e-01 4.318390e-01 7.415937e+00 2.009588e+00 1.160825e+00 1.040014e+00 9.033572e-01 5.742465e-01 4.198183e-01 3.049690e-01 2.946569e-01 3.578746e-01 1.686864e-01 6.938897e-02 1.196901e-01 6.802113e-02
<GCONST> 1.411296e+02
<STATE> 12
<NUMMIXES> 7
<MIXTURE> 1 1.053638e-01
<MEAN> 42
 4.725015e+02 1.074982e+02 1.543692e+01 3.530951e+01 -3.880864e+01 -3.648809e+01 6.761729e+00 7.247037e+00 -1.995833e+00 -4.598786e+00 -5.668460e+00 -3.991066e+00 -2.316362e+00 9.065301e-01 -1.856812e+01 -1.290453e+01 3.324371e+00 7.358589e+00 7.971866e+00 7.061349e+00 1.378861e+00 -7.978987e-01 1.257503e+00 2.365439e+00 1.128732e+00 -3.891086e-01 -2.900221e-01 2.852617e-01 -5.358918e-01 5.638025e-01 -6.712061e-01 -6.667219e-01 -2.250644e-01 2.340042e-01 7.697489e-02 -2.852991e-01 -2.915762e-01 -1.222748e-01 3.934727e-01 5.173920e-01 1.061459e-01 -1.832695e-02
<VARIANCE> 42
 9.201674e+02 1.782431e+02 1.303584e+02 1.761604e+02 4.221324e+02 1.419514e+02 1.161406e+02 8.460885e+01 3.243936e+01 5.391619e+01 2.613976e+01 2.087886e+01 2.119008e+01 9.924950e+00 4.896382e+01 2.443265e+01 1.762338e+01 3.024805e+01 1.565528e+01 3.952775e+00 5.740991e+00 3.552892e+00 4.572186e+00 2.851839e+00 2.194125e+00 2.315645e+00 6.400414e-01 8.008529e-01 5.153940e+00 1.641692e+00 1.279460e+00 1.953757e+00 2.397088e+00 1.360198e+00 7.543888e-01 4.101483e-01 5.087642e-01 4.547201e-01 3.164875e-01 2.473235e-01 2.357923e-01 1.500782e-01
<GCONST> 1.582906e+02
<MIXTURE> 2 1.752234e-01
<MEAN> 42
 4.072462e+02 6.450386e+01 -2.263124e+01 -1.597642e+01 -5.528935e+01 -2.055489e+01 2.338613e+01 7.075381e+00 -1.109167e+01 -2.053966e+00 3.657394e+00 2.662092e+00 -4.443307e-01 -1.608941e-01 -4.664857e+00 1.264442e+00 8.680970e+00 7.358130e+00 2.522942e+00 8.760375e-01 -2.185317e+00 -2.498138e+00 -3.500903e-01 -1.014968e+00 -2.114522e+00 -9.544596e-01 7.438957e-01 6.406126e-01 -2.868785e-01 4.838708e-01 1.243234e+00 2.007319e+00 1.386514e+00 4.202244e-02 -1.063295e+00 -8.720792e-01 -1.051183e-01 -5.529200e-02 -2.140123e-01 -1.192047e-01 -1.598400e-01 -5.815743e-03
<VARIANCE> 42
 7.120370e+02 3.076960e+02 2.542745e+02 1.814561e+02 1.182173e+02 1.681163e+02 6.944769e+01 4.131569e+01 5.342150e+01 2.860555e+01 2.388315e+01 1.192605e+01 9.317876e+00 1.044033e+01 2.451694e+01 1.177731e+01 9.674753e+00 1.284488e+01 1.481488e+01 1.051480e+01 7.474644e+00 3.947536e+00 3.434944e+00 3.419977e+00 2.074882e+00 1.476414e+00 1.047414e+00 5.769654e-01 3.480294e+00 1.372172e+00 1.032365e+00 9.464716e-01 1.765873e+00 1.939360e+00 9.403000e-01 5.268254e-01 4.922398e-01 4.894262e-01 2.435543e-01 1.393185e-01 1.198711e-01 1.022221e-01
<GCONST> 1.505086e+02
<MIXTURE> 3 1.795919e-01
<MEAN> 42
 4.012290e+02 7.075400e+01 2.641129e+00 3.300490e+01 -2.394696e+01 -3.309531e+01 1.265793e+00 1.111449e+01 -1.498098e+00 -8.802623e+00 -4.192852e+00 -1.880054e-01 -1.871854e+00 -2.180244e-01 -6.648887e+00 -4.207304e+00 4.414042e+00 6.383656e+00 4.486480e+00 3.496324e+00 1.131264e-01 -2.675510e+00 -1.340261e+00 1.598414e+00 1.227131e+00 -2.483885e-01 -5.070988e-01 -1.614495e-01 -1.766853e+00 -8.386305e-02 5.259886e-02 -9.904857e-02 2.451826e-01 6.049258e-02 -3.217215e-01 -3.097631e-01 1.486552e-01 2.628513e-01 1.079997e-01 1.298695e-01 1.263731e-01 -3.691952e-02
<VARIANCE> 42
 3.617449e+02 2.011433e+02 1.129675e+02 2.572735e+02 2.148430e+02 9.464325e+01 1.156551e+02 8.193767e+01 2.997999e+01 3.450949e+01 1.548523e+01 1.093368e+01 8.386255e+00 7.217577e+00 1.742984e+01 1.066911e+01 1.235697e+01 1.559886e+01 7.623145e+00 6.852773e+00 6.626710e+00 4.509584e+00 1.967381e+00 2.856156e+00 1.055877e+00 9.305927e-01 6.484168e-01 3.834824e-01 3.918806e+00 1.830956e+00 1.151317e+00 1.642736e+00 1.285836e+00 9.133790e-01 6.796204e-01 4.853679e-01 2.921438e-01 2.367967e-01 1.721453e-01 9.385655e-02 8.298218e-02 7.390231e-02
<GCONST> 1.418423e+02
<MIXTURE> 4 1.161748e-01
<MEAN> 42
 3.904110e+02 6.480756e+01 -7.519788e+00 1.650500e+01 -3.588698e+01 -3.149080e+01 6.537538e+00 3.889407e+00 -8.519502e+00 -6.976663e+00 -6.326210e-01 3.354820e+00 -1.097548e+00 -4.130846e-01 -2.292933e+00 -1.121740e+00 4.845953e+00 4.923635e+00 1.419545e+00 8.683341e-01 -1.461460e+00 -2.566622e+00 -5.606968e-01 1.034040e+00 2.382281e-01 -1.053354e+00 -7.460198e-01 1.934030e-01 -1.960625e+00 -5.052394e-01 1.191872e-01 1.734228e-01 5.825800e-01 2.384843e-01 -1.114541e-01 4.303589e-01 6.593267e-01 1.944430e-01 -7.811287e-02 -1.430255e-01 2.075375e-02 -4.885967e-02
<VARIANCE> 42
 7.251291e+02 2.044551e+02 3.296132e+02 3.159823e+02 1.644664e+02 9.603184e+01 1.044763e+02 6.482803e+01 5.493532e+01 3.787455e+01 2.114451e+01 1.089579e+01 5.812580e+00 8.764703e+00 3.823373e+01 5.550642e+00 6.784814e+00 8.625613e+00 5.365687e+00 4.786723e+00 4.827428e+00 1.990370e+00 2.391568e+00 1.548347e+00 1.016387e+00 6.892647e-01 8.816476e-01 5.896922e-01 4.377857e+00 1.943575e+00 1.042260e+00 6.274198e-01 4.121251e-01 5.087230e-01 5.857548e-01 2.381912e-01 4.435573e-01 2.440599e-01 2.366303e-01 6.302428e-02 7.361259e-02 6.621409e-02
<GCONST> 1.378169e+02
<MIXTURE> 5 1.502533e-01
<MEAN> 42
 4.834933e+02 1.142154e+02 4.681095e+00 1.915181e+01 -4.491485e+01 -2.206238e+01 1.465415e+01 -9.871513e+00 -1.971762e+01 -6.132435e+00 -4.877108e+00 8.109872e-02 8.310484e-01 1.555316e+00 -2.104723e+01 -9.934642e+00 9.610197e+00 1.171244e+01 8.145778e+00 1.460903e+00 -5.736826e+00 -3.686119e+00 3.138290e+00 2.298216e+00 -8.824918e-01 -1.289323e+00 -9.105584e-02 3.394582e-01 -6.102728e-01 1.670934e-01 -6.223398e-01 -1.676805e+00 -1.903579e+00 -1.210655e+00 2.429329e-01 1.115208e+00 1.096116e+00 6.669434e-01 4.873803e-01 -5.244783e-02 -3.149955e-01 -1.841139e-01
<VARIANCE> 42
 1.038056e+03 2.761492e+02 3.292428e+02 2.661635e+02 2.022619e+02 8.447928e+01 8.413737e+01 1.029581e+02 5.761014e+01 3.425147e+01 6.787150e+01 4.344060e+01 2.247630e+01 1.705630e+01 2.902152e+01 1.746879e+01 1.636718e+01 1.401099e+01 1.787863e+01 1.529233e+01 9.107024e+00 7.555552e+00 4.248032e+00 4.223944e+00 4.255116e+00 1.708426e+00 1.190065e+00 1.089978e+00 7.969319e+00 3.680957e+00 2.070862e+00 2.384636e+00 2.668495e+00 1.777031e+00 1.575710e+00 1.388751e+00 5.063425e-01 5.918019e-01 5.885726e-01 4.704046e-01 2.305461e-01 1.563625e-01
<GCONST> 1.696161e+02
<MIXTURE> 6 1.487276e-01
<MEAN> 42
 4.380310e+02 7.339591e+01 -3.841283e+01 -1.820097e+01 -4.332772e+01 -1.196104e+01 1.742943e+01 -4.852808e+00 -1.502901e+01 2.718938e+00 9.286251e+00 3.001605e+00 -4.619610e+00 -1.559235e+00 -7.900854e+00 -2.409723e+00 7.024283e+00 5.673310e+00 -4.616503e-02 -2.568572e+00 -3.101421e+00 -9.523611e-01 1.963347e+00 3.267329e-01 -1.490727e+00 -2.904933e-01 1.042732e+00 3.453695e-01 -1.224840e+00 3.257865e-01 7.888352e-01 6.419751e-02 -7.549420e-01 -7.159480e-01 3.688106e-01 9.720770e-01 5.071062e-01 -4.068905e-01 -5.951111e-01 -2.251331e-01 1.932736e-01 1.621040e-01
<VARIANCE> 42
 1.370996e+03 2.566969e+02 4.659940e+02 1.739701e+02 2.082039e+02 2.023643e+02 1.094335e+02 6.948436e+01 6.487869e+01 4.372991e+01 2.607198e+01 2.467953e+01 2.449158e+01 1.224865e+01 3.351400e+01 9.019716e+00 1.270254e+01 1.169476e+01 1.420315e+01 7.209978e+00 7.489982e+00 4.313767e+00 3.566522e+00 2.090736e+00 1.581558e+00 1.126697e+00 1.135602e+00 9.074588e-01 4.989273e+00 1.519917e+00 1.622446e+00 1.407694e+00 1.233199e+00 2.160244e+00 1.400894e+00 5.465566e-01 1.093050e+00 4.243774e-01 4.240162e-01 2.579815e-01 2.089244e-01 1.070618e-01
<GCONST> 1.591882e+02
<MIXTURE> 7 1.246656e-01
<MEAN> 42
 4.697552e+02 1.085174e+02 2.458541e+01 5.533276e+01 -2.698185e+01 -3.838956e+01 5.141512e+00 8.341017e+00 -5.924526e+00 -2.720027e+00 -1.261246e-01 -3.144106e+00 -3.623656e+00 -5.871977e-01 -2.096569e+01 -1.621519e+01 -1.453033e+00 1.801615e+00 6.409663e+00 7.739902e+00 2.444907e+00 -1.695304e+00 -4.924484e-01 1.237696e+00 1.034950e+00 7.141934e-01 4.017747e-01 -1.602634e-01 -2.290387e+00 -5.761547e-02 -7.872389e-01 -8.442333e-01 -4.672338e-01 -4.546765e-01 -3.338126e-01 -1.378535e-01 2.549939e-01 -2.674160e-02 -1.079798e-01 2.879359e-01 1.972378e-01 4.112896e-02
<VARIANCE> 42
