~h "yes"
<BEGINHMM>
<NUMSTATES> 18
<STATE> 2
<MEAN> 27
 7.916434e+002 1.665184e+002 -7.830877e+001 1.670333e+001 -1.902892e+001 -4.198294e+000 1.467375e+000 -6.871547e+000 1.957170e-003 1.627329e+000 1.018394e+000 -3.716933e-001 -3.556697e-001 -2.844083e-001 -2.234725e-001 1.292528e-003 3.670969e-002 -3.443934e-002 -7.937771e-001 -2.364615e-001 3.107111e-001 -7.720687e-003 3.039084e-002 -5.973323e-003 2.064894e-002 6.327178e-002 -2.129349e-002
<VARIANCE> 27
 6.601104e+004 1.031644e+004 4.328915e+003 3.996369e+003 2.273641e+003 1.412662e+003 6.792460e+002 6.352706e+002 3.665409e+002 2.091048e+003 5.386838e+002 2.059707e+002 1.524661e+002 6.618049e+001 4.758662e+001 2.672190e+001 2.820946e+001 1.469763e+001 2.077378e+002 7.879797e+001 2.984993e+001 2.156486e+001 1.019027e+001 6.722672e+000 4.414366e+000 4.791769e+000 2.735705e+000
<GCONST> 1.866019e+002
<STATE> 3
<MEAN> 27
 7.916434e+002 1.665184e+002 -7.830877e+001 1.670333e+001 -1.902892e+001 -4.198294e+000 1.467375e+000 -6.871547e+000 1.957170e-003 1.627329e+000 1.018394e+000 -3.716933e-001 -3.556697e-001 -2.844083e-001 -2.234725e-001 1.292528e-003 3.670969e-002 -3.443934e-002 -7.937771e-001 -2.364615e-001 3.107111e-001 -7.720687e-003 3.039084e-002 -5.973323e-003 2.064894e-002 6.327178e-002 -2.129349e-002
<VARIANCE> 27
 6.601104e+004 1.031644e+004 4.328915e+003 3.996369e+003 2.273641e+003 1.412662e+003 6.792460e+002 6.352706e+002 3.665409e+002 2.091048e+003 5.386838e+002 2.059707e+002 1.524661e+002 6.618049e+001 4.758662e+001 2.672190e+001 2.820946e+001 1.469763e+001 2.077378e+002 7.879797e+001 2.984993e+001 2.156486e+001 1.019027e+001 6.722672e+000 4.414366e+000 4.791769e+000 2.735705e+000
<GCONST> 1.866019e+002
<STATE> 4
<MEAN> 27
 7.916434e+002 1.665184e+002 -7.830877e+001 1.670333e+001 -1.902892e+001 -4.198294e+000 1.467375e+000 -6.871547e+000 1.957170e-003 1.627329e+000 1.018394e+000 -3.716933e-001 -3.556697e-001 -2.844083e-001 -2.234725e-001 1.292528e-003 3.670969e-002 -3.443934e-002 -7.937771e-001 -2.364615e-001 3.107111e-001 -7.720687e-003 3.039084e-002 -5.973323e-003 2.064894e-002 6.327178e-002 -2.129349e-002
<VARIANCE> 27
 6.601104e+004 1.031644e+004 4.328915e+003 3.996369e+003 2.273641e+003 1.412662e+003 6.792460e+002 6.352706e+002 3.665409e+002 2.091048e+003 5.386838e+002 2.059707e+002 1.524661e+002 6.618049e+001 4.758662e+001 2.672190e+001 2.820946e+001 1.469763e+001 2.077378e+002 7.879797e+001 2.984993e+001 2.156486e+001 1.019027e+001 6.722672e+000 4.414366e+000 4.791769e+000 2.735705e+000
<GCONST> 1.866019e+002
<STATE> 5
<MEAN> 27
 7.916434e+002 1.665184e+002 -7.830877e+001 1.670333e+001 -1.902892e+001 -4.198294e+000 1.467375e+000 -6.871547e+000 1.957170e-003 1.627329e+000 1.018394e+000 -3.716933e-001 -3.556697e-001 -2.844083e-001 -2.234725e-001 1.292528e-003 3.670969e-002 -3.443934e-002 -7.937771e-001 -2.364615e-001 3.107111e-001 -7.720687e-003 3.039084e-002 -5.973323e-003 2.064894e-002 6.327178e-002 -2.129349e-002
<VARIANCE> 27
 6.601104e+004 1.031644e+004 4.328915e+003 3.996369e+003 2.273641e+003 1.412662e+003 6.792460e+002 6.352706e+002 3.665409e+002 2.091048e+003 5.386838e+002 2.059707e+002 1.524661e+002 6.618049e+001 4.758662e+001 2.672190e+001 2.820946e+001 1.469763e+001 2.077378e+002 7.879797e+001 2.984993e+001 2.156486e+001 1.019027e+001 6.722672e+000 4.414366e+000 4.791769e+000 2.735705e+000
<GCONST> 1.866019e+002
<STATE> 6
<MEAN> 27
 7.916434e+002 1.665184e+002 -7.830877e+001 1.670333e+001 -1.902892e+001 -4.198294e+000 1.467375e+000 -6.871547e+000 1.957170e-003 1.627329e+000 1.018394e+000 -3.716933e-001 -3.556697e-001 -2.844083e-001 -2.234725e-001 1.292528e-003 3.670969e-002 -3.443934e-002 -7.937771e-001 -2.364615e-001 3.107111e-001 -7.720687e-003 3.039084e-002 -5.973323e-003 2.064894e-002 6.327178e-002 -2.129349e-002
<VARIANCE> 27
 6.601104e+004 1.031644e+004 4.328915e+003 3.996369e+003 2.273641e+003 1.412662e+003 6.792460e+002 6.352706e+002 3.665409e+002 2.091048e+003 5.386838e+002 2.059707e+002 1.524661e+002 6.618049e+001 4.758662e+001 2.672190e+001 2.820946e+001 1.469763e+001 2.077378e+002 7.879797e+001 2.984993e+001 2.156486e+001 1.019027e+001 6.722672e+000 4.414366e+000 4.791769e+000 2.735705e+000
<GCONST> 1.866019e+002
<STATE> 7
<MEAN> 27
 7.916434e+002 1.665184e+002 -7.830877e+001 1.670333e+001 -1.902892e+001 -4.198294e+000 1.467375e+000 -6.871547e+000 1.957170e-003 1.627329e+000 1.018394e+000 -3.716933e-001 -3.556697e-001 -2.844083e-001 -2.234725e-001 1.292528e-003 3.670969e-002 -3.443934e-002 -7.937771e-001 -2.364615e-001 3.107111e-001 -7.720687e-003 3.039084e-002 -5.973323e-003 2.064894e-002 6.327178e-002 -2.129349e-002
<VARIANCE> 27
 6.601104e+004 1.031644e+004 4.328915e+003 3.996369e+003 2.273641e+003 1.412662e+003 6.792460e+002 6.352706e+002 3.665409e+002 2.091048e+003 5.386838e+002 2.059707e+002 1.524661e+002 6.618049e+001 4.758662e+001 2.672190e+001 2.820946e+001 1.469763e+001 2.077378e+002 7.879797e+001 2.984993e+001 2.156486e+001 1.019027e+001 6.722672e+000 4.414366e+000 4.791769e+000 2.735705e+000
<GCONST> 1.866019e+002
<STATE> 8
<MEAN> 27
 7.916434e+002 1.665184e+002 -7.830877e+001 1.670333e+001 -1.902892e+001 -4.198294e+000 1.467375e+000 -6.871547e+000 1.957170e-003 1.627329e+000 1.018394e+000 -3.716933e-001 -3.556697e-001 -2.844083e-001 -2.234725e-001 1.292528e-003 3.670969e-002 -3.443934e-002 -7.937771e-001 -2.364615e-001 3.107111e-001 -7.720687e-003 3.039084e-002 -5.973323e-003 2.064894e-002 6.327178e-002 -2.129349e-002
<VARIANCE> 27
 6.601104e+004 1.031644e+004 4.328915e+003 3.996369e+003 2.273641e+003 1.412662e+003 6.792460e+002 6.352706e+002 3.665409e+002 2.091048e+003 5.386838e+002 2.059707e+002 1.524661e+002 6.618049e+001 4.758662e+001 2.672190e+001 2.820946e+001 1.469763e+001 2.077378e+002 7.879797e+001 2.984993e+001 2.156486e+001 1.019027e+001 6.722672e+000 4.414366e+000 4.791769e+000 2.735705e+000
<GCONST> 1.866019e+002
<STATE> 9
<MEAN> 27
 7.916434e+002 1.665184e+002 -7.830877e+001 1.670333e+001 -1.902892e+001 -4.198294e+000 1.467375e+000 -6.871547e+000 1.957170e-003 1.627329e+000 1.018394e+000 -3.716933e-001 -3.556697e-001 -2.844083e-001 -2.234725e-001 1.292528e-003 3.670969e-002 -3.443934e-002 -7.937771e-001 -2.364615e-001 3.107111e-001 -7.720687e-003 3.039084e-002 -5.973323e-003 2.064894e-002 6.327178e-002 -2.129349e-002
<VARIANCE> 27
 6.601104e+004 1.031644e+004 4.328915e+003 3.996369e+003 2.273641e+003 1.412662e+003 6.792460e+002 6.352706e+002 3.665409e+002 2.091048e+003 5.386838e+002 2.059707e+002 1.524661e+002 6.618049e+001 4.758662e+001 2.672190e+001 2.820946e+001 1.469763e+001 2.077378e+002 7.879797e+001 2.984993e+001 2.156486e+001 1.019027e+001 6.722672e+000 4.414366e+000 4.791769e+000 2.735705e+000
<GCONST> 1.866019e+002
<STATE> 10
<MEAN> 27
 7.916434e+002 1.665184e+002 -7.830877e+001 1.670333e+001 -1.902892e+001 -4.198294e+000 1.467375e+000 -6.871547e+000 1.957170e-003 1.627329e+000 1.018394e+000 -3.716933e-001 -3.556697e-001 -2.844083e-001 -2.234725e-001 1.292528e-003 3.670969e-002 -3.443934e-002 -7.937771e-001 -2.364615e-001 3.107111e-001 -7.720687e-003 3.039084e-002 -5.973323e-003 2.064894e-002 6.327178e-002 -2.129349e-002
<VARIANCE> 27
 6.601104e+004 1.031644e+004 4.328915e+003 3.996369e+003 2.273641e+003 1.412662e+003 6.792460e+002 6.352706e+002 3.665409e+002 2.091048e+003 5.386838e+002 2.059707e+002 1.524661e+002 6.618049e+001 4.758662e+001 2.672190e+001 2.820946e+001 1.469763e+001 2.077378e+002 7.879797e+001 2.984993e+001 2.156486e+001 1.019027e+001 6.722672e+000 4.414366e+000 4.791769e+000 2.735705e+000
<GCONST> 1.866019e+002
<STATE> 11
<MEAN> 27
 7.916434e+002 1.665184e+002 -7.830877e+001 1.670333e+001 -1.902892e+001 -4.198294e+000 1.467375e+000 -6.871547e+000 1.957170e-003 1.627329e+000 1.018394e+000 -3.716933e-001 -3.556697e-001 -2.844083e-001 -2.234725e-001 1.292528e-003 3.670969e-002 -3.443934e-002 -7.937771e-001 -2.364615e-001 3.107111e-001 -7.720687e-003 3.039084e-002 -5.973323e-003 2.064894e-002 6.327178e-002 -2.129349e-002
<VARIANCE> 27
 6.601104e+004 1.031644e+004 4.328915e+003 3.996369e+003 2.273641e+003 1.412662e+003 6.792460e+002 6.352706e+002 3.665409e+002 2.091048e+003 5.386838e+002 2.059707e+002 1.524661e+002 6.618049e+001 4.758662e+001 2.672190e+001 2.820946e+001 1.469763e+001 2.077378e+002 7.879797e+001 2.984993e+001 2.156486e+001 1.019027e+001 6.722672e+000 4.414366e+000 4.791769e+000 2.735705e+000
<GCONST> 1.866019e+002
<STATE> 12
<MEAN> 27
 7.916434e+002 1.665184e+002 -7.830877e+001 1.670333e+001 -1.902892e+001 -4.198294e+000 1.467375e+000 -6.871547e+000 1.957170e-003 1.627329e+000 1.018394e+000 -3.716933e-001 -3.556697e-001 -2.844083e-001 -2.234725e-001 1.292528e-003 3.670969e-002 -3.443934e-002 -7.937771e-001 -2.364615e-001 3.107111e-001 -7.720687e-003 3.039084e-002 -5.973323e-003 2.064894e-002 6.327178e-002 -2.129349e-002
<VARIANCE> 27
 6.601104e+004 1.031644e+004 4.328915e+003 3.996369e+003 2.273641e+003 1.412662e+003 6.792460e+002 6.352706e+002 3.665409e+002 2.091048e+003 5.386838e+002 2.059707e+002 1.524661e+002 6.618049e+001 4.758662e+001 2.672190e+001 2.820946e+001 1.469763e+001 2.077378e+002 7.879797e+001 2.984993e+001 2.156486e+001 1.019027e+001 6.722672e+000 4.414366e+000 4.791769e+000 2.735705e+000
<GCONST> 1.866019e+002
<STATE> 13
<MEAN> 27
 7.916434e+002 1.665184e+002 -7.830877e+001 1.670333e+001 -1.902892e+001 -4.198294e+000 1.467375e+000 -6.871547e+000 1.957170e-003 1.627329e+000 1.018394e+000 -3.716933e-001 -3.556697e-001 -2.844083e-001 -2.234725e-001 1.292528e-003 3.670969e-002 -3.443934e-002 -7.937771e-001 -2.364615e-001 3.107111e-001 -7.720687e-003 3.039084e-002 -5.973323e-003 2.064894e-002 6.327178e-002 -2.129349e-002
<VARIANCE> 27
 6.601104e+004 1.031644e+004 4.328915e+003 3.996369e+003 2.273641e+003 1.412662e+003 6.792460e+002 6.352706e+002 3.665409e+002 2.091048e+003 5.386838e+002 2.059707e+002 1.524661e+002 6.618049e+001 4.758662e+001 2.672190e+001 2.820946e+001 1.469763e+001 2.077378e+002 7.879797e+001 2.984993e+001 2.156486e+001 1.019027e+001 6.722672e+000 4.414366e+000 4.791769e+000 2.735705e+000
<GCONST> 1.866019e+002
<STATE> 14
<MEAN> 27
 7.916434e+002 1.665184e+002 -7.830877e+001 1.670333e+001 -1.902892e+001 -4.198294e+000 1.467375e+000 -6.871547e+000 1.957170e-003 1.627329e+000 1.018394e+000 -3.716933e-001 -3.556697e-001 -2.844083e-001 -2.234725e-001 1.292528e-003 3.670969e-002 -3.443934e-002 -7.937771e-001 -2.364615e-001 3.107111e-001 -7.720687e-003 3.039084e-002 -5.973323e-003 2.064894e-002 6.327178e-002 -2.129349e-002
<VARIANCE> 27
 6.601104e+004 1.031644e+004 4.328915e+003 3.996369e+003 2.273641e+003 1.412662e+003 6.792460e+002 6.352706e+002 3.665409e+002 2.091048e+003 5.386838e+002 2.059707e+002 1.524661e+002 6.618049e+001 4.758662e+001 2.672190e+001 2.820946e+001 1.469763e+001 2.077378e+002 7.879797e+001 2.984993e+001 2.156486e+001 1.019027e+001 6.722672e+000 4.414366e+000 4.791769e+000 2.735705e+000
<GCONST> 1.866019e+002
<STATE> 15
<MEAN> 27
 7.916434e+002 1.665184e+002 -7.830877e+001 1.670333e+001 -1.902892e+001 -4.198294e+000 1.467375e+000 -6.871547e+000 1.957170e-003 1.627329e+000 1.018394e+000 -3.716933e-001 -3.556697e-001 -2.844083e-001 -2.234725e-001 1.292528e-003 3.670969e-002 -3.443934e-002 -7.937771e-001 -2.364615e-001 3.107111e-001 -7.720687e-003 3.039084e-002 -5.973323e-003 2.064894e-002 6.327178e-002 -2.129349e-002
<VARIANCE> 27
 6.601104e+004 1.031644e+004 4.328915e+003 3.996369e+003 2.273641e+003 1.412662e+003 6.792460e+002 6.352706e+002 3.665409e+002 2.091048e+003 5.386838e+002 2.059707e+002 1.524661e+002 6.618049e+001 4.758662e+001 2.672190e+001 2.820946e+001 1.469763e+001 2.077378e+002 7.879797e+001 2.984993e+001 2.156486e+001 1.019027e+001 6.722672e+000 4.414366e+000 4.791769e+000 2.735705e+000
<GCONST> 1.866019e+002
<STATE> 16
<MEAN> 27
 7.916434e+002 1.665184e+002 -7.830877e+001 1.670333e+001 -1.902892e+001 -4.198294e+000 1.467375e+000 -6.871547e+000 1.957170e-003 1.627329e+000 1.018394e+000 -3.716933e-001 -3.556697e-001 -2.844083e-001 -2.234725e-001 1.292528e-003 3.670969e-002 -3.443934e-002 -7.937771e-001 -2.364615e-001 3.107111e-001 -7.720687e-003 3.039084e-002 -5.973323e-003 2.064894e-002 6.327178e-002 -2.129349e-002
<VARIANCE> 27
 6.601104e+004 1.031644e+004 4.328915e+003 3.996369e+003 2.273641e+003 1.412662e+003 6.792460e+002 6.352706e+002 3.665409e+002 2.091048e+003 5.386838e+002 2.059707e+002 1.524661e+002 6.618049e+001 4.758662e+001 2.672190e+001 2.820946e+001 1.469763e+001 2.077378e+002 7.879797e+001 2.984993e+001 2.156486e+001 1.019027e+001 6.722672e+000 4.414366e+000 4.791769e+000 2.735705e+000
<GCONST> 1.866019e+002
<STATE> 17
<MEAN> 27
 7.916434e+002 1.665184e+002 -7.830877e+001 1.670333e+001 -1.902892e+001 -4.198294e+000 1.467375e+000 -6.871547e+000 1.957170e-003 1.627329e+000 1.018394e+000 -3.716933e-001 -3.556697e-001 -2.844083e-001 -2.234725e-001 1.292528e-003 3.670969e-002 -3.443934e-002 -7.937771e-001 -2.364615e-001 3.107111e-001 -7.720687e-003 3.039084e-002 -5.973323e-003 2.064894e-002 6.327178e-002 -2.129349e-002
<VARIANCE> 27
 6.601104e+004 1.031644e+004 4.328915e+003 3.996369e+003 2.273641e+003 1.412662e+003 6.792460e+002 6.352706e+002 3.665409e+002 2.091048e+003 5.386838e+002 2.059707e+002 1.524661e+002 6.618049e+001 4.758662e+001 2.672190e+001 2.820946e+001 1.469763e+001 2.077378e+002 7.879797e+001 2.984993e+001 2.156486e+001 1.019027e+001 6.722672e+000 4.414366e+000 4.791769e+000 2.735705e+000
<GCONST> 1.866019e+002
<TRANSP> 18
 0.000000e+000 1.000000e+000 0.000000e+000 0.000000e+000 0.000000e+000 0.000000e+000 0.000000e+000 0.000000e+000 0.000000e+000 0.000000e+000 0.000000e+000 0.000000e+000 0.000000e+000 0.000000e+000 0.000000e+000 0.000000e+000 0.000000e+000 0.000000e+000
 0.000000e+000 6.000000e-001 4.000000e-001 0.000000e+000 0.000000e+000 0.000000e+000 0.000000e+000 0.000000e+000 0.000000e+000 0.000000e+000 0.000000e+000 0.000000e+000 0.000000e+000 0.000000e+000 0.000000e+000 0.000000e+000 0.000000e+000 0.000000e+000
 0.000000e+000 0.000000e+000 6.000000e-001 4.000000e-001 0.000000e+000 0.000000e+000 0.000000e+000 0.000000e+000 0.000000e+000 0.000000e+000 0.000000e+000 0.000000e+000 0.000000e+000 0.000000e+000 0.000000e+000 0.000000e+000 0.000000e+000 0.000000e+000
 0.000000e+000 0.000000e+000 0.000000e+000 6.000000e-001 4.000000e-001 0.000000e+000 0.000000e+000 0.000000e+000 0.000000e+000 0.000000e+000 0.000000e+000 0.000000e+000 0.000000e+000 0.000000e+000 0.000000e+000 0.000000e+000 0.000000e+000 0.000000e+000
 0.000000e+000 0.000000e+000 0.000000e+000 0.000000e+000 6.000000e-001 4.000000e-001 0.000000e+000 0.000000e+000 0.000000e+000 0.000000e+000 0.000000e+000 0.000000e+000 0.000000e+000 0.000000e+000 0.000000e+000 0.000000e+000 0.000000e+000 0.000000e+000
 0.000000e+000 0.000000e+000 0.000000e+000 0.000000e+000 0.000000e+000 6.000000e-001 4.000000e-001 0.000000e+000 0.000000e+000 0.000000e+000 0.000000e+000 0.000000e+000 0.000000e+000 0.000000e+000 0.000000e+000 0.000000e+000 0.000000e+000 0.000000e+000
 0.000000e+000 0.000000e+000 0.000000e+000 0.000000e+000 0.000000e+000 0.000000e+000 6.000000e-001 4.000000e-001 0.000000e+000 0.000000e+000 0.000000e+000 0.000000e+000 0.000000e+000 0.000000e+000 0.000000e+000 0.000000e+000 0.000000e+000 0.000000e+000
 0.000000e+000 0.000000e+000 0.000000e+000 0.000000e+000 0.000000e+000 0.000000e+000 0.000000e+000 6.000000e-001 4.000000e-001 0.000000e+000 0.000000e+000 0.000000e+000 0.000000e+000 0.000000e+000 0.000000e+000 0.000000e+000 0.000000e+000 0.000000e+000
 0.000000e+000 0.000000e+000 0.000000e+000 0.000000e+000 0.000000e+000 0.000000e+000 0.000000e+000 0.000000e+000 6.000000e-001 4.000000e-001 0.000000e+000 0.000000e+000 0.000000e+000 0.000000e+000 0.000000e+000 0.000000e+000 0.000000e+000 0.000000e+000
 0.000000e+000 0.000000e+000 0.000000e+000 0.000000e+000 0.000000e+000 0.000000e+000 0.000000e+000 0.000000e+000 0.000000e+000 6.000000e-001 4.000000e-001 0.000000e+000 0.000000e+000 0.000000e+000 0.000000e+000 0.000000e+000 0.000000e+000 0.000000e+000
 0.000000e+000 0.000000e+000 0.000000e+000 0.000000e+000 0.000000e+000 0.000000e+000 0.000000e+000 0.000000e+000 0.000000e+000 0.000000e+000 6.000000e-001 4.000000e-001 0.000000e+000 0.000000e+000 0.000000e+000 0.000000e+000 0.000000e+000 0.000000e+000
 0.000000e+000 0.000000e+000 0.000000e+000 0.000000e+000 0.000000e+000 0.000000e+000 0.000000e+000 0.000000e+000 0.000000e+000 0.000000e+000 0.000000e+000 6.000000e-001 4.000000e-001 0.000000e+000 0.000000e+000 0.000000e+000 0.000000e+000 0.000000e+000
 0.000000e+000 0.000000e+000 0.000000e+000 0.000000e+000 0.000000e+000 0.000000e+000 0.000000e+000 0.000000e+000 0.000000e+000 0.000000e+000 0.000000e+000 0.000000e+000 6.000000e-001 4.000000e-001 0.000000e+000 0.000000e+000 0.000000e+000 0.000000e+000
 0.000000e+000 0.000000e+000 0.000000e+000 0.000000e+000 0.000000e+000 0.000000e+000 0.000000e+000 0.000000e+000 0.000000e+000 0.000000e+000 0.000000e+000 0.000000e+000 0.000000e+000 6.000000e-001 4.000000e-001 0.000000e+000 0.000000e+000 0.000000e+000
 0.000000e+000 0.000000e+000 0.000000e+000 0.000000e+000 0.000000e+000 0.000000e+000 0.000000e+000 0.000000e+000 0.000000e+000 0.000000e+000 0.000000e+000 0.000000e+000 0.000000e+000 0.000000e+000 6.000000e-001 4.000000e-001 0.000000e+000 0.000000e+000
 0.000000e+000 0.000000e+000 0.000000e+000 0.000000e+000 0.000000e+000 0.000000e+000 0.000000e+000 0.000000e+000 0.000000e+000 0.000000e+000 0.000000e+000 0.000000e+000 0.000000e+000 0.000000e+000 0.000000e+000 6.000000e-001 4.000000e-001 0.000000e+000
 0.000000e+000 0.000000e+000 0.000000e+000 0.000000e+000 0.000000e+000 0.000000e+000 0.000000e+000 0.000000e+000 0.000000e+000 0.000000e+000 0.000000e+000 0.000000e+000 0.000000e+000 0.000000e+000 0.000000e+000 0.000000e+000 9.000000e-001 9.999999e-002
 0.000000e+000 0.000000e+000 0.000000e+000 0.000000e+000 0.000000e+000 0.000000e+000 0.000000e+000 0.000000e+000 0.000000e+000 0.000000e+000 0.000000e+000 0.000000e+000 0.000000e+000 0.000000e+000 0.000000e+000 0.000000e+000 0.000000e+000 0.000000e+000
<ENDHMM>
~h "no"
<BEGINHMM>
<NUMSTATES> 18
<STATE> 2
<MEAN> 27
 7.916434e+002 1.665184e+002 -7.830877e+001 1.670333e+001 -1.902892e+001 -4.198294e+000 1.467375e+000 -6.871547e+000 1.957170e-003 1.627329e+000 1.018394e+000 -3.716933e-001 -3.556697e-001 -2.844083e-001 -2.234725e-001 1.292528e-003 3.670969e-002 -3.443934e-002 -7.937771e-001 -2.364615e-001 3.107111e-001 -7.720687e-003 3.039084e-002 -5.973323e-003 2.064894e-002 6.327178e-002 -2.129349e-002
<VARIANCE> 27
 6.601104e+004 1.031644e+004 4.328915e+003 3.996369e+003 2.273641e+003 1.412662e+003 6.792460e+002 6.352706e+002 3.665409e+002 2.091048e+003 5.386838e+002 2.059707e+002 1.524661e+002 6.618049e+001 4.758662e+001 2.672190e+001 2.820946e+001 1.469763e+001 2.077378e+002 7.879797e+001 2.984993e+001 2.156486e+001 1.019027e+001 6.722672e+000 4.414366e+000 4.791769e+000 2.735705e+000
<GCONST> 1.866019e+002
<STATE> 3
<MEAN> 27
 7.916434e+002 1.665184e+002 -7.830877e+001 1.670333e+001 -1.902892e+001 -4.198294e+000 1.467375e+000 -6.871547e+000 1.957170e-003 1.627329e+000 1.018394e+000 -3.716933e-001 -3.556697e-001 -2.844083e-001 -2.234725e-001 1.292528e-003 3.670969e-002 -3.443934e-002 -7.937771e-001 -2.364615e-001 3.107111e-001 -7.720687e-003 3.039084e-002 -5.973323e-003 2.064894e-002 6.327178e-002 -2.129349e-002
<VARIANCE> 27
 6.601104e+004 1.031644e+004 4.328915e+003 3.996369e+003 2.273641e+003 1.412662e+003 6.792460e+002 6.352706e+002 3.665409e+002 2.091048e+003 5.386838e+002 2.059707e+002 1.524661e+002 6.618049e+001 4.758662e+001 2.672190e+001 2.820946e+001 1.469763e+001 2.077378e+002 7.879797e+001 2.984993e+001 2.156486e+001 1.019027e+001 6.722672e+000 4.414366e+000 4.791769e+000 2.735705e+000
<GCONST> 1.866019e+002
<STATE> 4
<MEAN> 27
 7.916434e+002 1.665184e+002 -7.830877e+001 1.670333e+001 -1.902892e+001 -4.198294e+000 1.467375e+000 -6.871547e+000 1.957170e-003 1.627329e+000 1.018394e+000 -3.716933e-001 -3.556697e-001 -2.844083e-001 -2.234725e-001 1.292528e-003 3.670969e-002 -3.443934e-002 -7.937771e-001 -2.364615e-001 3.107111e-001 -7.720687e-003 3.039084e-002 -5.973323e-003 2.064894e-002 6.327178e-002 -2.129349e-002
<VARIANCE> 27
 6.601104e+004 1.031644e+004 4.328915e+003 3.996369e+003 2.273641e+003 1.412662e+003 6.792460e+002 6.352706e+002 3.665409e+002 2.091048e+003 5.386838e+002 2.059707e+002 1.524661e+002 6.618049e+001 4.758662e+001 2.672190e+001 2.820946e+001 1.469763e+001 2.077378e+002 7.879797e+001 2.984993e+001 2.156486e+001 1.019027e+001 6.722672e+000 4.414366e+000 4.791769e+000 2.735705e+000
<GCONST> 1.866019e+002
<STATE> 5
<MEAN> 27
 7.916434e+002 1.665184e+002 -7.830877e+001 1.670333e+001 -1.902892e+001 -4.198294e+000 1.467375e+000 -6.871547e+000 1.957170e-003 1.627329e+000 1.018394e+000 -3.716933e-001 -3.556697e-001 -2.844083e-001 -2.234725e-001 1.292528e-003 3.670969e-002 -3.443934e-002 -7.937771e-001 -2.364615e-001 3.107111e-001 -7.720687e-003 3.039084e-002 -5.973323e-003 2.064894e-002 6.327178e-002 -2.129349e-002
<VARIANCE> 27
 6.601104e+004 1.031644e+004 4.328915e+003 3.996369e+003 2.273641e+003 1.412662e+003 6.792460e+002 6.352706e+002 3.665409e+002 2.091048e+003 5.386838e+002 2.059707e+002 1.524661e+002 6.618049e+001 4.758662e+001 2.672190e+001 2.820946e+001 1.469763e+001 2.077378e+002 7.879797e+001 2.984993e+001 2.156486e+001 1.019027e+001 6.722672e+000 4.414366e+000 4.791769e+000 2.735705e+000
<GCONST> 1.866019e+002
<STATE> 6
<MEAN> 27
 7.916434e+002 1.665184e+002 -7.830877e+001 1.670333e+001 -1.902892e+001 -4.198294e+000 1.467375e+000 -6.871547e+000 1.957170e-003 1.627329e+000 1.018394e+000 -3.716933e-001 -3.556697e-001 -2.844083e-001 -2.234725e-001 1.292528e-003 3.670969e-002 -3.443934e-002 -7.937771e-001 -2.364615e-001 3.107111e-001 -7.720687e-003 3.039084e-002 -5.973323e-003 2.064894e-002 6.327178e-002 -2.129349e-002
<VARIANCE> 27
 6.601104e+004 1.031644e+004 4.328915e+003 3.996369e+003 2.273641e+003 1.412662e+003 6.792460e+002 6.352706e+002 3.665409e+002 2.091048e+003 5.386838e+002 2.059707e+002 1.524661e+002 6.618049e+001 4.758662e+001 2.672190e+001 2.820946e+001 1.469763e+001 2.077378e+002 7.879797e+001 2.984993e+001 2.156486e+001 1.019027e+001 6.722672e+000 4.414366e+000 4.791769e+000 2.735705e+000
<GCONST> 1.866019e+002
<STATE> 7
<MEAN> 27
 7.916434e+002 1.665184e+002 -7.830877e+001 1.670333e+001 -1.902892e+001 -4.198294e+000 1.467375e+000 -6.871547e+000 1.957170e-003 1.627329e+000 1.018394e+000 -3.716933e-001 -3.556697e-001 -2.844083e-001 -2.234725e-001 1.292528e-003 3.670969e-002 -3.443934e-002 -7.937771e-001 -2.364615e-001 3.107111e-001 -7.720687e-003 3.039084e-002 -5.973323e-003 2.064894e-002 6.327178e-002 -2.129349e-002
<VARIANCE> 27
 6.601104e+004 1.031644e+004 4.328915e+003 3.996369e+003 2.273641e+003 1.412662e+003 6.792460e+002 6.352706e+002 3.665409e+002 2.091048e+003 5.386838e+002 2.059707e+002 1.524661e+002 6.618049e+001 4.758662e+001 2.672190e+001 2.820946e+001 1.469763e+001 2.077378e+002 7.879797e+001 2.984993e+001 2.156486e+001 1.019027e+001 6.722672e+000 4.414366e+000 4.791769e+000 2.735705e+000
<GCONST> 1.866019e+002
<STATE> 8
<MEAN> 27
 7.916434e+002 1.665184e+002 -7.830877e+001 1.670333e+001 -1.902892e+001 -4.198294e+000 1.467375e+000 -6.871547e+000 1.957170e-003 1.627329e+000 1.018394e+000 -3.716933e-001 -3.556697e-001 -2.844083e-001 -2.234725e-001 1.292528e-003 3.670969e-002 -3.443934e-002 -7.937771e-001 -2.364615e-001 3.107111e-001 -7.720687e-003 3.039084e-002 -5.973323e-003 2.064894e-002 6.327178e-002 -2.129349e-002
<VARIANCE> 27
 6.601104e+004 1.031644e+004 4.328915e+003 3.996369e+003 2.273641e+003 1.412662e+003 6.792460e+002 6.352706e+002 3.665409e+002 2.091048e+003 5.386838e+002 2.059707e+002 1.524661e+002 6.618049e+001 4.758662e+001 2.672190e+001 2.820946e+001 1.469763e+001 2.077378e+002 7.879797e+001 2.984993e+001 2.156486e+001 1.019027e+001 6.722672e+000 4.414366e+000 4.791769e+000 2.735705e+000
<GCONST> 1.866019e+002
<STATE> 9
<MEAN> 27
 7.916434e+002 1.665184e+002 -7.830877e+001 1.670333e+001 -1.902892e+001 -4.198294e+000 1.467375e+000 -6.871547e+000 1.957170e-003 1.627329e+000 1.018394e+000 -3.716933e-001 -3.556697e-001 -2.844083e-001 -2.234725e-001 1.292528e-003 3.670969e-002 -3.443934e-002 -7.937771e-001 -2.364615e-001 3.107111e-001 -7.720687e-003 3.039084e-002 -5.973323e-003 2.064894e-002 6.327178e-002 -2.129349e-002
<VARIANCE> 27
 6.601104e+004 1.031644e+004 4.328915e+003 3.996369e+003 2.273641e+003 1.412662e+003 6.792460e+002 6.352706e+002 3.665409e+002 2.091048e+003 5.386838e+002 2.059707e+002 1.524661e+002 6.618049e+001 4.758662e+001 2.672190e+001 2.820946e+001 1.469763e+001 2.077378e+002 7.879797e+001 2.984993e+001 2.156486e+001 1.019027e+001 6.722672e+000 4.414366e+000 4.791769e+000 2.735705e+000
<GCONST> 1.866019e+002
<STATE> 10
<MEAN> 27
 7.916434e+002 1.665184e+002 -7.830877e+001 1.670333e+001 -1.902892e+001 -4.198294e+000 1.467375e+000 -6.871547e+000 1.957170e-003 1.627329e+000 1.018394e+000 -3.716933e-001 -3.556697e-001 -2.844083e-001 -2.234725e-001 1.292528e-003 3.670969e-002 -3.443934e-002 -7.937771e-001 -2.364615e-001 3.107111e-001 -7.720687e-003 3.039084e-002 -5.973323e-003 2.064894e-002 6.327178e-002 -2.129349e-002
<VARIANCE> 27
 6.601104e+004 1.031644e+004 4.328915e+003 3.996369e+003 2.273641e+003 1.412662e+003 6.792460e+002 6.352706e+002 3.665409e+002 2.091048e+003 5.386838e+002 2.059707e+002 1.524661e+002 6.618049e+001 4.758662e+001 2.672190e+001 2.820946e+001 1.469763e+001 2.077378e+002 7.879797e+001 2.984993e+001 2.156486e+001 1.019027e+001 6.722672e+000 4.414366e+000 4.791769e+000 2.735705e+000
<GCONST> 1.866019e+002
<STATE> 11
<MEAN> 27
 7.916434e+002 1.665184e+002 -7.830877e+001 1.670333e+001 -1.902892e+001 -4.198294e+000 1.467375e+000 -6.871547e+000 1.957170e-003 1.627329e+000 1.018394e+000 -3.716933e-001 -3.556697e-001 -2.844083e-001 -2.234725e-001 1.292528e-003 3.670969e-002 -3.443934e-002 -7.937771e-001 -2.364615e-001 3.107111e-001 -7.720687e-003 3.039084e-002 -5.973323e-003 2.064894e-002 6.327178e-002 -2.129349e-002
<VARIANCE> 27
 6.601104e+004 1.031644e+004 4.328915e+003 3.996369e+003 2.273641e+003 1.412662e+003 6.792460e+002 6.352706e+002 3.665409e+002 2.091048e+003 5.386838e+002 2.059707e+002 1.524661e+002 6.618049e+001 4.758662e+001 2.672190e+001 2.820946e+001 1.469763e+001 2.077378e+002 7.879797e+001 2.984993e+001 2.156486e+001 1.019027e+001 6.722672e+000 4.414366e+000 4.791769e+000 2.735705e+000
<GCONST> 1.866019e+002
<STATE> 12
<MEAN> 27
 7.916434e+002 1.665184e+002 -7.830877e+001 1.670333e+001 -1.902892e+001 -4.198294e+000 1.467375e+000 -6.871547e+000 1.957170e-003 1.627329e+000 1.018394e+000 -3.716933e-001 -3.556697e-001 -2.844083e-001 -2.234725e-001 1.292528e-003 3.670969e-002 -3.443934e-002 -7.937771e-001 -2.364615e-001 3.107111e-001 -7.720687e-003 3.039084e-002 -5.973323e-003 2.064894e-002 6.327178e-002 -2.129349e-002
<VARIANCE> 27
 6.601104e+004 1.031644e+004 4.328915e+003 3.996369e+003 2.273641e+003 1.412662e+003 6.792460e+002 6.352706e+002 3.665409e+002 2.091048e+003 5.386838e+002 2.059707e+002 1.524661e+002 6.618049e+001 4.758662e+001 2.672190e+001 2.820946e+001 1.469763e+001 2.077378e+002 7.879797e+001 2.984993e+001 2.156486e+001 1.019027e+001 6.722672e+000 4.414366e+000 4.791769e+000 2.735705e+000
<GCONST> 1.866019e+002
<STATE> 13
<MEAN> 27
 7.916434e+002 1.665184e+002 -7.830877e+001 1.670333e+001 -1.902892e+001 -4.198294e+000 1.467375e+000 -6.871547e+000 1.957170e-003 1.627329e+000 1.018394e+000 -3.716933e-001 -3.556697e-001 -2.844083e-001 -2.234725e-001 1.292528e-003 3.670969e-002 -3.443934e-002 -7.937771e-001 -2.364615e-001 3.107111e-001 -7.720687e-003 3.039084e-002 -5.973323e-003 2.064894e-002 6.327178e-002 -2.129349e-002
<VARIANCE> 27
 6.601104e+004 1.031644e+004 4.328915e+003 3.996369e+003 2.273641e+003 1.412662e+003 6.792460e+002 6.352706e+002 3.665409e+002 2.091048e+003 5.386838e+002 2.059707e+002 1.524661e+002 6.618049e+001 4.758662e+001 2.672190e+001 2.820946e+001 1.469763e+001 2.077378e+002 7.879797e+001 2.984993e+001 2.156486e+001 1.019027e+001 6.722672e+000 4.414366e+000 4.791769e+000 2.735705e+000
<GCONST> 1.866019e+002
<STATE> 14
<MEAN> 27
 7.916434e+002 1.665184e+002 -7.830877e+001 1.670333e+001 -1.902892e+001 -4.198294e+000 1.467375e+000 -6.871547e+000 1.957170e-003 1.627329e+000 1.018394e+000 -3.716933e-001 -3.556697e-001 -2.844083e-001 -2.234725e-001 1.292528e-003 3.670969e-002 -3.443934e-002 -7.937771e-001 -2.364615e-001 3.107111e-001 -7.720687e-003 3.039084e-002 -5.973323e-003 2.064894e-002 6.327178e-002 -2.129349e-002
<VARIANCE> 27
 6.601104e+004 1.031644e+004 4.328915e+003 3.996369e+003 2.273641e+003 1.412662e+003 6.792460e+002 6.352706e+002 3.665409e+002 2.091048e+003 5.386838e+002 2.059707e+002 1.524661e+002 6.618049e+001 4.758662e+001 2.672190e+001 2.820946e+001 1.469763e+001 2.077378e+002 7.879797e+001 2.984993e+001 2.156486e+001 1.019027e+001 6.722672e+000 4.414366e+000 4.791769e+000 2.735705e+000
<GCONST> 1.866019e+002
<STATE> 15
<MEAN> 27
 7.916434e+002 1.665184e+002 -7.830877e+001 1.670333e+001 -1.902892e+001 -4.198294e+000 1.467375e+000 -6.871547e+000 1.957170e-003 1.627329e+000 1.018394e+000 -3.716933e-001 -3.556697e-001 -2.844083e-001 -2.234725e-001 1.292528e-003 3.670969e-002 -3.443934e-002 -7.937771e-001 -2.364615e-001 3.107111e-001 -7.720687e-003 3.039084e-002 -5.973323e-003 2.064894e-002 6.327178e-002 -2.129349e-002
<VARIANCE> 27
 6.601104e+004 1.031644e+004 4.328915e+003 3.996369e+003 2.273641e+003 1.412662e+003 6.792460e+002 6.352706e+002 3.665409e+002 2.091048e+003 5.386838e+002 2.059707e+002 1.524661e+002 6.618049e+001 4.758662e+001 2.672190e+001 2.820946e+001 1.469763e+001 2.077378e+002 7.879797e+001 2.984993e+001 2.156486e+001 1.019027e+001 6.722672e+000 4.414366e+000 4.791769e+000 2.735705e+000
<GCONST> 1.866019e+002
<STATE> 16
<MEAN> 27
 7.916434e+002 1.665184e+002 -7.830877e+001 1.670333e+001 -1.902892e+001 -4.198294e+000 1.467375e+000 -6.871547e+000 1.957170e-003 1.627329e+000 1.018394e+000 -3.716933e-001 -3.556697e-001 -2.844083e-001 -2.234725e-001 1.292528e-003 3.670969e-002 -3.443934e-002 -7.937771e-001 -2.364615e-001 3.107111e-001 -7.720687e-003 3.039084e-002 -5.973323e-003 2.064894e-002 6.327178e-002 -2.129349e-002
<VARIANCE> 27
 6.601104e+004 1.031644e+004 4.328915e+003 3.996369e+003 2.273641e+003 1.412662e+003 6.792460e+002 6.352706e+002 3.665409e+002 2.091048e+003 5.386838e+002 2.059707e+002 1.524661e+002 6.618049e+001 4.758662e+001 2.672190e+001 2.820946e+001 1.469763e+001 2.077378e+002 7.879797e+001 2.984993e+001 2.156486e+001 1.019027e+001 6.722672e+000 4.414366e+000 4.791769e+000 2.735705e+000
<GCONST> 1.866019e+002
<STATE> 17
<MEAN> 27
 7.916434e+002 1.665184e+002 -7.830877e+001 1.670333e+001 -1.902892e+001 -4.198294e+000 1.467375e+000 -6.871547e+000 1.957170e-003 1.627329e+000 1.018394e+000 -3.716933e-001 -3.556697e-001 -2.844083e-001 -2.234725e-001 1.292528e-003 3.670969e-002 -3.443934e-002 -7.937771e-001 -2.364615e-001 3.107111e-001 -7.720687e-003 3.039084e-002 -5.973323e-003 2.064894e-002 6.327178e-002 -2.129349e-002
<VARIANCE> 27
 6.601104e+004 1.031644e+004 4.328915e+003 3.996369e+003 2.273641e+003 1.412662e+003 6.792460e+002 6.352706e+002 3.665409e+002 2.091048e+003 5.386838e+002 2.059707e+002 1.524661e+002 6.618049e+001 4.758662e+001 2.672190e+001 2.820946e+001 1.469763e+001 2.077378e+002 7.879797e+001 2.984993e+001 2.156486e+001 1.019027e+001 6.722672e+000 4.414366e+000 4.791769e+000 2.735705e+000
<GCONST> 1.866019e+002
<TRANSP> 18
 0.000000e+000 1.000000e+000 0.000000e+000 0.000000e+000 0.000000e+000 0.000000e+000 0.000000e+000 0.000000e+000 0.000000e+000 0.000000e+000 0.000000e+000 0.000000e+000 0.000000e+000 0.000000e+000 0.000000e+000 0.000000e+000 0.000000e+000 0.000000e+000
 0.000000e+000 6.000000e-001 4.000000e-001 0.000000e+000 0.000000e+000 0.000000e+000 0.000000e+000 0.000000e+000 0.000000e+000 0.000000e+000 0.000000e+000 0.000000e+000 0.000000e+000 0.000000e+000 0.000000e+000 0.000000e+000 0.000000e+000 0.000000e+000
 0.000000e+000 0.000000e+000 6.000000e-001 4.000000e-001 0.000000e+000 0.000000e+000 0.000000e+000 0.000000e+000 0.000000e+000 0.000000e+000 0.000000e+000 0.000000e+000 0.000000e+000 0.000000e+000 0.000000e+000 0.000000e+000 0.000000e+000 0.000000e+000
 0.000000e+000 0.000000e+000 0.000000e+000 6.000000e-001 4.000000e-001 0.000000e+000 0.000000e+000 0.000000e+000 0.000000e+000 0.000000e+000 0.000000e+000 0.000000e+000 0.000000e+000 0.000000e+000 0.000000e+000 0.000000e+000 0.000000e+000 0.000000e+000
 0.000000e+000 0.000000e+000 0.000000e+000 0.000000e+000 6.000000e-001 4.000000e-001 0.000000e+000 0.000000e+000 0.000000e+000 0.000000e+000 0.000000e+000 0.000000e+000 0.000000e+000 0.000000e+000 0.000000e+000 0.000000e+000 0.000000e+000 0.000000e+000
 0.000000e+000 0.000000e+000 0.000000e+000 0.000000e+000 0.000000e+000 6.000000e-001 4.000000e-001 0.000000e+000 0.000000e+000 0.000000e+000 0.000000e+000 0.000000e+000 0.000000e+000 0.000000e+000 0.000000e+000 0.000000e+000 0.000000e+000 0.000000e+000
 0.000000e+000 0.000000e+000 0.000000e+000 0.000000e+000 0.000000e+000 0.000000e+000 6.000000e-001 4.000000e-001 0.000000e+000 0.000000e+000 0.000000e+000 0.000000e+000 0.000000e+000 0.000000e+000 0.000000e+000 0.000000e+000 0.000000e+000 0.000000e+000
 0.000000e+000 0.000000e+000 0.000000e+000 0.000000e+000 0.000000e+000 0.000000e+000 0.000000e+000 6.000000e-001 4.000000e-001 0.000000e+000 0.000000e+000 0.000000e+000 0.000000e+000 0.000000e+000 0.000000e+000 0.000000e+000 0.000000e+000 0.000000e+000
 0.000000e+000 0.000000e+000 0.000000e+000 0.000000e+000 0.000000e+000 0.000000e+000 0.000000e+000 0.000000e+000 6.000000e-001 4.000000e-001 0.000000e+000 0.000000e+000 0.000000e+000 0.000000e+000 0.000000e+000 0.000000e+000 0.000000e+000 0.000000e+000
 0.000000e+000 0.000000e+000 0.000000e+000 0.000000e+000 0.000000e+000 0.000000e+000 0.000000e+000 0.000000e+000 0.000000e+000 6.000000e-001 4.000000e-001 0.000000e+000 0.000000e+000 0.000000e+000 0.000000e+000 0.000000e+000 0.000000e+000 0.000000e+000
 0.000000e+000 0.000000e+000 0.000000e+000 0.000000e+000 0.000000e+000 0.000000e+000 0.000000e+000 0.000000e+000 0.000000e+000 0.000000e+000 6.000000e-001 4.000000e-001 0.000000e+000 0.000000e+000 0.000000e+000 0.000000e+000 0.000000e+000 0.000000e+000
 0.000000e+000 0.000000e+000 0.000000e+000 0.000000e+000 0.000000e+000 0.000000e+000 0.000000e+000 0.000000e+000 0.000000e+000 0.000000e+000 0.000000e+000 6.000000e-001 4.000000e-001 0.000000e+000 0.000000e+000 0.000000e+000 0.000000e+000 0.000000e+000
 0.000000e+000 0.000000e+000 0.000000e+000 0.000000e+000 0.000000e+000 0.000000e+000 0.000000e+000 0.000000e+000 0.000000e+000 0.000000e+000 0.000000e+000 0.000000e+000 6.000000e-001 4.000000e-001 0.000000e+000 0.000000e+000 0.000000e+000 0.000000e+000
 0.000000e+000 0.000000e+000 0.000000e+000 0.000000e+000 0.000000e+000 0.000000e+000 0.000000e+000 0.000000e+000 0.000000e+000 0.000000e+000 0.000000e+000 0.000000e+000 0.000000e+000 6.000000e-001 4.000000e-001 0.000000e+000 0.000000e+000 0.000000e+000
 0.000000e+000 0.000000e+000 0.000000e+000 0.000000e+000 0.000000e+000 0.000000e+000 0.000000e+000 0.000000e+000 0.000000e+000 0.000000e+000 0.000000e+000 0.000000e+000 0.000000e+000 0.000000e+000 6.000000e-001 4.000000e-001 0.000000e+000 0.000000e+000
 0.000000e+000 0.000000e+000 0.000000e+000 0.000000e+000 0.000000e+000 0.000000e+000 0.000000e+000 0.000000e+000 0.000000e+000 0.000000e+000 0.000000e+000 0.000000e+000 0.000000e+000 0.000000e+000 0.000000e+000 6.000000e-001 4.000000e-001 0.000000e+000
 0.000000e+000 0.000000e+000 0.000000e+000 0.000000e+000 0.000000e+000 0.000000e+000 0.000000e+000 0.000000e+000 0.000000e+000 0.000000e+000 0.000000e+000 0.000000e+000 0.000000e+000 0.000000e+000 0.000000e+000 0.000000e+000 9.000000e-001 9.999999e-002
 0.000000e+000 0.000000e+000 0.000000e+000 0.000000e+000 0.000000e+000 0.000000e+000 0.000000e+000 0.000000e+000 0.000000e+000 0.000000e+000 0.000000e+000 0.000000e+000 0.000000e+000 0.000000e+000 0.000000e+000 0.000000e+000 0.000000e+000 0.000000e+000
<ENDHMM>
~h "sil"
<BEGINHMM>
<NUMSTATES> 18
<STATE> 2
<MEAN> 27
 7.916434e+002 1.665184e+002 -7.830877e+001 1.670333e+001 -1.902892e+001 -4.198294e+000 1.467375e+000 -6.871547e+000 1.957170e-003 1.627329e+000 1.018394e+000 -3.716933e-001 -3.556697e-001 -2.844083e-001 -2.234725e-001 1.292528e-003 3.670969e-002 -3.443934e-002 -7.937771e-001 -2.364615e-001 3.107111e-001 -7.720687e-003 3.039084e-002 -5.973323e-003 2.064894e-002 6.327178e-002 -2.129349e-002
<VARIANCE> 27
 6.601104e+004 1.031644e+004 4.328915e+003 3.996369e+003 2.273641e+003 1.412662e+003 6.792460e+002 6.352706e+002 3.665409e+002 2.091048e+003 5.386838e+002 2.059707e+002 1.524661e+002 6.618049e+001 4.758662e+001 2.672190e+001 2.820946e+001 1.469763e+001 2.077378e+002 7.879797e+001 2.984993e+001 2.156486e+001 1.019027e+001 6.722672e+000 4.414366e+000 4.791769e+000 2.735705e+000
<GCONST> 1.866019e+002
<STATE> 3
<MEAN> 27
 7.916434e+002 1.665184e+002 -7.830877e+001 1.670333e+001 -1.902892e+001 -4.198294e+000 1.467375e+000 -6.871547e+000 1.957170e-003 1.627329e+000 1.018394e+000 -3.716933e-001 -3.556697e-001 -2.844083e-001 -2.234725e-001 1.292528e-003 3.670969e-002 -3.443934e-002 -7.937771e-001 -2.364615e-001 3.107111e-001 -7.720687e-003 3.039084e-002 -5.973323e-003 2.064894e-002 6.327178e-002 -2.129349e-002
<VARIANCE> 27
 6.601104e+004 1.031644e+004 4.328915e+003 3.996369e+003 2.273641e+003 1.412662e+003 6.792460e+002 6.352706e+002 3.665409e+002 2.091048e+003 5.386838e+002 2.059707e+002 1.524661e+002 6.618049e+001 4.758662e+001 2.672190e+001 2.820946e+001 1.469763e+001 2.077378e+002 7.879797e+001 2.984993e+001 2.156486e+001 1.019027e+001 6.722672e+000 4.414366e+000 4.791769e+000 2.735705e+000
<GCONST> 1.866019e+002
<STATE> 4
<MEAN> 27
 7.916434e+002 1.665184e+002 -7.830877e+001 1.670333e+001 -1.902892e+001 -4.198294e+000 1.467375e+000 -6.871547e+000 1.957170e-003 1.627329e+000 1.018394e+000 -3.716933e-001 -3.556697e-001 -2.844083e-001 -2.234725e-001 1.292528e-003 3.670969e-002 -3.443934e-002 -7.937771e-001 -2.364615e-001 3.107111e-001 -7.720687e-003 3.039084e-002 -5.973323e-003 2.064894e-002 6.327178e-002 -2.129349e-002
<VARIANCE> 27
 6.601104e+004 1.031644e+004 4.328915e+003 3.996369e+003 2.273641e+003 1.412662e+003 6.792460e+002 6.352706e+002 3.665409e+002 2.091048e+003 5.386838e+002 2.059707e+002 1.524661e+002 6.618049e+001 4.758662e+001 2.672190e+001 2.820946e+001 1.469763e+001 2.077378e+002 7.879797e+001 2.984993e+001 2.156486e+001 1.019027e+001 6.722672e+000 4.414366e+000 4.791769e+000 2.735705e+000
<GCONST> 1.866019e+002
<STATE> 5
<MEAN> 27
 7.916434e+002 1.665184e+002 -7.830877e+001 1.670333e+001 -1.902892e+001 -4.198294e+000 1.467375e+000 -6.871547e+000 1.957170e-003 1.627329e+000 1.018394e+000 -3.716933e-001 -3.556697e-001 -2.844083e-001 -2.234725e-001 1.292528e-003 3.670969e-002 -3.443934e-002 -7.937771e-001 -2.364615e-001 3.107111e-001 -7.720687e-003 3.039084e-002 -5.973323e-003 2.064894e-002 6.327178e-002 -2.129349e-002
<VARIANCE> 27
 6.601104e+004 1.031644e+004 4.328915e+003 3.996369e+003 2.273641e+003 1.412662e+003 6.792460e+002 6.352706e+002 3.665409e+002 2.091048e+003 5.386838e+002 2.059707e+002 1.524661e+002 6.618049e+001 4.758662e+001 2.672190e+001 2.820946e+001 1.469763e+001 2.077378e+002 7.879797e+001 2.984993e+001 2.156486e+001 1.019027e+001 6.722672e+000 4.414366e+000 4.791769e+000 2.735705e+000
<GCONST> 1.866019e+002
<STATE> 6
<MEAN> 27
 7.916434e+002 1.665184e+002 -7.830877e+001 1.670333e+001 -1.902892e+001 -4.198294e+000 1.467375e+000 -6.871547e+000 1.957170e-003 1.627329e+000 1.018394e+000 -3.716933e-001 -3.556697e-001 -2.844083e-001 -2.234725e-001 1.292528e-003 3.670969e-002 -3.443934e-002 -7.937771e-001 -2.364615e-001 3.107111e-001 -7.720687e-003 3.039084e-002 -5.973323e-003 2.064894e-002 6.327178e-002 -2.129349e-002
<VARIANCE> 27
 6.601104e+004 1.031644e+004 4.328915e+003 3.996369e+003 2.273641e+003 1.412662e+003 6.792460e+002 6.352706e+002 3.665409e+002 2.091048e+003 5.386838e+002 2.059707e+002 1.524661e+002 6.618049e+001 4.758662e+001 2.672190e+001 2.820946e+001 1.469763e+001 2.077378e+002 7.879797e+001 2.984993e+001 2.156486e+001 1.019027e+001 6.722672e+000 4.414366e+000 4.791769e+000 2.735705e+000
<GCONST> 1.866019e+002
<STATE> 7
<MEAN> 27
 7.916434e+002 1.665184e+002 -7.830877e+001 1.670333e+001 -1.902892e+001 -4.198294e+000 1.467375e+000 -6.871547e+000 1.957170e-003 1.627329e+000 1.018394e+000 -3.716933e-001 -3.556697e-001 -2.844083e-001 -2.234725e-001 1.292528e-003 3.670969e-002 -3.443934e-002 -7.937771e-001 -2.364615e-001 3.107111e-001 -7.720687e-003 3.039084e-002 -5.973323e-003 2.064894e-002 6.327178e-002 -2.129349e-002
<VARIANCE> 27
 6.601104e+004 1.031644e+004 4.328915e+003 3.996369e+003 2.273641e+003 1.412662e+003 6.792460e+002 6.352706e+002 3.665409e+002 2.091048e+003 5.386838e+002 2.059707e+002 1.524661e+002 6.618049e+001 4.758662e+001 2.672190e+001 2.820946e+001 1.469763e+001 2.077378e+002 7.879797e+001 2.984993e+001 2.156486e+001 1.019027e+001 6.722672e+000 4.414366e+000 4.791769e+000 2.735705e+000
<GCONST> 1.866019e+002
<STATE> 8
<MEAN> 27
 7.916434e+002 1.665184e+002 -7.830877e+001 1.670333e+001 -1.902892e+001 -4.198294e+000 1.467375e+000 -6.871547e+000 1.957170e-003 1.627329e+000 1.018394e+000 -3.716933e-001 -3.556697e-001 -2.844083e-001 -2.234725e-001 1.292528e-003 3.670969e-002 -3.443934e-002 -7.937771e-001 -2.364615e-001 3.107111e-001 -7.720687e-003 3.039084e-002 -5.973323e-003 2.064894e-002 6.327178e-002 -2.129349e-002
<VARIANCE> 27
 6.601104e+004 1.031644e+004 4.328915e+003 3.996369e+003 2.273641e+003 1.412662e+003 6.792460e+002 6.352706e+002 3.665409e+002 2.091048e+003 5.386838e+002 2.059707e+002 1.524661e+002 6.618049e+001 4.758662e+001 2.672190e+001 2.820946e+001 1.469763e+001 2.077378e+002 7.879797e+001 2.984993e+001 2.156486e+001 1.019027e+001 6.722672e+000 4.414366e+000 4.791769e+000 2.735705e+000
<GCONST> 1.866019e+002
<STATE> 9
<MEAN> 27
 7.916434e+002 1.665184e+002 -7.830877e+001 1.670333e+001 -1.902892e+001 -4.198294e+000 1.467375e+000 -6.871547e+000 1.957170e-003 1.627329e+000 1.018394e+000 -3.716933e-001 -3.556697e-001 -2.844083e-001 -2.234725e-001 1.292528e-003 3.670969e-002 -3.443934e-002 -7.937771e-001 -2.364615e-001 3.107111e-001 -7.720687e-003 3.039084e-002 -5.973323e-003 2.064894e-002 6.327178e-002 -2.129349e-002
<VARIANCE> 27
 6.601104e+004 1.031644e+004 4.328915e+003 3.996369e+003 2.273641e+003 1.412662e+003 6.792460e+002 6.352706e+002 3.665409e+002 2.091048e+003 5.386838e+002 2.059707e+002 1.524661e+002 6.618049e+001 4.758662e+001 2.672190e+001 2.820946e+001 1.469763e+001 2.077378e+002 7.879797e+001 2.984993e+001 2.156486e+001 1.019027e+001 6.722672e+000 4.414366e+000 4.791769e+000 2.735705e+000
<GCONST> 1.866019e+002
<STATE> 10
<MEAN> 27
 7.916434e+002 1.665184e+002 -7.830877e+001 1.670333e+001 -1.902892e+001 -4.198294e+000 1.467375e+000 -6.871547e+000 1.957170e-003 1.627329e+000 1.018394e+000 -3.716933e-001 -3.556697e-001 -2.844083e-001 -2.234725e-001 1.292528e-003 3.670969e-002 -3.443934e-002 -7.937771e-001 -2.364615e-001 3.107111e-001 -7.720687e-003 3.039084e-002 -5.973323e-003 2.064894e-002 6.327178e-002 -2.129349e-002
<VARIANCE> 27
 6.601104e+004 1.031644e+004 4.328915e+003 3.996369e+003 2.273641e+003 1.412662e+003 6.792460e+002 6.352706e+002 3.665409e+002 2.091048e+003 5.386838e+002 2.059707e+002 1.524661e+002 6.618049e+001 4.758662e+001 2.672190e+001 2.820946e+001 1.469763e+001 2.077378e+002 7.879797e+001 2.984993e+001 2.156486e+001 1.019027e+001 6.722672e+000 4.414366e+000 4.791769e+000 2.735705e+000
<GCONST> 1.866019e+002
<STATE> 11
<MEAN> 27
 7.916434e+002 1.665184e+002 -7.830877e+001 1.670333e+001 -1.902892e+001 -4.198294e+000 1.467375e+000 -6.871547e+000 1.957170e-003 1.627329e+000 1.018394e+000 -3.716933e-001 -3.556697e-001 -2.844083e-001 -2.234725e-001 1.292528e-003 3.670969e-002 -3.443934e-002 -7.937771e-001 -2.364615e-001 3.107111e-001 -7.720687e-003 3.039084e-002 -5.973323e-003 2.064894e-002 6.327178e-002 -2.129349e-002
<VARIANCE> 27
 6.601104e+004 1.031644e+004 4.328915e+003 3.996369e+003 2.273641e+003 1.412662e+003 6.792460e+002 6.352706e+002 3.665409e+002 2.091048e+003 5.386838e+002 2.059707e+002 1.524661e+002 6.618049e+001 4.758662e+001 2.672190e+001 2.820946e+001 1.469763e+001 2.077378e+002 7.879797e+001 2.984993e+001 2.156486e+001 1.019027e+001 6.722672e+000 4.414366e+000 4.791769e+000 2.735705e+000
<GCONST> 1.866019e+002
<STATE> 12
<MEAN> 27
 7.916434e+002 1.665184e+002 -7.830877e+001 1.670333e+001 -1.902892e+001 -4.198294e+000 1.467375e+000 -6.871547e+000 1.957170e-003 1.627329e+000 1.018394e+000 -3.716933e-001 -3.556697e-001 -2.844083e-001 -2.234725e-001 1.292528e-003 3.670969e-002 -3.443934e-002 -7.937771e-001 -2.364615e-001 3.107111e-001 -7.720687e-003 3.039084e-002 -5.973323e-003 2.064894e-002 6.327178e-002 -2.129349e-002
<VARIANCE> 27
 6.601104e+004 1.031644e+004 4.328915e+003 3.996369e+003 2.273641e+003 1.412662e+003 6.792460e+002 6.352706e+002 3.665409e+002 2.091048e+003 5.386838e+002 2.059707e+002 1.524661e+002 6.618049e+001 4.758662e+001 2.672190e+001 2.820946e+001 1.469763e+001 2.077378e+002 7.879797e+001 2.984993e+001 2.156486e+001 1.019027e+001 6.722672e+000 4.414366e+000 4.791769e+000 2.735705e+000
<GCONST> 1.866019e+002
<STATE> 13
<MEAN> 27
 7.916434e+002 1.665184e+002 -7.830877e+001 1.670333e+001 -1.902892e+001 -4.198294e+000 1.467375e+000 -6.871547e+000 1.957170e-003 1.627329e+000 1.018394e+000 -3.716933e-001 -3.556697e-001 -2.844083e-001 -2.234725e-001 1.292528e-003 3.670969e-002 -3.443934e-002 -7.937771e-001 -2.364615e-001 3.107111e-001 -7.720687e-003 3.039084e-002 -5.973323e-003 2.064894e-002 6.327178e-002 -2.129349e-002
<VARIANCE> 27
 6.601104e+004 1.031644e+004 4.328915e+003 3.996369e+003 2.273641e+003 1.412662e+003 6.792460e+002 6.352706e+002 3.665409e+002 2.091048e+003 5.386838e+002 2.059707e+002 1.524661e+002 6.618049e+001 4.758662e+001 2.672190e+001 2.820946e+001 1.469763e+001 2.077378e+002 7.879797e+001 2.984993e+001 2.156486e+001 1.019027e+001 6.722672e+000 4.414366e+000 4.791769e+000 2.735705e+000
<GCONST> 1.866019e+002
<STATE> 14
<MEAN> 27
 7.916434e+002 1.665184e+002 -7.830877e+001 1.670333e+001 -1.902892e+001 -4.198294e+000 1.467375e+000 -6.871547e+000 1.957170e-003 1.627329e+000 1.018394e+000 -3.716933e-001 -3.556697e-001 -2.844083e-001 -2.234725e-001 1.292528e-003 3.670969e-002 -3.443934e-002 -7.937771e-001 -2.364615e-001 3.107111e-001 -7.720687e-003 3.039084e-002 -5.973323e-003 2.064894e-002 6.327178e-002 -2.129349e-002
<VARIANCE> 27
 6.601104e+004 1.031644e+004 4.328915e+003 3.996369e+003 2.273641e+003 1.412662e+003 6.792460e+002 6.352706e+002 3.665409e+002 2.091048e+003 5.386838e+002 2.059707e+002 1.524661e+002 6.618049e+001 4.758662e+001 2.672190e+001 2.820946e+001 1.469763e+001 2.077378e+002 7.879797e+001 2.984993e+001 2.156486e+001 1.019027e+001 6.722672e+000 4.414366e+000 4.791769e+000 2.735705e+000
<GCONST> 1.866019e+002
<STATE> 15
<MEAN> 27
 7.916434e+002 1.665184e+002 -7.830877e+001 1.670333e+001 -1.902892e+001 -4.198294e+000 1.467375e+000 -6.871547e+000 1.957170e-003 1.627329e+000 1.018394e+000 -3.716933e-001 -3.556697e-001 -2.844083e-001 -2.234725e-001 1.292528e-003 3.670969e-002 -3.443934e-002 -7.937771e-001 -2.364615e-001 3.107111e-001 -7.720687e-003 3.039084e-002 -5.973323e-003 2.064894e-002 6.327178e-002 -2.129349e-002
<VARIANCE> 27
 6.601104e+004 1.031644e+004 4.328915e+003 3.996369e+003 2.273641e+003 1.412662e+003 6.792460e+002 6.352706e+002 3.665409e+002 2.091048e+003 5.386838e+002 2.059707e+002 1.524661e+002 6.618049e+001 4.758662e+001 2.672190e+001 2.820946e+001 1.469763e+001 2.077378e+002 7.879797e+001 2.984993e+001 2.156486e+001 1.019027e+001 6.722672e+000 4.414366e+000 4.791769e+000 2.735705e+000
<GCONST> 1.866019e+002
<STATE> 16
<MEAN> 27
 7.916434e+002 1.665184e+002 -7.830877e+001 1.670333e+001 -1.902892e+001 -4.198294e+000 1.467375e+000 -6.871547e+000 1.957170e-003 1.627329e+000 1.018394e+000 -3.716933e-001 -3.556697e-001 -2.844083e-001 -2.234725e-001 1.292528e-003 3.670969e-002 -3.443934e-002 -7.937771e-001 -2.364615e-001 3.107111e-001 -7.720687e-003 3.039084e-002 -5.973323e-003 2.064894e-002 6.327178e-002 -2.129349e-002
<VARIANCE> 27
 6.601104e+004 1.031644e+004 4.328915e+003 3.996369e+003 2.273641e+003 1.412662e+003 6.792460e+002 6.352706e+002 3.665409e+002 2.091048e+003 5.386838e+002 2.059707e+002 1.524661e+002 6.618049e+001 4.758662e+001 2.672190e+001 2.820946e+001 1.469763e+001 2.077378e+002 7.879797e+001 2.984993e+001 2.156486e+001 1.019027e+001 6.722672e+000 4.414366e+000 4.791769e+000 2.735705e+000
<GCONST> 1.866019e+002
<STATE> 17
<MEAN> 27
 7.916434e+002 1.665184e+002 -7.830877e+001 1.670333e+001 -1.902892e+001 -4.198294e+000 1.467375e+000 -6.871547e+000 1.957170e-003 1.627329e+000 1.018394e+000 -3.716933e-001 -3.556697e-001 -2.844083e-001 -2.234725e-001 1.292528e-003 3.670969e-002 -3.443934e-002 -7.937771e-001 -2.364615e-001 3.107111e-001 -7.720687e-003 3.039084e-002 -5.973323e-003 2.064894e-002 6.327178e-002 -2.129349e-002
<VARIANCE> 27
 6.601104e+004 1.031644e+004 4.328915e+003 3.996369e+003 2.273641e+003 1.412662e+003 6.792460e+002 6.352706e+002 3.665409e+002 2.091048e+003 5.386838e+002 2.059707e+002 1.524661e+002 6.618049e+001 4.758662e+001 2.672190e+001 2.820946e+001 1.469763e+001 2.077378e+002 7.879797e+001 2.984993e+001 2.156486e+001 1.019027e+001 6.722672e+000 4.414366e+000 4.791769e+000 2.735705e+000
<GCONST> 1.866019e+002
<TRANSP> 18
 0.000000e+000 1.000000e+000 0.000000e+000 0.000000e+000 0.000000e+000 0.000000e+000 0.000000e+000 0.000000e+000 0.000000e+000 0.000000e+000 0.000000e+000 0.000000e+000 0.000000e+000 0.000000e+000 0.000000e+000 0.000000e+000 0.000000e+000 0.000000e+000
 0.000000e+000 6.000000e-001 4.000000e-001 0.000000e+000 0.000000e+000 0.000000e+000 0.000000e+000 0.000000e+000 0.000000e+000 0.000000e+000 0.000000e+000 0.000000e+000 0.000000e+000 0.000000e+000 0.000000e+000 0.000000e+000 0.000000e+000 0.000000e+000
 0.000000e+000 0.000000e+000 6.000000e-001 4.000000e-001 0.000000e+000 0.000000e+000 0.000000e+000 0.000000e+000 0.000000e+000 0.000000e+000 0.000000e+000 0.000000e+000 0.000000e+000 0.000000e+000 0.000000e+000 0.000000e+000 0.000000e+000 0.000000e+000
 0.000000e+000 0.000000e+000 0.000000e+000 6.000000e-001 4.000000e-001 0.000000e+000 0.000000e+000 0.000000e+000 0.000000e+000 0.000000e+000 0.000000e+000 0.000000e+000 0.000000e+000 0.000000e+000 0.000000e+000 0.000000e+000 0.000000e+000 0.000000e+000
 0.000000e+000 0.000000e+000 0.000000e+000 0.000000e+000 6.000000e-001 4.000000e-001 0.000000e+000 0.000000e+000 0.000000e+000 0.000000e+000 0.000000e+000 0.000000e+000 0.000000e+000 0.000000e+000 0.000000e+000 0.000000e+000 0.000000e+000 0.000000e+000
 0.000000e+000 0.000000e+000 0.000000e+000 0.000000e+000 0.000000e+000 6.000000e-001 4.000000e-001 0.000000e+000 0.000000e+000 0.000000e+000 0.000000e+000 0.000000e+000 0.000000e+000 0.000000e+000 0.000000e+000 0.000000e+000 0.000000e+000 0.000000e+000
 0.000000e+000 0.000000e+000 0.000000e+000 0.000000e+000 0.000000e+000 0.000000e+000 6.000000e-001 4.000000e-001 0.000000e+000 0.000000e+000 0.000000e+000 0.000000e+000 0.000000e+000 0.000000e+000 0.000000e+000 0.000000e+000 0.000000e+000 0.000000e+000
 0.000000e+000 0.000000e+000 0.000000e+000 0.000000e+000 0.000000e+000 0.000000e+000 0.000000e+000 6.000000e-001 4.000000e-001 0.000000e+000 0.000000e+000 0.000000e+000 0.000000e+000 0.000000e+000 0.000000e+000 0.000000e+000 0.000000e+000 0.000000e+000
 0.000000e+000 0.000000e+000 0.000000e+000 0.000000e+000 0.000000e+000 0.000000e+000 0.000000e+000 0.000000e+000 6.000000e-001 4.000000e-001 0.000000e+000 0.000000e+000 0.000000e+000 0.000000e+000 0.000000e+000 0.000000e+000 0.000000e+000 0.000000e+000
 0.000000e+000 0.000000e+000 0.000000e+000 0.000000e+000 0.000000e+000 0.000000e+000 0.000000e+000 0.000000e+000 0.000000e+000 6.000000e-001 4.000000e-001 0.000000e+000 0.000000e+000 0.000000e+000 0.000000e+000 0.000000e+000 0.000000e+000 0.000000e+000
 0.000000e+000 0.000000e+000 0.000000e+000 0.000000e+000 0.000000e+000 0.000000e+000 0.000000e+000 0.000000e+000 0.000000e+000 0.000000e+000 6.000000e-001 4.000000e-001 0.000000e+000 0.000000e+000 0.000000e+000 0.000000e+000 0.000000e+000 0.000000e+000
 0.000000e+000 0.000000e+000 0.000000e+000 0.000000e+000 0.000000e+000 0.000000e+000 0.000000e+000 0.000000e+000 0.000000e+000 0.000000e+000 0.000000e+000 6.000000e-001 4.000000e-001 0.000000e+000 0.000000e+000 0.000000e+000 0.000000e+000 0.000000e+000
 0.000000e+000 0.000000e+000 0.000000e+000 0.000000e+000 0.000000e+000 0.000000e+000 0.000000e+000 0.000000e+000 0.000000e+000 0.000000e+000 0.000000e+000 0.000000e+000 6.000000e-001 4.000000e-001 0.000000e+000 0.000000e+000 0.000000e+000 0.000000e+000
 0.000000e+000 0.000000e+000 0.000000e+000 0.000000e+000 0.000000e+000 0.000000e+000 0.000000e+000 0.000000e+000 0.000000e+000 0.000000e+000 0.000000e+000 0.000000e+000 0.000000e+000 6.000000e-001 4.000000e-001 0.000000e+000 0.000000e+000 0.000000e+000
 0.000000e+000 0.000000e+000 0.000000e+000 0.000000e+000 0.000000e+000 0.000000e+000 0.000000e+000 0.000000e+000 0.000000e+000 0.000000e+000 0.000000e+000 0.000000e+000 0.000000e+000 0.000000e+000 6.000000e-001 4.000000e-001 0.000000e+000 0.000000e+000
 0.000000e+000 0.000000e+000 0.000000e+000 0.000000e+000 0.000000e+000 0.000000e+000 0.000000e+000 0.000000e+000 0.000000e+000 0.000000e+000 0.000000e+000 0.000000e+000 0.000000e+000 0.000000e+000 0.000000e+000 6.000000e-001 4.000000e-001 0.000000e+000
 0.000000e+000 0.000000e+000 0.000000e+000 0.000000e+000 0.000000e+000 0.000000e+000 0.000000e+000 0.000000e+000 0.000000e+000 0.000000e+000 0.000000e+000 0.000000e+000 0.000000e+000 0.000000e+000 0.000000e+000 0.000000e+000 9.000000e-001 9.999999e-002
 0.000000e+000 0.000000e+000 0.000000e+000 0.000000e+000 0.000000e+000 0.000000e+000 0.000000e+000 0.000000e+000 0.000000e+000 0.000000e+000 0.000000e+000 0.000000e+000 0.000000e+000 0.000000e+000 0.000000e+000 0.000000e+000 0.000000e+000 0.000000e+000
<ENDHMM>
